SNNS network definition file V1.4-3D
generated at Fri Nov 11 10:37:07 2016

network name : 63_2_10 v3
source files :
no. of units : 75
no. of connections : 146
no. of unit types : 0
no. of site types : 0


learning function : BackpropMomentum
update function   : Topological_Order


unit default section :

act      | bias     | st | subnet | layer | act func     | out func
---------|----------|----|--------|-------|--------------|-------------
 0.00000 |  0.00000 | h  |      0 |     1 | Act_Logistic | Out_Identity 
---------|----------|----|--------|-------|--------------|-------------


unit definition section :

no. | typeName | unitName | act      | bias     | st | position | act func | out func | sites
----|----------|----------|----------|----------|----|----------|----------|----------|-------
  1 |          | noName   |  0.00000 |  0.09458 | i  |  1, 1, 1 |||
  2 |          | noName   |  0.00000 |  0.53740 | i  |  2, 1, 1 |||
  3 |          | noName   |  0.00000 |  0.08982 | i  |  3, 1, 1 |||
  4 |          | noName   |  0.00000 | -0.27000 | i  |  4, 1, 1 |||
  5 |          | noName   |  0.00000 |  0.09531 | i  |  5, 1, 1 |||
  6 |          | noName   |  0.00000 | -0.39433 | i  |  6, 1, 1 |||
  7 |          | noName   |  0.00000 |  0.86419 | i  |  7, 1, 1 |||
  8 |          | noName   |  0.00000 | -0.10526 | i  |  1, 2, 1 |||
  9 |          | noName   |  0.00000 |  0.86084 | i  |  2, 2, 1 |||
 10 |          | noName   |  0.80000 | -0.63726 | i  |  3, 2, 1 |||
 11 |          | noName   |  0.70000 | -0.06326 | i  |  4, 2, 1 |||
 12 |          | noName   |  0.80000 |  0.13431 | i  |  5, 2, 1 |||
 13 |          | noName   |  0.70000 |  0.30552 | i  |  6, 2, 1 |||
 14 |          | noName   |  0.00000 |  0.93292 | i  |  7, 2, 1 |||
 15 |          | noName   |  0.00000 |  0.32987 | i  |  1, 3, 1 |||
 16 |          | noName   |  0.00000 | -0.80480 | i  |  2, 3, 1 |||
 17 |          | noName   |  1.00000 | -0.25047 | i  |  3, 3, 1 |||
 18 |          | noName   |  0.00000 |  0.67724 | i  |  4, 3, 1 |||
 19 |          | noName   |  0.80000 |  0.99634 | i  |  5, 3, 1 |||
 20 |          | noName   |  0.00000 | -0.88934 | i  |  6, 3, 1 |||
 21 |          | noName   |  0.00000 | -0.58129 | i  |  7, 3, 1 |||
 22 |          | noName   |  0.00000 | -0.05716 | i  |  1, 4, 1 |||
 23 |          | noName   |  0.00000 |  0.82171 | i  |  2, 4, 1 |||
 24 |          | noName   |  0.00000 | -0.55620 | i  |  3, 4, 1 |||
 25 |          | noName   |  0.00000 |  0.96429 | i  |  4, 4, 1 |||
 26 |          | noName   |  0.00000 | -0.24656 | i  |  5, 4, 1 |||
 27 |          | noName   |  0.00000 | -0.19785 | i  |  6, 4, 1 |||
 28 |          | noName   |  0.00000 |  0.00394 | i  |  7, 4, 1 |||
 29 |          | noName   |  0.00000 |  0.56475 | i  |  1, 5, 1 |||
 30 |          | noName   |  0.00000 | -0.24601 | i  |  2, 5, 1 |||
 31 |          | noName   |  0.00000 | -0.53923 | i  |  3, 5, 1 |||
 32 |          | noName   |  0.00000 | -0.15232 | i  |  4, 5, 1 |||
 33 |          | noName   |  0.80000 | -0.82769 | i  |  5, 5, 1 |||
 34 |          | noName   |  0.00000 | -0.27824 | i  |  6, 5, 1 |||
 35 |          | noName   |  0.00000 | -0.43535 | i  |  7, 5, 1 |||
 36 |          | noName   |  0.00000 | -0.62218 | i  |  1, 6, 1 |||
 37 |          | noName   |  0.00000 | -0.53374 | i  |  2, 6, 1 |||
 38 |          | noName   |  0.00000 |  0.95599 | i  |  3, 6, 1 |||
 39 |          | noName   |  0.00000 | -0.79479 | i  |  4, 6, 1 |||
 40 |          | noName   |  0.70000 | -0.64751 | i  |  5, 6, 1 |||
 41 |          | noName   |  0.00000 |  0.07572 | i  |  6, 6, 1 |||
 42 |          | noName   |  0.00000 | -0.14072 | i  |  7, 6, 1 |||
 43 |          | noName   |  0.00000 | -0.69573 | i  |  1, 7, 1 |||
 44 |          | noName   |  0.80000 | -0.38334 | i  |  2, 7, 1 |||
 45 |          | noName   |  0.00000 |  0.63463 | i  |  3, 7, 1 |||
 46 |          | noName   |  0.00000 | -0.97699 | i  |  4, 7, 1 |||
 47 |          | noName   |  0.70000 |  0.60833 | i  |  5, 7, 1 |||
 48 |          | noName   |  0.00000 | -0.63085 | i  |  6, 7, 1 |||
 49 |          | noName   |  0.00000 |  0.23112 | i  |  7, 7, 1 |||
 50 |          | noName   |  0.00000 |  0.12882 | i  |  1, 8, 1 |||
 51 |          | noName   |  0.00000 |  0.23392 | i  |  2, 8, 1 |||
 52 |          | noName   |  0.80000 | -0.22306 | i  |  3, 8, 1 |||
 53 |          | noName   |  0.70000 |  0.81439 | i  |  4, 8, 1 |||
 54 |          | noName   |  0.00000 | -0.02109 | i  |  5, 8, 1 |||
 55 |          | noName   |  0.00000 |  0.82592 | i  |  6, 8, 1 |||
 56 |          | noName   |  0.00000 |  0.75005 | i  |  7, 8, 1 |||
 57 |          | noName   |  0.00000 |  0.12015 | i  |  1, 9, 1 |||
 58 |          | noName   |  0.00000 | -0.03183 | i  |  2, 9, 1 |||
 59 |          | noName   |  0.00000 | -0.60808 | i  |  3, 9, 1 |||
 60 |          | noName   |  0.00000 |  0.68871 | i  |  4, 9, 1 |||
 61 |          | noName   |  0.00000 | -0.32078 | i  |  5, 9, 1 |||
 62 |          | noName   |  0.00000 |  0.31016 | i  |  6, 9, 1 |||
 63 |          | noName   |  0.00000 | -0.12540 | i  |  7, 9, 1 |||
 64 |          | noName   |  0.98557 | -2.19850 | h  | 11, 1, 1 |||
 65 |          | noName   |  0.99922 |  2.44500 | h  | 11, 2, 1 |||
 66 |          | noName   |  0.00000 | -5.17343 | o  | 15, 1, 1 |||
 67 |          | noName   |  0.02079 | -1.26547 | o  | 15, 2, 1 |||
 68 |          | noName   |  0.19336 | -3.24154 | o  | 15, 3, 1 |||
 69 |          | noName   |  0.04835 | -16.67449 | o  | 15, 4, 1 |||
 70 |          | noName   |  0.00000 | -4.21535 | o  | 15, 5, 1 |||
 71 |          | noName   |  0.00000 |  4.06120 | o  | 15, 6, 1 |||
 72 |          | noName   |  0.46006 | -9.70268 | o  | 15, 7, 1 |||
 73 |          | noName   |  0.00000 |  4.39102 | o  | 15, 8, 1 |||
 74 |          | noName   |  0.00821 | -15.32202 | o  | 15, 9, 1 |||
 75 |          | noName   |  0.89348 | -20.45124 | o  | 15,10, 1 |||
----|----------|----------|----------|----------|----|----------|----------|----------|-------


connection definition section :

target | site | source:weight
-------|------|---------------------------------------------------------------------------------------------------------------------
    64 |      |  1: 0.46989,  2:-0.67107,  3: 0.52507,  4: 0.30735,  5:-0.22269,  6:-0.86938,  7: 0.13932,  8:-0.16794,  9: 2.32331,
                10: 0.17055, 11: 0.60448, 12: 0.27081, 13: 0.68016, 14: 0.59557, 15:-0.86877, 16:-0.32374, 17:-0.64159, 18: 2.56969,
                19:-0.29438, 20: 0.84172, 21: 0.65807, 22: 0.56529, 23:-0.75942, 24:-0.88952, 25: 2.21634, 26:-0.58657, 27:-3.27104,
                28:-0.78051, 29:-0.08420, 30:-0.54946, 31:-2.89756, 32: 1.15626, 33:-0.74181, 34:-1.39505, 35: 0.96753, 36:-0.97125,
                37:-0.04875, 38:-0.27793, 39: 0.83602, 40: 8.31888, 41: 0.37815, 42: 0.65722, 43: 0.26139, 44: 0.84599, 45: 0.75237,
                46: 1.86658, 47:-2.82962, 48: 0.13960, 49: 0.09293, 50: 0.83197, 51: 0.56684, 52: 1.65935, 53: 1.13444, 54: 0.24462,
                55:-0.41393, 56:-0.61296, 57:-0.59868, 58: 0.36052, 59: 0.06967, 60:-0.59648, 61: 0.35301, 62: 0.64690, 63:-0.64702
    65 |      |  1: 0.75744,  2: 0.71209,  3: 0.20115,  4: 0.11502,  5: 0.90887,  6: 0.88507,  7: 0.99158,  8: 0.24119,  9:-1.76396,
                10: 0.44092, 11:-2.35925, 12: 1.82342, 13:-2.73090, 14: 0.68157, 15:-0.57176, 16: 0.11619, 17: 0.20859, 18: 0.29547,
                19: 4.65095, 20:-0.84957, 21:-0.99591, 22:-0.55443, 23:-1.02440, 24:-0.49608, 25:-1.85683, 26: 2.64010, 27: 1.17067,
                28:-0.88971, 29:-0.11808, 30:-2.33383, 31: 2.25611, 32:-4.37839, 33:-0.91870, 34: 6.35763, 35: 0.84759, 36: 0.20115,
                37: 0.33696, 38:-0.66314, 39: 1.36552, 40: 0.29375, 41:-0.68487, 42:-0.49193, 43: 0.57518, 44:-0.01029, 45: 0.36119,
                46:-2.94632, 47: 2.60718, 48: 1.10347, 49: 0.29179, 50:-0.14774, 51: 0.29841, 52: 0.99202, 53: 0.64664, 54: 0.16203,
                55:-2.93000, 56: 0.44804, 57: 0.80126, 58: 0.22483, 59: 0.84729, 60: 0.27201, 61:-0.79376, 62: 0.52318, 63:-0.02170
    66 |      | 64:-24.66856, 65:10.17941
    67 |      | 64:-2.95481, 65: 0.32565
    68 |      | 64: 0.18765, 65: 1.62953
    69 |      | 64:-7.34447, 65:20.94960
    70 |      | 64: 8.91204, 65:-26.02754
    71 |      | 64:-8.94718, 65:-23.57536
    72 |      | 64: 8.37580, 65: 1.28862
    73 |      | 64:-26.20243, 65:-9.78866
    74 |      | 64:19.40229, 65:-8.60164
    75 |      | 64: 7.23047, 65:15.46389
-------|------|---------------------------------------------------------------------------------------------------------------------


layer definition section :

layer | unitNo.
------|----------------------------------------------------------------------------------------------------------------------------
    2 | 64, 65
    3 | 66, 67, 68, 69, 70, 71, 72, 73, 74, 75
------|----------------------------------------------------------------------------------------------------------------------------
