SNNS network definition file V1.4-3D
generated at Fri Nov 11 10:28:53 2016

network name : 63_2_10 v2
source files :
no. of units : 75
no. of connections : 146
no. of unit types : 0
no. of site types : 0


learning function : BackpropMomentum
update function   : Topological_Order


unit default section :

act      | bias     | st | subnet | layer | act func     | out func
---------|----------|----|--------|-------|--------------|-------------
 0.00000 |  0.00000 | h  |      0 |     1 | Act_Logistic | Out_Identity 
---------|----------|----|--------|-------|--------------|-------------


unit definition section :

no. | typeName | unitName | act      | bias     | st | position | act func | out func | sites
----|----------|----------|----------|----------|----|----------|----------|----------|-------
  1 |          | noName   |  0.00000 | -0.08005 | i  |  1, 1, 1 |||
  2 |          | noName   |  0.00000 |  0.09354 | i  |  2, 1, 1 |||
  3 |          | noName   |  0.00000 | -0.59008 | i  |  3, 1, 1 |||
  4 |          | noName   |  0.00000 |  0.54595 | i  |  4, 1, 1 |||
  5 |          | noName   |  0.00000 | -0.90777 | i  |  5, 1, 1 |||
  6 |          | noName   |  0.00000 |  0.96081 | i  |  6, 1, 1 |||
  7 |          | noName   |  0.00000 | -0.27744 | i  |  7, 1, 1 |||
  8 |          | noName   |  0.00000 |  0.66607 | i  |  1, 2, 1 |||
  9 |          | noName   |  0.00000 |  0.15598 | i  |  2, 2, 1 |||
 10 |          | noName   |  0.80000 | -0.29539 | i  |  3, 2, 1 |||
 11 |          | noName   |  0.70000 | -0.93554 | i  |  4, 2, 1 |||
 12 |          | noName   |  0.80000 | -0.21714 | i  |  5, 2, 1 |||
 13 |          | noName   |  0.70000 | -0.21250 | i  |  6, 2, 1 |||
 14 |          | noName   |  0.00000 |  0.63323 | i  |  7, 2, 1 |||
 15 |          | noName   |  0.00000 |  0.50078 | i  |  1, 3, 1 |||
 16 |          | noName   |  0.00000 | -0.26627 | i  |  2, 3, 1 |||
 17 |          | noName   |  1.00000 |  0.37858 | i  |  3, 3, 1 |||
 18 |          | noName   |  0.00000 | -0.13889 | i  |  4, 3, 1 |||
 19 |          | noName   |  0.80000 |  0.81750 | i  |  5, 3, 1 |||
 20 |          | noName   |  0.00000 | -0.22922 | i  |  6, 3, 1 |||
 21 |          | noName   |  0.00000 |  0.34153 | i  |  7, 3, 1 |||
 22 |          | noName   |  0.00000 |  0.64476 | i  |  1, 4, 1 |||
 23 |          | noName   |  0.00000 | -0.23405 | i  |  2, 4, 1 |||
 24 |          | noName   |  0.00000 | -0.92187 | i  |  3, 4, 1 |||
 25 |          | noName   |  0.00000 | -0.19156 | i  |  4, 4, 1 |||
 26 |          | noName   |  0.00000 |  0.53374 | i  |  5, 4, 1 |||
 27 |          | noName   |  0.00000 | -0.14170 | i  |  6, 4, 1 |||
 28 |          | noName   |  0.00000 | -0.36363 | i  |  7, 4, 1 |||
 29 |          | noName   |  0.00000 | -0.71197 | i  |  1, 5, 1 |||
 30 |          | noName   |  0.00000 | -0.34831 | i  |  2, 5, 1 |||
 31 |          | noName   |  0.00000 |  0.77563 | i  |  3, 5, 1 |||
 32 |          | noName   |  0.00000 | -0.75298 | i  |  4, 5, 1 |||
 33 |          | noName   |  0.80000 | -0.15860 | i  |  5, 5, 1 |||
 34 |          | noName   |  0.00000 |  0.41795 | i  |  6, 5, 1 |||
 35 |          | noName   |  0.00000 | -0.54796 | i  |  7, 5, 1 |||
 36 |          | noName   |  0.00000 | -0.46995 | i  |  1, 6, 1 |||
 37 |          | noName   |  0.00000 |  0.34001 | i  |  2, 6, 1 |||
 38 |          | noName   |  0.00000 |  0.02353 | i  |  3, 6, 1 |||
 39 |          | noName   |  0.00000 | -0.10221 | i  |  4, 6, 1 |||
 40 |          | noName   |  0.70000 |  0.70635 | i  |  5, 6, 1 |||
 41 |          | noName   |  0.00000 |  0.36851 | i  |  6, 6, 1 |||
 42 |          | noName   |  0.00000 | -0.02676 | i  |  7, 6, 1 |||
 43 |          | noName   |  0.00000 | -0.17814 | i  |  1, 7, 1 |||
 44 |          | noName   |  0.80000 | -0.02243 | i  |  2, 7, 1 |||
 45 |          | noName   |  0.00000 |  0.33427 | i  |  3, 7, 1 |||
 46 |          | noName   |  0.00000 |  0.00693 | i  |  4, 7, 1 |||
 47 |          | noName   |  0.70000 |  0.11911 | i  |  5, 7, 1 |||
 48 |          | noName   |  0.00000 | -0.68322 | i  |  6, 7, 1 |||
 49 |          | noName   |  0.00000 | -0.65349 | i  |  7, 7, 1 |||
 50 |          | noName   |  0.00000 |  0.71203 | i  |  1, 8, 1 |||
 51 |          | noName   |  0.00000 |  0.28208 | i  |  2, 8, 1 |||
 52 |          | noName   |  0.80000 | -0.51866 | i  |  3, 8, 1 |||
 53 |          | noName   |  0.70000 |  0.42753 | i  |  4, 8, 1 |||
 54 |          | noName   |  0.00000 |  0.13987 | i  |  5, 8, 1 |||
 55 |          | noName   |  0.00000 | -0.19779 | i  |  6, 8, 1 |||
 56 |          | noName   |  0.00000 |  0.06064 | i  |  7, 8, 1 |||
 57 |          | noName   |  0.00000 | -0.38170 | i  |  1, 9, 1 |||
 58 |          | noName   |  0.00000 |  0.73876 | i  |  2, 9, 1 |||
 59 |          | noName   |  0.00000 |  0.62084 | i  |  3, 9, 1 |||
 60 |          | noName   |  0.00000 |  0.37223 | i  |  4, 9, 1 |||
 61 |          | noName   |  0.00000 |  0.54137 | i  |  5, 9, 1 |||
 62 |          | noName   |  0.00000 | -0.08444 | i  |  6, 9, 1 |||
 63 |          | noName   |  0.00000 |  0.69402 | i  |  7, 9, 1 |||
 64 |          | noName   |  0.00729 |  0.63343 | h  | 11, 1, 1 |||
 65 |          | noName   |  0.50841 |  3.56264 | h  | 11, 2, 1 |||
 66 |          | noName   |  0.07570 | -3.52358 | o  | 15, 1, 1 |||
 67 |          | noName   |  0.10351 | -0.89203 | o  | 15, 2, 1 |||
 68 |          | noName   |  0.00000 | -13.60988 | o  | 15, 3, 1 |||
 69 |          | noName   |  0.00007 |  4.16989 | o  | 15, 4, 1 |||
 70 |          | noName   |  0.00000 | -19.02508 | o  | 15, 5, 1 |||
 71 |          | noName   |  0.00326 | -16.55690 | o  | 15, 6, 1 |||
 72 |          | noName   |  0.00000 | -5.45793 | o  | 15, 7, 1 |||
 73 |          | noName   |  0.02480 | -6.43908 | o  | 15, 8, 1 |||
 74 |          | noName   |  0.27765 |  4.31371 | o  | 15, 9, 1 |||
 75 |          | noName   |  0.53587 | -4.40184 | o  | 15,10, 1 |||
----|----------|----------|----------|----------|----|----------|----------|----------|-------


connection definition section :

target | site | source:weight
-------|------|---------------------------------------------------------------------------------------------------------------------
    64 |      |  1: 0.98297,  2: 0.53905,  3:-0.26707,  4: 0.91107,  5:-0.94263,  6: 0.69677,  7:-0.81707,  8:-0.40751,  9:-2.24452,
                10:-0.20140, 11:-1.76177, 12:-0.46918, 13: 0.68022, 14: 0.87945, 15: 0.80749, 16:-1.65130, 17: 0.14029, 18:-4.85757,
                19:-3.53105, 20: 2.70314, 21: 0.04599, 22:-0.69280, 23: 0.25097, 24: 0.94488, 25:-2.86170, 26:-2.97162, 27:-0.90548,
                28:-0.89563, 29: 0.34086, 30: 1.28403, 31: 0.75735, 32: 0.43639, 33:-0.15602, 34:-0.79600, 35: 0.98364, 36: 0.99597,
                37: 0.96054, 38: 0.74462, 39:-3.00683, 40:-1.38952, 41:-2.90110, 42:-0.26225, 43:-0.08371, 44: 1.00044, 45:-0.64476,
                46:-2.85622, 47:-3.77024, 48:-0.99014, 49: 0.58068, 50: 0.13999, 51:-1.31421, 52: 1.02717, 53: 0.77938, 54: 2.48076,
                55: 3.53758, 56:-0.86047, 57: 0.56401, 58:-0.83312, 59: 0.10324, 60:-0.06314, 61: 0.87457, 62: 0.64702, 63: 0.86920
    65 |      |  1:-0.60302,  2: 0.75921,  3:-0.75249,  4: 0.15439,  5:-0.97180,  6: 0.49376,  7: 0.22587,  8: 0.47465,  9:-1.68782,
                10: 0.44602, 11:-2.48360, 12:-4.02392, 13: 1.36913, 14: 0.30235, 15:-0.15055, 16:-2.77162, 17:-0.69903, 18:-3.15334,
                19: 0.52709, 20:-0.65004, 21:-0.36784, 22:-0.59722, 23: 2.22632, 24:-0.88415, 25:-3.91066, 26: 0.69940, 27:-1.83492,
                28:-0.96387, 29: 0.14292, 30: 3.95222, 31: 2.72713, 32: 2.08911, 33: 1.22516, 34:-1.27956, 35:-0.11936, 36: 0.81860,
                37:-3.87251, 38: 0.83337, 39: 3.21436, 40:-1.99137, 41:-2.59024, 42:-0.40226, 43: 0.73986, 44: 3.84720, 45:-0.77972,
                46: 2.79140, 47:-1.09925, 48:-2.29282, 49:-0.25297, 50: 0.59954, 51: 0.51289, 52:-0.29183, 53:-1.81456, 54:-0.22591,
                55: 2.92200, 56: 0.40757, 57:-0.16703, 58:-0.04672, 59: 0.52672, 60: 0.63134, 61:-0.04099, 62: 0.70269, 63: 0.33726
    66 |      | 64: 0.08592, 65: 2.00755
    67 |      | 64:-0.62778, 65:-2.48272
    68 |      | 64:17.05274, 65:-5.38999
    69 |      | 64:-8.96374, 65:-26.86205
    70 |      | 64:13.61405, 65: 7.70059
    71 |      | 64:-10.85657, 65:21.46338
    72 |      | 64:11.17702, 65:-23.97821
    73 |      | 64: 0.08407, 65: 5.44189
    74 |      | 64:-25.34715, 65:-10.00188
    75 |      | 64:-25.81987, 65: 9.31119
-------|------|---------------------------------------------------------------------------------------------------------------------


layer definition section :

layer | unitNo.
------|----------------------------------------------------------------------------------------------------------------------------
    2 | 64, 65
    3 | 66, 67, 68, 69, 70, 71, 72, 73, 74, 75
------|----------------------------------------------------------------------------------------------------------------------------
