SNNS network definition file V1.4-3D
generated at Fri Nov 11 14:09:01 2016

network name : 63_2_10 v5
source files :
no. of units : 75
no. of connections : 146
no. of unit types : 0
no. of site types : 0


learning function : BackpropMomentum
update function   : Topological_Order


unit default section :

act      | bias     | st | subnet | layer | act func     | out func
---------|----------|----|--------|-------|--------------|-------------
 0.00000 |  0.00000 | h  |      0 |     1 | Act_Logistic | Out_Identity 
---------|----------|----|--------|-------|--------------|-------------


unit definition section :

no. | typeName | unitName | act      | bias     | st | position | act func | out func | sites
----|----------|----------|----------|----------|----|----------|----------|----------|-------
  1 |          | noName   |  0.00000 |  0.47893 | i  |  1, 1, 1 |||
  2 |          | noName   |  0.00000 | -0.72845 | i  |  2, 1, 1 |||
  3 |          | noName   |  0.00000 |  0.03305 | i  |  3, 1, 1 |||
  4 |          | noName   |  0.00000 | -0.95984 | i  |  4, 1, 1 |||
  5 |          | noName   |  0.00000 | -0.98602 | i  |  5, 1, 1 |||
  6 |          | noName   |  0.00000 |  0.49663 | i  |  6, 1, 1 |||
  7 |          | noName   |  0.00000 | -0.33226 | i  |  7, 1, 1 |||
  8 |          | noName   |  0.00000 |  0.80425 | i  |  1, 2, 1 |||
  9 |          | noName   |  0.00000 | -0.07547 | i  |  2, 2, 1 |||
 10 |          | noName   |  0.80000 |  0.53581 | i  |  3, 2, 1 |||
 11 |          | noName   |  0.70000 | -0.89898 | i  |  4, 2, 1 |||
 12 |          | noName   |  0.80000 |  0.26194 | i  |  5, 2, 1 |||
 13 |          | noName   |  0.70000 | -0.95166 | i  |  6, 2, 1 |||
 14 |          | noName   |  0.00000 |  0.36485 | i  |  7, 2, 1 |||
 15 |          | noName   |  0.00000 |  0.93817 | i  |  1, 3, 1 |||
 16 |          | noName   |  0.00000 |  0.00089 | i  |  2, 3, 1 |||
 17 |          | noName   |  1.00000 |  0.41276 | i  |  3, 3, 1 |||
 18 |          | noName   |  0.00000 | -0.46812 | i  |  4, 3, 1 |||
 19 |          | noName   |  0.80000 |  0.64470 | i  |  5, 3, 1 |||
 20 |          | noName   |  0.00000 |  0.29325 | i  |  6, 3, 1 |||
 21 |          | noName   |  0.00000 |  0.19443 | i  |  7, 3, 1 |||
 22 |          | noName   |  0.00000 | -0.47276 | i  |  1, 4, 1 |||
 23 |          | noName   |  0.00000 |  0.68847 | i  |  2, 4, 1 |||
 24 |          | noName   |  0.00000 | -0.07987 | i  |  3, 4, 1 |||
 25 |          | noName   |  0.00000 |  0.49632 | i  |  4, 4, 1 |||
 26 |          | noName   |  0.00000 | -0.29679 | i  |  5, 4, 1 |||
 27 |          | noName   |  0.00000 | -0.97101 | i  |  6, 4, 1 |||
 28 |          | noName   |  0.00000 | -0.04691 | i  |  7, 4, 1 |||
 29 |          | noName   |  0.00000 |  0.25297 | i  |  1, 5, 1 |||
 30 |          | noName   |  0.00000 | -0.19224 | i  |  2, 5, 1 |||
 31 |          | noName   |  0.00000 | -0.23276 | i  |  3, 5, 1 |||
 32 |          | noName   |  0.00000 | -0.94476 | i  |  4, 5, 1 |||
 33 |          | noName   |  0.80000 | -0.42235 | i  |  5, 5, 1 |||
 34 |          | noName   |  0.00000 |  0.19370 | i  |  6, 5, 1 |||
 35 |          | noName   |  0.00000 |  0.76775 | i  |  7, 5, 1 |||
 36 |          | noName   |  0.00000 | -0.13565 | i  |  1, 6, 1 |||
 37 |          | noName   |  0.00000 |  0.86309 | i  |  2, 6, 1 |||
 38 |          | noName   |  0.00000 | -0.23405 | i  |  3, 6, 1 |||
 39 |          | noName   |  0.00000 |  0.06626 | i  |  4, 6, 1 |||
 40 |          | noName   |  0.70000 | -0.97986 | i  |  5, 6, 1 |||
 41 |          | noName   |  0.00000 |  0.94848 | i  |  6, 6, 1 |||
 42 |          | noName   |  0.00000 |  0.73040 | i  |  7, 6, 1 |||
 43 |          | noName   |  0.00000 | -0.12516 | i  |  1, 7, 1 |||
 44 |          | noName   |  0.80000 |  0.39927 | i  |  2, 7, 1 |||
 45 |          | noName   |  0.00000 | -0.33409 | i  |  3, 7, 1 |||
 46 |          | noName   |  0.00000 |  0.20469 | i  |  4, 7, 1 |||
 47 |          | noName   |  0.70000 | -0.00290 | i  |  5, 7, 1 |||
 48 |          | noName   |  0.00000 |  0.11924 | i  |  6, 7, 1 |||
 49 |          | noName   |  0.00000 | -0.92199 | i  |  7, 7, 1 |||
 50 |          | noName   |  0.00000 | -0.24357 | i  |  1, 8, 1 |||
 51 |          | noName   |  0.00000 | -0.53392 | i  |  2, 8, 1 |||
 52 |          | noName   |  0.80000 |  0.87469 | i  |  3, 8, 1 |||
 53 |          | noName   |  0.70000 |  0.71905 | i  |  4, 8, 1 |||
 54 |          | noName   |  0.00000 |  0.92822 | i  |  5, 8, 1 |||
 55 |          | noName   |  0.00000 |  0.21763 | i  |  6, 8, 1 |||
 56 |          | noName   |  0.00000 |  0.16794 | i  |  7, 8, 1 |||
 57 |          | noName   |  0.00000 | -0.84710 | i  |  1, 9, 1 |||
 58 |          | noName   |  0.00000 | -0.18595 | i  |  2, 9, 1 |||
 59 |          | noName   |  0.00000 | -0.38939 | i  |  3, 9, 1 |||
 60 |          | noName   |  0.00000 | -0.00284 | i  |  4, 9, 1 |||
 61 |          | noName   |  0.00000 | -0.83990 | i  |  5, 9, 1 |||
 62 |          | noName   |  0.00000 |  0.74957 | i  |  6, 9, 1 |||
 63 |          | noName   |  0.00000 | -0.39146 | i  |  7, 9, 1 |||
 64 |          | noName   |  0.99988 |  1.15283 | h  | 11, 1, 1 |||
 65 |          | noName   |  0.52302 |  3.04965 | h  | 11, 2, 1 |||
 66 |          | noName   |  0.00000 | -16.60842 | o  | 15, 1, 1 |||
 67 |          | noName   |  0.12265 | -1.98864 | o  | 15, 2, 1 |||
 68 |          | noName   |  0.00000 |  3.79280 | o  | 15, 3, 1 |||
 69 |          | noName   |  0.48881 | -13.48430 | o  | 15, 4, 1 |||
 70 |          | noName   |  0.00000 | -3.86479 | o  | 15, 5, 1 |||
 71 |          | noName   |  0.01113 | -7.86499 | o  | 15, 6, 1 |||
 72 |          | noName   |  0.00023 | -2.55698 | o  | 15, 7, 1 |||
 73 |          | noName   |  0.01490 | -21.59207 | o  | 15, 8, 1 |||
 74 |          | noName   |  0.00000 |  2.41779 | o  | 15, 9, 1 |||
 75 |          | noName   |  0.66302 | -15.34940 | o  | 15,10, 1 |||
----|----------|----------|----------|----------|----|----------|----------|----------|-------


connection definition section :

target | site | source:weight
-------|------|---------------------------------------------------------------------------------------------------------------------
    64 |      |  1: 0.86578,  2: 0.17685,  3:-0.56755,  4:-0.44139,  5: 0.12143,  6: 0.74883,  7:-0.49986,  8:-0.39720,  9: 1.95855,
                10: 0.99277, 11:-0.90312, 12:-0.82234, 13: 0.99167, 14: 0.78069, 15: 0.14866, 16: 1.06957, 17: 0.99048, 18:-3.30779,
                19: 3.73246, 20: 0.91168, 21:-0.66033, 22:-0.76775, 23:-1.16896, 24:-0.01022, 25:-1.40532, 26: 2.09028, 27: 2.71431,
                28:-0.32469, 29:-0.44053, 30:-0.57587, 31:-2.54215, 32:-0.86297, 33: 1.22378, 34:-0.01381, 35:-0.41569, 36:-0.04849,
                37:-1.48481, 38: 0.90265, 39:-2.59887, 40: 3.20986, 41: 0.64330, 42: 0.60332, 43: 0.18571, 44:-1.12800, 45:-0.36387,
                46:-1.53068, 47: 3.36749, 48: 0.98246, 49: 0.43754, 50:-0.74474, 51: 0.71805, 52: 0.62106, 53:-2.15338, 54:-1.20287,
                55:-2.22374, 56:-0.09043, 57: 0.72460, 58:-0.72777, 59:-0.97107, 60:-0.57445, 61: 0.63707, 62: 0.59441, 63: 0.55931
    65 |      |  1:-0.40251,  2: 0.56285,  3: 0.84301,  4: 0.68426,  5:-0.51476,  6:-0.00247,  7:-0.95398,  8:-0.84857,  9: 2.91934,
                10:-0.04016, 11: 0.52444, 12:-2.66988, 13:-1.96232, 14:-0.40416, 15:-0.63579, 16: 0.27013, 17:-0.73052, 18: 4.30379,
                19: 2.43943, 20:-3.18159, 21: 0.61345, 22:-0.68236, 23: 0.71974, 24:-0.73638, 25: 0.55457, 26:-0.11895, 27: 3.47449,
                28:-0.50157, 29: 0.14139, 30: 2.27964, 31: 0.72014, 32: 0.40696, 33: 1.03769, 34: 3.18128, 35: 0.89056, 36:-0.78961,
                37:-3.57098, 38: 0.11594, 39:-2.54671, 40:-0.27142, 41:-2.07048, 42: 0.74462, 43: 0.64483, 44: 2.66894, 45: 0.09757,
                46: 2.12498, 47:-0.06895, 48:-1.60182, 49: 0.89892, 50: 0.96429, 51: 0.25714, 52:-1.12026, 53:-4.04974, 54:-3.91597,
                55: 2.27004, 56: 0.20103, 57:-0.02530, 58:-0.28935, 59:-0.54015, 60:-0.04312, 61: 0.38359, 62: 0.89630, 63: 0.34227
    66 |      | 64:-11.66090, 65:21.16405
    67 |      | 64: 0.56691, 65:-1.04346
    68 |      | 64:-10.16004, 65:-23.69168
    69 |      | 64:20.34361, 65:-13.19560
    70 |      | 64:-23.41710, 65: 8.21926
    71 |      | 64:-0.49967, 65: 7.41424
    72 |      | 64: 6.63203, 65:-23.80219
    73 |      | 64: 9.73551, 65:14.65821
    74 |      | 64:-27.73216, 65:-5.14088
    75 |      | 64:15.94167, 65: 0.16534
-------|------|---------------------------------------------------------------------------------------------------------------------


layer definition section :

layer | unitNo.
------|----------------------------------------------------------------------------------------------------------------------------
    2 | 64, 65
    3 | 66, 67, 68, 69, 70, 71, 72, 73, 74, 75
------|----------------------------------------------------------------------------------------------------------------------------
