SNNS network definition file V1.4-3D
generated at Fri Nov 11 10:17:45 2016

network name : 63_2_10 v1
source files :
no. of units : 75
no. of connections : 146
no. of unit types : 0
no. of site types : 0


learning function : BackpropMomentum
update function   : Topological_Order


unit default section :

act      | bias     | st | subnet | layer | act func     | out func
---------|----------|----|--------|-------|--------------|-------------
 0.00000 |  0.00000 | h  |      0 |     1 | Act_Logistic | Out_Identity 
---------|----------|----|--------|-------|--------------|-------------


unit definition section :

no. | typeName | unitName | act      | bias     | st | position | act func | out func | sites
----|----------|----------|----------|----------|----|----------|----------|----------|-------
  1 |          | noName   |  0.00000 |  0.65465 | i  |  1, 1, 1 |||
  2 |          | noName   |  0.00000 |  0.46660 | i  |  2, 1, 1 |||
  3 |          | noName   |  0.00000 |  0.78228 | i  |  3, 1, 1 |||
  4 |          | noName   |  0.00000 |  0.28666 | i  |  4, 1, 1 |||
  5 |          | noName   |  0.00000 |  0.30119 | i  |  5, 1, 1 |||
  6 |          | noName   |  0.00000 |  0.02896 | i  |  6, 1, 1 |||
  7 |          | noName   |  0.00000 |  0.46794 | i  |  7, 1, 1 |||
  8 |          | noName   |  0.00000 |  0.47435 | i  |  1, 2, 1 |||
  9 |          | noName   |  0.00000 |  0.91418 | i  |  2, 2, 1 |||
 10 |          | noName   |  1.00000 | -0.06833 | i  |  3, 2, 1 |||
 11 |          | noName   |  1.00000 | -0.27348 | i  |  4, 2, 1 |||
 12 |          | noName   |  1.00000 | -0.77563 | i  |  5, 2, 1 |||
 13 |          | noName   |  1.00000 |  0.80932 | i  |  6, 2, 1 |||
 14 |          | noName   |  0.00000 |  0.64245 | i  |  7, 2, 1 |||
 15 |          | noName   |  0.00000 | -0.09043 | i  |  1, 3, 1 |||
 16 |          | noName   |  0.00000 | -0.78265 | i  |  2, 3, 1 |||
 17 |          | noName   |  0.00000 |  0.73888 | i  |  3, 3, 1 |||
 18 |          | noName   |  0.00000 |  0.52275 | i  |  4, 3, 1 |||
 19 |          | noName   |  1.00000 | -0.92175 | i  |  5, 3, 1 |||
 20 |          | noName   |  0.00000 | -0.16666 | i  |  6, 3, 1 |||
 21 |          | noName   |  0.00000 |  0.87225 | i  |  7, 3, 1 |||
 22 |          | noName   |  0.00000 | -0.86450 | i  |  1, 4, 1 |||
 23 |          | noName   |  0.00000 | -0.67028 | i  |  2, 4, 1 |||
 24 |          | noName   |  0.00000 | -0.57744 | i  |  3, 4, 1 |||
 25 |          | noName   |  0.00000 | -0.76617 | i  |  4, 4, 1 |||
 26 |          | noName   |  1.00000 |  0.18223 | i  |  5, 4, 1 |||
 27 |          | noName   |  0.00000 | -0.76330 | i  |  6, 4, 1 |||
 28 |          | noName   |  0.00000 |  0.23655 | i  |  7, 4, 1 |||
 29 |          | noName   |  0.00000 |  0.16019 | i  |  1, 5, 1 |||
 30 |          | noName   |  0.00000 |  0.38060 | i  |  2, 5, 1 |||
 31 |          | noName   |  0.00000 |  0.46312 | i  |  3, 5, 1 |||
 32 |          | noName   |  0.00000 |  0.83129 | i  |  4, 5, 1 |||
 33 |          | noName   |  1.00000 |  0.33946 | i  |  5, 5, 1 |||
 34 |          | noName   |  0.00000 | -0.40300 | i  |  6, 5, 1 |||
 35 |          | noName   |  0.00000 |  0.61773 | i  |  7, 5, 1 |||
 36 |          | noName   |  0.00000 | -0.24363 | i  |  1, 6, 1 |||
 37 |          | noName   |  0.00000 |  0.99499 | i  |  2, 6, 1 |||
 38 |          | noName   |  0.00000 |  0.54503 | i  |  3, 6, 1 |||
 39 |          | noName   |  0.00000 | -0.59117 | i  |  4, 6, 1 |||
 40 |          | noName   |  1.00000 | -0.65886 | i  |  5, 6, 1 |||
 41 |          | noName   |  0.00000 | -0.22349 | i  |  6, 6, 1 |||
 42 |          | noName   |  0.00000 | -0.63756 | i  |  7, 6, 1 |||
 43 |          | noName   |  0.00000 |  0.16196 | i  |  1, 7, 1 |||
 44 |          | noName   |  1.00000 | -0.60875 | i  |  2, 7, 1 |||
 45 |          | noName   |  0.00000 |  0.92029 | i  |  3, 7, 1 |||
 46 |          | noName   |  0.00000 | -0.61950 | i  |  4, 7, 1 |||
 47 |          | noName   |  1.00000 | -0.23655 | i  |  5, 7, 1 |||
 48 |          | noName   |  0.00000 | -0.39201 | i  |  6, 7, 1 |||
 49 |          | noName   |  0.00000 | -0.75835 | i  |  7, 7, 1 |||
 50 |          | noName   |  0.00000 | -0.60369 | i  |  1, 8, 1 |||
 51 |          | noName   |  0.00000 | -0.90753 | i  |  2, 8, 1 |||
 52 |          | noName   |  1.00000 |  0.54234 | i  |  3, 8, 1 |||
 53 |          | noName   |  1.00000 |  0.52208 | i  |  4, 8, 1 |||
 54 |          | noName   |  0.00000 |  0.76208 | i  |  5, 8, 1 |||
 55 |          | noName   |  0.00000 | -0.99646 | i  |  6, 8, 1 |||
 56 |          | noName   |  0.00000 | -0.10276 | i  |  7, 8, 1 |||
 57 |          | noName   |  0.00000 | -0.14725 | i  |  1, 9, 1 |||
 58 |          | noName   |  0.00000 |  0.60308 | i  |  2, 9, 1 |||
 59 |          | noName   |  0.00000 | -0.07730 | i  |  3, 9, 1 |||
 60 |          | noName   |  0.00000 | -0.01028 | i  |  4, 9, 1 |||
 61 |          | noName   |  0.00000 |  0.49876 | i  |  5, 9, 1 |||
 62 |          | noName   |  0.00000 | -0.52300 | i  |  6, 9, 1 |||
 63 |          | noName   |  0.00000 |  0.11881 | i  |  7, 9, 1 |||
 64 |          | noName   |  0.78852 |  0.65930 | h  | 11, 1, 1 |||
 65 |          | noName   |  0.00039 | -3.37730 | h  | 11, 2, 1 |||
 66 |          | noName   |  0.00000 |  3.80796 | o  | 15, 1, 1 |||
 67 |          | noName   |  0.01146 | -2.63739 | o  | 15, 2, 1 |||
 68 |          | noName   |  0.17756 | -3.36398 | o  | 15, 3, 1 |||
 69 |          | noName   |  0.00003 | -18.70452 | o  | 15, 4, 1 |||
 70 |          | noName   |  0.17781 | -0.72863 | o  | 15, 5, 1 |||
 71 |          | noName   |  0.02295 |  4.38516 | o  | 15, 6, 1 |||
 72 |          | noName   |  0.00000 | -18.23798 | o  | 15, 7, 1 |||
 73 |          | noName   |  0.00000 | -5.15817 | o  | 15, 8, 1 |||
 74 |          | noName   |  0.43227 | -15.60255 | o  | 15, 9, 1 |||
 75 |          | noName   |  0.96379 | -4.90789 | o  | 15,10, 1 |||
----|----------|----------|----------|----------|----|----------|----------|----------|-------


connection definition section :

target | site | source:weight
-------|------|---------------------------------------------------------------------------------------------------------------------
    64 |      | 63: 0.84405, 62: 0.78765, 61: 0.71404, 60:-0.88073, 59:-0.01822, 58: 0.26408, 57: 0.49443, 56: 0.51213, 55:-2.69536,
                54: 0.99941, 53: 2.42029, 52: 0.39181, 51:-0.46297, 50:-0.89752, 49: 0.04434, 48: 0.31433, 47:-0.61642, 46: 1.17461,
                45: 0.46348, 44: 0.58427, 43: 0.82842, 42: 0.75109, 41:-1.83319, 40:-2.15754, 39: 2.25973, 38:-0.03623, 37: 0.18420,
                36: 0.30393, 35:-0.99829, 34:-1.03941, 33:-0.90991, 32:-0.28616, 31:-4.21652, 30:-0.72060, 29: 0.34123, 28:-0.93463,
                27: 0.48555, 26: 0.29428, 25: 2.86622, 24:-0.12748, 23:-0.57115, 22: 0.27110, 21:-0.40941, 20:-0.51349, 19: 0.32565,
                18: 2.06104, 17:-0.79803, 16:-0.36905, 15:-0.71398, 14: 0.83599, 13: 0.42822, 12: 0.29729, 11: 1.09225, 10:-1.49346,
                 9: 3.45517,  8:-0.52000,  7: 0.79577,  6:-0.48698,  5:-0.46129,  4:-0.58397,  3:-0.54125,  2: 0.69231,  1: 0.74969
    65 |      | 63: 0.68957, 62: 0.21854, 61:-0.91821, 60:-0.65294, 59:-0.63250, 58:-0.28819, 57:-0.10147, 56:-0.62987, 55: 0.74514,
                54: 3.84210, 53: 0.72585, 52:-0.42421, 51:-1.13418, 50: 0.46129, 49: 0.99866, 48: 0.11229, 47:-2.49469, 46: 4.08527,
                45:-0.70666, 44: 2.37892, 43:-0.43126, 42:-0.65807, 41: 4.41249, 40: 6.06858, 39: 1.29681, 38:-0.93823, 37: 0.41505,
                36: 0.62542, 35: 0.47185, 34: 2.40736, 33:-0.99892, 32:-1.19462, 31:-0.46636, 30:-0.15877, 29: 0.83087, 28: 0.77935,
                27:-0.88924, 26:-2.60764, 25:-2.49785, 24:-0.98486, 23:-0.84887, 22:-0.16306, 21:-0.68682, 20: 0.61006, 19:-4.28736,
                18: 0.15321, 17: 0.50896, 16: 0.35243, 15:-0.57305, 14:-0.93579, 13:-1.85891, 12: 2.81917, 11:-3.09366, 10:-0.69779,
                 9: 2.20440,  8:-0.33677,  7: 0.07785,  6: 0.98358,  5: 0.73870,  4: 0.29374,  3:-0.54454,  2: 0.62560,  1:-0.25791
    66 |      | 65:-8.43685, 64:-25.44156
    67 |      | 65: 2.44030, 64:-2.30930
    68 |      | 65:-0.14302, 64: 2.32219
    69 |      | 65:11.71290, 64:10.45805
    70 |      | 65:-2.80828, 64:-1.01650
    71 |      | 65:-28.06183, 64:-10.30491
    72 |      | 65:22.95432, 64:-7.27443
    73 |      | 65:10.81698, 64:-24.17509
    74 |      | 65:-5.64128, 64:19.44426
    75 |      | 65:-22.20162, 64:10.39678
-------|------|---------------------------------------------------------------------------------------------------------------------


layer definition section :

layer | unitNo.
------|----------------------------------------------------------------------------------------------------------------------------
    2 | 64, 65
    3 | 66, 67, 68, 69, 70, 71, 72, 73, 74, 75
------|----------------------------------------------------------------------------------------------------------------------------
