SNNS network definition file V1.4-3D
generated at Fri Nov 11 10:48:07 2016

network name : 63_2_10 v4
source files :
no. of units : 75
no. of connections : 146
no. of unit types : 0
no. of site types : 0


learning function : BackpropMomentum
update function   : Topological_Order


unit default section :

act      | bias     | st | subnet | layer | act func     | out func
---------|----------|----|--------|-------|--------------|-------------
 0.00000 |  0.00000 | h  |      0 |     1 | Act_Logistic | Out_Identity 
---------|----------|----|--------|-------|--------------|-------------


unit definition section :

no. | typeName | unitName | act      | bias     | st | position | act func | out func | sites
----|----------|----------|----------|----------|----|----------|----------|----------|-------
  1 |          | noName   |  0.00000 | -0.54601 | i  |  1, 1, 1 |||
  2 |          | noName   |  0.00000 | -0.27610 | i  |  2, 1, 1 |||
  3 |          | noName   |  0.00000 | -0.29972 | i  |  3, 1, 1 |||
  4 |          | noName   |  0.00000 |  0.49400 | i  |  4, 1, 1 |||
  5 |          | noName   |  0.00000 | -0.29850 | i  |  5, 1, 1 |||
  6 |          | noName   |  0.00000 | -0.95758 | i  |  6, 1, 1 |||
  7 |          | noName   |  0.00000 | -0.05979 | i  |  7, 1, 1 |||
  8 |          | noName   |  0.00000 |  0.05063 | i  |  1, 2, 1 |||
  9 |          | noName   |  0.00000 | -0.38768 | i  |  2, 2, 1 |||
 10 |          | noName   |  0.80000 | -0.66277 | i  |  3, 2, 1 |||
 11 |          | noName   |  0.70000 | -0.33445 | i  |  4, 2, 1 |||
 12 |          | noName   |  0.80000 |  0.97119 | i  |  5, 2, 1 |||
 13 |          | noName   |  0.70000 |  0.78356 | i  |  6, 2, 1 |||
 14 |          | noName   |  0.00000 | -0.64306 | i  |  7, 2, 1 |||
 15 |          | noName   |  0.00000 | -0.98975 | i  |  1, 3, 1 |||
 16 |          | noName   |  0.00000 |  0.71416 | i  |  2, 3, 1 |||
 17 |          | noName   |  1.00000 |  0.25858 | i  |  3, 3, 1 |||
 18 |          | noName   |  0.00000 |  0.71459 | i  |  4, 3, 1 |||
 19 |          | noName   |  0.80000 | -0.09433 | i  |  5, 3, 1 |||
 20 |          | noName   |  0.00000 |  0.17386 | i  |  6, 3, 1 |||
 21 |          | noName   |  0.00000 |  0.28904 | i  |  7, 3, 1 |||
 22 |          | noName   |  0.00000 |  0.85168 | i  |  1, 4, 1 |||
 23 |          | noName   |  0.00000 |  0.43840 | i  |  2, 4, 1 |||
 24 |          | noName   |  0.00000 |  0.85748 | i  |  3, 4, 1 |||
 25 |          | noName   |  0.00000 |  0.05362 | i  |  4, 4, 1 |||
 26 |          | noName   |  0.00000 |  0.13126 | i  |  5, 4, 1 |||
 27 |          | noName   |  0.00000 |  0.82080 | i  |  6, 4, 1 |||
 28 |          | noName   |  0.00000 | -0.77801 | i  |  7, 4, 1 |||
 29 |          | noName   |  0.00000 | -0.10312 | i  |  1, 5, 1 |||
 30 |          | noName   |  0.00000 | -0.62755 | i  |  2, 5, 1 |||
 31 |          | noName   |  0.00000 |  0.03830 | i  |  3, 5, 1 |||
 32 |          | noName   |  0.00000 |  0.98456 | i  |  4, 5, 1 |||
 33 |          | noName   |  0.80000 | -0.35044 | i  |  5, 5, 1 |||
 34 |          | noName   |  0.00000 | -0.86151 | i  |  6, 5, 1 |||
 35 |          | noName   |  0.00000 | -0.76598 | i  |  7, 5, 1 |||
 36 |          | noName   |  0.00000 | -0.78350 | i  |  1, 6, 1 |||
 37 |          | noName   |  0.00000 | -0.40611 | i  |  2, 6, 1 |||
 38 |          | noName   |  0.00000 | -0.90826 | i  |  3, 6, 1 |||
 39 |          | noName   |  0.00000 |  0.89465 | i  |  4, 6, 1 |||
 40 |          | noName   |  0.70000 | -0.96301 | i  |  5, 6, 1 |||
 41 |          | noName   |  0.00000 | -0.36454 | i  |  6, 6, 1 |||
 42 |          | noName   |  0.00000 |  0.72716 | i  |  7, 6, 1 |||
 43 |          | noName   |  0.00000 | -0.10050 | i  |  1, 7, 1 |||
 44 |          | noName   |  0.80000 |  0.71526 | i  |  2, 7, 1 |||
 45 |          | noName   |  0.00000 | -0.75494 | i  |  3, 7, 1 |||
 46 |          | noName   |  0.00000 | -0.20267 | i  |  4, 7, 1 |||
 47 |          | noName   |  0.70000 | -0.50456 | i  |  5, 7, 1 |||
 48 |          | noName   |  0.00000 | -0.00406 | i  |  6, 7, 1 |||
 49 |          | noName   |  0.00000 | -0.26762 | i  |  7, 7, 1 |||
 50 |          | noName   |  0.00000 | -0.25834 | i  |  1, 8, 1 |||
 51 |          | noName   |  0.00000 |  0.25999 | i  |  2, 8, 1 |||
 52 |          | noName   |  0.80000 | -0.53990 | i  |  3, 8, 1 |||
 53 |          | noName   |  0.70000 | -0.58605 | i  |  4, 8, 1 |||
 54 |          | noName   |  0.00000 |  0.43156 | i  |  5, 8, 1 |||
 55 |          | noName   |  0.00000 | -0.88482 | i  |  6, 8, 1 |||
 56 |          | noName   |  0.00000 | -0.26682 | i  |  7, 8, 1 |||
 57 |          | noName   |  0.00000 | -0.76122 | i  |  1, 9, 1 |||
 58 |          | noName   |  0.00000 | -0.45543 | i  |  2, 9, 1 |||
 59 |          | noName   |  0.00000 |  0.45494 | i  |  3, 9, 1 |||
 60 |          | noName   |  0.00000 |  0.35343 | i  |  4, 9, 1 |||
 61 |          | noName   |  0.00000 | -0.56719 | i  |  5, 9, 1 |||
 62 |          | noName   |  0.00000 |  0.88043 | i  |  6, 9, 1 |||
 63 |          | noName   |  0.00000 |  0.44768 | i  |  7, 9, 1 |||
 64 |          | noName   |  0.02128 | -1.27588 | h  | 11, 1, 1 |||
 65 |          | noName   |  0.01839 |  0.88884 | h  | 11, 2, 1 |||
 66 |          | noName   |  0.05506 | -2.86009 | o  | 15, 1, 1 |||
 67 |          | noName   |  0.00000 | -19.18958 | o  | 15, 2, 1 |||
 68 |          | noName   |  0.02406 | -3.75990 | o  | 15, 3, 1 |||
 69 |          | noName   |  0.00000 | -17.89308 | o  | 15, 4, 1 |||
 70 |          | noName   |  0.00090 | -6.77049 | o  | 15, 5, 1 |||
 71 |          | noName   |  0.87126 |  2.42042 | o  | 15, 6, 1 |||
 72 |          | noName   |  0.53700 |  0.40410 | o  | 15, 7, 1 |||
 73 |          | noName   |  0.00126 | -6.43410 | o  | 15, 8, 1 |||
 74 |          | noName   |  0.00000 | -19.56781 | o  | 15, 9, 1 |||
 75 |          | noName   |  0.99154 |  5.54256 | o  | 15,10, 1 |||
----|----------|----------|----------|----------|----|----------|----------|----------|-------


connection definition section :

target | site | source:weight
-------|------|---------------------------------------------------------------------------------------------------------------------
    64 |      |  1: 0.72594,  2: 0.93017,  3: 0.57793,  4:-0.31571,  5: 0.72308,  6: 0.01254,  7:-0.51164,  8: 0.34373,  9: 0.27824,
                10:-0.58470, 11: 0.12010, 12: 1.01464, 13:-2.18417, 14:-0.03177, 15: 0.66796, 16:-0.75176, 17:-0.78777, 18: 1.94967,
                19: 0.69605, 20:-1.21124, 21:-0.07944, 22: 0.69872, 23: 1.06062, 24:-0.22977, 25: 1.87758, 26: 1.79833, 27: 3.12045,
                28:-0.24277, 29: 0.49907, 30:-0.80306, 31: 3.85998, 32:-2.87261, 33:-1.21638, 34: 4.49772, 35: 0.06455, 36:-0.60021,
                37:-0.45070, 38: 0.32682, 39:-2.07464, 40:-0.70731, 41:-0.36114, 42:-0.69848, 43:-0.81756, 44:-0.84913, 45:-0.90954,
                46:-1.12299, 47:-0.09352, 48: 2.05708, 49: 0.30802, 50:-0.77960, 51:-1.33028, 52: 0.64300, 53: 0.68291, 54: 1.79814,
                55:-0.97002, 56:-0.30235, 57: 0.07559, 58:-0.34404, 59:-0.18168, 60: 0.48296, 61: 0.44743, 62:-0.56023, 63: 0.52281
    65 |      |  1: 0.14811,  2:-0.23612,  3: 0.33885,  4: 0.92804,  5:-0.52483,  6: 0.11905,  7: 0.64269,  8: 0.77148,  9:-0.96650,
                10: 0.94882, 11: 0.20921, 12: 0.27480, 13:-3.88095, 14:-0.28544, 15: 0.43614, 16: 0.10170, 17: 0.44212, 18: 1.93186,
                19: 3.19178, 20:-0.05656, 21:-0.51323, 22: 0.06998, 23: 0.59453, 24: 0.30699, 25: 2.09286, 26: 1.04758, 27: 0.43038,
                28: 0.64220, 29:-0.55742, 30:-0.72423, 31: 1.83663, 32: 0.60543, 33:-0.07601, 34:-2.87365, 35: 0.35838, 36:-0.10373,
                37:-0.85115, 38:-0.96374, 39: 1.34814, 40:-10.00144, 41:-2.69480, 42:-0.38676, 43:-0.48088, 44:-0.19848, 45:-0.79992,
                46: 1.27223, 47:-1.15901, 48:-2.39532, 49: 0.84936, 50:-0.11972, 51: 1.05121, 52: 1.37304, 53: 0.94752, 54: 0.69822,
                55:-0.27804, 56: 0.45213, 57: 0.68316, 58: 0.03299, 59:-0.34953, 60:-0.59056, 61: 0.46159, 62: 0.82855, 63: 0.62554
    66 |      | 64: 2.19473, 65:-1.59315
    67 |      | 64:13.76327, 65: 9.87177
    68 |      | 64: 0.58650, 65: 2.42492
    69 |      | 64:21.28293, 65:-5.42834
    70 |      | 64:-21.74324, 65:12.23331
    71 |      | 64:-20.03337, 65:-4.45232
    72 |      | 64:-1.89327, 65:-11.71730
    73 |      | 64:11.44839, 65:-26.19875
    74 |      | 64:-2.71780, 65:22.40593
    75 |      | 64:-18.64589, 65:-20.78706
-------|------|---------------------------------------------------------------------------------------------------------------------


layer definition section :

layer | unitNo.
------|----------------------------------------------------------------------------------------------------------------------------
    2 | 64, 65
    3 | 66, 67, 68, 69, 70, 71, 72, 73, 74, 75
------|----------------------------------------------------------------------------------------------------------------------------
