SNNS network definition file V1.4-3D
generated at Fri Nov 11 16:59:00 2016

network name : 63_10_10 v3
source files :
no. of units : 83
no. of connections : 730
no. of unit types : 0
no. of site types : 0


learning function : BackpropMomentum
update function   : Topological_Order


unit default section :

act      | bias     | st | subnet | layer | act func     | out func
---------|----------|----|--------|-------|--------------|-------------
 0.00000 |  0.00000 | h  |      0 |     1 | Act_Logistic | Out_Identity 
---------|----------|----|--------|-------|--------------|-------------


unit definition section :

no. | typeName | unitName | act      | bias     | st | position | act func | out func | sites
----|----------|----------|----------|----------|----|----------|----------|----------|-------
  1 |          | noName   |  0.00000 |  0.89740 | i  |  1, 1, 1 |||
  2 |          | noName   |  0.00000 | -0.29453 | i  |  2, 1, 1 |||
  3 |          | noName   |  0.00000 | -0.66588 | i  |  3, 1, 1 |||
  4 |          | noName   |  0.00000 | -0.68450 | i  |  4, 1, 1 |||
  5 |          | noName   |  0.00000 |  0.69036 | i  |  5, 1, 1 |||
  6 |          | noName   |  0.00000 | -0.15366 | i  |  6, 1, 1 |||
  7 |          | noName   |  0.00000 | -0.17472 | i  |  7, 1, 1 |||
  8 |          | noName   |  0.00000 |  0.68334 | i  |  1, 2, 1 |||
  9 |          | noName   |  0.00000 | -0.68297 | i  |  2, 2, 1 |||
 10 |          | noName   |  0.80000 |  0.01407 | i  |  3, 2, 1 |||
 11 |          | noName   |  0.70000 |  0.46379 | i  |  4, 2, 1 |||
 12 |          | noName   |  0.80000 | -0.51274 | i  |  5, 2, 1 |||
 13 |          | noName   |  0.70000 |  0.31315 | i  |  6, 2, 1 |||
 14 |          | noName   |  0.00000 |  0.10257 | i  |  7, 2, 1 |||
 15 |          | noName   |  0.00000 | -0.93500 | i  |  1, 3, 1 |||
 16 |          | noName   |  0.00000 |  0.79009 | i  |  2, 3, 1 |||
 17 |          | noName   |  1.00000 | -0.03574 | i  |  3, 3, 1 |||
 18 |          | noName   |  0.00000 | -0.16556 | i  |  4, 3, 1 |||
 19 |          | noName   |  0.80000 | -0.27586 | i  |  5, 3, 1 |||
 20 |          | noName   |  0.00000 | -0.48180 | i  |  6, 3, 1 |||
 21 |          | noName   |  0.00000 |  0.85479 | i  |  7, 3, 1 |||
 22 |          | noName   |  0.00000 |  0.36363 | i  |  1, 4, 1 |||
 23 |          | noName   |  0.00000 | -0.74248 | i  |  2, 4, 1 |||
 24 |          | noName   |  0.00000 | -0.61260 | i  |  3, 4, 1 |||
 25 |          | noName   |  0.00000 |  0.34281 | i  |  4, 4, 1 |||
 26 |          | noName   |  0.00000 | -0.89923 | i  |  5, 4, 1 |||
 27 |          | noName   |  0.00000 | -0.02316 | i  |  6, 4, 1 |||
 28 |          | noName   |  0.00000 |  0.83111 | i  |  7, 4, 1 |||
 29 |          | noName   |  0.00000 |  0.02353 | i  |  1, 5, 1 |||
 30 |          | noName   |  0.00000 | -0.42564 | i  |  2, 5, 1 |||
 31 |          | noName   |  0.00000 | -0.64312 | i  |  3, 5, 1 |||
 32 |          | noName   |  0.00000 |  0.24601 | i  |  4, 5, 1 |||
 33 |          | noName   |  0.80000 | -0.75726 | i  |  5, 5, 1 |||
 34 |          | noName   |  0.00000 | -0.86187 | i  |  6, 5, 1 |||
 35 |          | noName   |  0.00000 |  0.16105 | i  |  7, 5, 1 |||
 36 |          | noName   |  0.00000 | -0.13358 | i  |  1, 6, 1 |||
 37 |          | noName   |  0.00000 |  0.72442 | i  |  2, 6, 1 |||
 38 |          | noName   |  0.00000 |  0.34031 | i  |  3, 6, 1 |||
 39 |          | noName   |  0.00000 | -0.41404 | i  |  4, 6, 1 |||
 40 |          | noName   |  0.70000 |  0.57982 | i  |  5, 6, 1 |||
 41 |          | noName   |  0.00000 | -0.62664 | i  |  6, 6, 1 |||
 42 |          | noName   |  0.00000 |  0.76397 | i  |  7, 6, 1 |||
 43 |          | noName   |  0.00000 |  0.98853 | i  |  1, 7, 1 |||
 44 |          | noName   |  0.80000 |  0.99658 | i  |  2, 7, 1 |||
 45 |          | noName   |  0.00000 |  0.31681 | i  |  3, 7, 1 |||
 46 |          | noName   |  0.00000 | -0.84631 | i  |  4, 7, 1 |||
 47 |          | noName   |  0.70000 |  0.75683 | i  |  5, 7, 1 |||
 48 |          | noName   |  0.00000 | -0.91437 | i  |  6, 7, 1 |||
 49 |          | noName   |  0.00000 | -0.75396 | i  |  7, 7, 1 |||
 50 |          | noName   |  0.00000 |  0.63952 | i  |  1, 8, 1 |||
 51 |          | noName   |  0.00000 | -0.11100 | i  |  2, 8, 1 |||
 52 |          | noName   |  0.80000 | -0.31010 | i  |  3, 8, 1 |||
 53 |          | noName   |  0.70000 | -0.87786 | i  |  4, 8, 1 |||
 54 |          | noName   |  0.00000 |  0.87048 | i  |  5, 8, 1 |||
 55 |          | noName   |  0.00000 |  0.84088 | i  |  6, 8, 1 |||
 56 |          | noName   |  0.00000 |  0.23197 | i  |  7, 8, 1 |||
 57 |          | noName   |  0.00000 |  0.30686 | i  |  1, 9, 1 |||
 58 |          | noName   |  0.00000 | -0.12821 | i  |  2, 9, 1 |||
 59 |          | noName   |  0.00000 | -0.79424 | i  |  3, 9, 1 |||
 60 |          | noName   |  0.00000 | -0.07517 | i  |  4, 9, 1 |||
 61 |          | noName   |  0.00000 |  0.18192 | i  |  5, 9, 1 |||
 62 |          | noName   |  0.00000 | -0.56346 | i  |  6, 9, 1 |||
 63 |          | noName   |  0.00000 |  0.78936 | i  |  7, 9, 1 |||
 64 |          | noName   |  0.97586 |  0.21057 | h  | 11, 1, 1 |||
 65 |          | noName   |  0.02043 |  0.68286 | h  | 11, 2, 1 |||
 66 |          | noName   |  0.07977 | -0.33236 | h  | 11, 3, 1 |||
 67 |          | noName   |  0.95008 |  1.46455 | h  | 11, 4, 1 |||
 68 |          | noName   |  0.92032 |  0.71546 | h  | 11, 5, 1 |||
 69 |          | noName   |  0.46815 |  0.68166 | h  | 11, 6, 1 |||
 70 |          | noName   |  0.03210 | -0.31029 | h  | 11, 7, 1 |||
 71 |          | noName   |  0.08962 | -0.72816 | h  | 11, 8, 1 |||
 72 |          | noName   |  0.02508 | -0.43946 | h  | 11, 9, 1 |||
 73 |          | noName   |  0.57520 | -1.51027 | h  | 11,10, 1 |||
 74 |          | noName   |  0.01414 | -0.35524 | o  | 15, 1, 1 |||
 75 |          | noName   |  0.00241 |  0.02965 | o  | 15, 2, 1 |||
 76 |          | noName   |  0.02185 |  0.34424 | o  | 15, 3, 1 |||
 77 |          | noName   |  0.00243 | -2.41891 | o  | 15, 4, 1 |||
 78 |          | noName   |  0.03297 | -2.99245 | o  | 15, 5, 1 |||
 79 |          | noName   |  0.02429 | -0.45508 | o  | 15, 6, 1 |||
 80 |          | noName   |  0.08709 | -0.03569 | o  | 15, 7, 1 |||
 81 |          | noName   |  0.00240 | -1.72195 | o  | 15, 8, 1 |||
 82 |          | noName   |  0.00703 | -1.87333 | o  | 15, 9, 1 |||
 83 |          | noName   |  0.92725 | -0.53755 | o  | 15,10, 1 |||
----|----------|----------|----------|----------|----|----------|----------|----------|-------


connection definition section :

target | site | source:weight
-------|------|---------------------------------------------------------------------------------------------------------------------
    64 |      |  1:-0.68053,  2: 0.86505,  3:-0.35942,  4:-0.14621,  5: 0.26536,  6: 0.86456,  7:-0.39665,  8: 0.66314,  9:-1.33501,
                10: 0.77864, 11: 1.30464, 12: 0.03441, 13:-0.07104, 14: 0.46037, 15: 0.65465, 16: 0.00317, 17:-0.10965, 18:-1.24853,
                19:-0.06640, 20:-0.27343, 21: 0.01578, 22: 0.29948, 23:-1.12637, 24:-0.21000, 25: 0.21130, 26: 0.82891, 27:-1.57167,
                28:-0.11435, 29: 0.43052, 30: 1.14544, 31:-0.44524, 32: 0.90799, 33: 1.07899, 34: 0.09972, 35:-0.91424, 36:-0.16129,
                37: 0.18247, 38:-0.53154, 39:-0.10190, 40: 1.44375, 41:-0.11067, 42: 0.98248, 43: 0.86193, 44: 0.77399, 45:-0.61064,
                46:-0.74362, 47: 0.60711, 48:-0.34140, 49:-0.85638, 50:-0.03763, 51:-0.53271, 52:-0.79708, 53:-0.20358, 54:-0.63838,
                55:-0.01217, 56:-0.71349, 57:-0.22465, 58:-0.11765, 59: 0.98853, 60:-0.05362, 61:-0.42936, 62: 0.22263, 63:-0.36314
    65 |      |  1: 0.34092,  2: 0.17972,  3:-0.37785,  4: 0.94482,  5:-0.55229,  6:-0.73620,  7: 0.62914,  8: 0.72814,  9: 1.56033,
                10: 0.37131, 11:-1.15133, 12:-1.44956, 13: 1.28795, 14:-0.83752, 15:-0.89831, 16: 0.53107, 17:-0.43486, 18: 0.83580,
                19:-0.66551, 20:-1.77755, 21:-0.11325, 22:-0.69127, 23: 0.63116, 24:-0.49083, 25: 0.86619, 26:-1.32425, 27:-0.45458,
                28:-0.09745, 29: 0.71599, 30: 0.26281, 31: 0.07042, 32: 2.17555, 33: 0.01193, 34:-0.79334, 35: 0.18766, 36: 0.85803,
                37:-0.33790, 38: 0.42491, 39: 1.53844, 40:-0.37931, 41:-1.13647, 42:-0.89727, 43:-0.32926, 44:-0.50579, 45: 0.41160,
                46: 1.51542, 47:-0.88526, 48:-1.35871, 49:-0.97369, 50: 0.28318, 51: 0.67059, 52:-1.46409, 53:-0.52485, 54:-0.18355,
                55:-0.43956, 56: 0.80816, 57:-0.64171, 58:-0.99744, 59:-0.91748, 60: 0.11203, 61:-0.70727, 62:-0.28849, 63:-0.73327
    66 |      |  1: 0.43431,  2: 0.23154,  3:-0.46727,  4:-0.17319,  5: 0.52263,  6: 0.18857,  7:-0.53117,  8:-0.82098,  9:-1.81033,
                10: 0.85653, 11: 0.97892, 12: 1.35717, 13:-2.36677, 14:-0.52147, 15: 0.59777, 16: 0.47357, 17: 0.71136, 18: 0.23558,
                19:-0.45058, 20: 0.59438, 21: 0.00278, 22: 0.78594, 23: 0.74137, 24:-0.90417, 25: 0.39893, 26:-0.82379, 27: 0.01758,
                28:-0.50481, 29:-0.96014, 30:-0.95858, 31:-1.55359, 32:-0.30914, 33:-1.64207, 34: 2.50969, 35: 0.22050, 36: 0.66240,
                37:-0.60213, 38: 0.85418, 39: 0.92649, 40:-2.54820, 41:-1.52104, 42: 0.33189, 43:-0.20615, 44:-0.48131, 45: 0.79363,
                46: 1.28582, 47: 0.54306, 48: 0.03539, 49:-0.88330, 50: 0.93402, 51: 1.22597, 52:-0.13201, 53:-0.07935, 54: 0.34574,
                55: 0.68067, 56:-0.15244, 57:-0.09659, 58: 0.68969, 59:-0.88318, 60:-0.46501, 61: 0.00851, 62:-0.07730, 63:-0.37962
    67 |      |  1:-0.92767,  2: 0.60271,  3: 0.62633,  4: 0.73821,  5: 0.77520,  6:-0.21659,  7:-0.31095,  8:-0.68316,  9: 0.85124,
                10:-1.14288, 11:-0.24369, 12:-0.90145, 13: 1.69360, 14:-0.32200, 15: 0.33403, 16:-0.56893, 17: 0.05155, 18:-0.08903,
                19: 0.45252, 20:-0.75735, 21: 0.89904, 22:-0.87451, 23:-0.13596, 24: 0.10080, 25: 1.16152, 26: 0.03618, 27:-0.18791,
                28: 0.27683, 29: 0.56255, 30:-0.01476, 31:-1.65224, 32:-0.98448, 33:-1.64848, 34: 2.20176, 35: 0.93823, 36:-0.00974,
                37:-1.40908, 38:-0.59935, 39: 1.30915, 40: 3.10873, 41: 1.62678, 42: 0.87677, 43: 0.61016, 44:-0.44792, 45: 0.94562,
                46: 0.46743, 47: 0.70082, 48: 0.48787, 49: 0.63750, 50: 0.24680, 51:-0.23529, 52:-0.14479, 53: 1.16413, 54: 0.51993,
                55:-0.32164, 56: 0.45561, 57:-0.74175, 58:-0.59948, 59:-0.27964, 60: 0.32859, 61:-0.62194, 62:-0.12430, 63:-0.36094
    68 |      |  1: 0.72771,  2:-0.12497,  3:-0.84338,  4: 0.91717,  5: 0.49065,  6:-0.80718,  7:-0.14389,  8:-0.55785,  9: 0.73293,
                10: 0.49027, 11: 0.38113, 12: 0.11432, 13: 1.18377, 14:-0.96954, 15: 0.50206, 16: 0.52117, 17:-0.69152, 18:-0.10181,
                19: 1.51127, 20:-0.82662, 21: 0.11069, 22:-0.27787, 23: 0.46270, 24:-0.92535, 25:-1.20642, 26: 0.30025, 27: 1.06315,
                28: 0.86077, 29:-0.55602, 30:-1.18049, 31: 0.99432, 32:-0.02381, 33: 0.82105, 34: 0.62056, 35:-0.90533, 36: 0.57982,
                37:-0.76054, 38:-0.29087, 39:-1.08860, 40:-1.21839, 41: 0.03147, 42:-0.05551, 43: 0.49858, 44:-0.55828, 45: 0.27775,
                46: 0.01908, 47: 1.64111, 48:-0.07457, 49:-0.18876, 50:-0.44639, 51: 2.22436, 52:-0.90736, 53:-0.20791, 54:-0.73642,
                55: 0.79356, 56:-0.31693, 57: 0.27055, 58: 0.59233, 59: 0.52196, 60:-0.39390, 61: 0.06149, 62:-0.40996, 63:-0.73571
    69 |      |  1: 0.87298,  2:-0.36930,  3: 0.37779,  4: 0.60198,  5: 0.95410,  6: 0.56139,  7:-0.46355,  8: 0.85589,  9:-0.21852,
                10:-0.20305, 11:-0.32780, 12:-1.07140, 13: 1.42349, 14:-0.19456, 15: 0.29319, 16: 0.32679, 17:-0.79522, 18: 0.75808,
                19: 0.43233, 20: 0.20286, 21: 0.17283, 22: 0.97021, 23: 0.42231, 24:-0.43162, 25: 0.86772, 26: 0.99829, 27: 0.13883,
                28: 0.86016, 29: 0.84448, 30: 0.16494, 31:-0.06041, 32: 0.06078, 33:-0.14867, 34: 1.02077, 35: 0.44395, 36:-0.83056,
                37:-0.49115, 38: 0.42393, 39: 0.47405, 40:-1.22963, 41:-2.81475, 42:-0.25791, 43: 0.83801, 44: 0.62736, 45:-0.79986,
                46: 1.04271, 47: 0.60384, 48: 0.14295, 49:-0.13932, 50:-0.81353, 51:-0.84650, 52: 0.04542, 53:-0.12647, 54: 0.37449,
                55: 1.96007, 56:-0.41929, 57: 0.78796, 58: 0.72192, 59: 0.15049, 60:-0.51921, 61:-0.28098, 62: 0.08536, 63:-0.56255
    70 |      |  1:-0.01920,  2: 0.45170,  3: 0.54363,  4:-0.96912,  5: 0.45067,  6:-0.96649,  7:-0.70354,  8:-0.14133,  9: 2.74596,
                10:-1.07609, 11:-0.71458, 12:-0.66950, 13:-0.14976, 14:-0.72759, 15:-0.10111, 16: 0.19960, 17:-0.53691, 18: 0.59099,
                19: 0.51331, 20: 1.62730, 21: 0.62072, 22: 0.26432, 23: 0.84818, 24: 0.13266, 25:-0.44984, 26:-1.02064, 27: 0.77458,
                28: 0.88842, 29: 0.92407, 30: 0.75272, 31: 0.00525, 32:-1.41566, 33:-1.51326, 34:-0.04266, 35:-0.26023, 36:-0.50267,
                37:-0.09961, 38:-0.81042, 39: 0.41509, 40:-0.01626, 41: 0.89642, 42:-0.52336, 43: 0.00729, 44: 0.01499, 45:-0.87701,
                46:-0.93975, 47: 0.12367, 48: 1.00181, 49:-0.99152, 50: 0.47752, 51: 0.29462, 52:-0.04096, 53: 0.26869, 54: 0.29278,
                55:-2.52193, 56:-0.80071, 57:-0.34202, 58:-0.75359, 59: 0.23490, 60:-0.93408, 61:-0.98926, 62:-0.61895, 63: 0.09995
    71 |      |  1:-0.47606,  2:-0.07999,  3: 0.90796,  4: 0.44230,  5: 0.26554,  6: 0.75396,  7: 0.70257,  8:-0.24863,  9: 0.02326,
                10:-0.72001, 11: 0.40747, 12:-0.97202, 13:-1.83657, 14:-0.29899, 15: 0.51048, 16: 0.22333, 17: 0.80609, 18: 0.28492,
                19:-0.59646, 20:-0.68816, 21:-0.01053, 22:-0.00095, 23:-0.71484, 24: 0.31828, 25: 0.96717, 26:-0.93503, 27: 0.80659,
                28: 0.55876, 29: 0.84301, 30:-0.03969, 31: 1.31595, 32: 1.49017, 33:-0.55981, 34: 1.60217, 35: 0.73614, 36: 0.30186,
                37:-0.43779, 38: 0.65081, 39:-0.20471, 40: 1.21487, 41: 2.03020, 42:-0.64495, 43:-0.61461, 44:-0.84937, 45: 0.45653,
                46:-0.37651, 47:-1.21111, 48:-0.15081, 49: 0.47734, 50:-0.24137, 51: 1.59887, 52: 0.67147, 53: 1.46068, 54: 0.84327,
                55: 2.77012, 56: 0.58965, 57: 0.72851, 58: 0.62291, 59:-0.59587, 60: 0.47484, 61:-0.40312, 62: 0.49675, 63: 0.19321
    72 |      |  1:-0.02499,  2: 0.61773,  3:-0.27525,  4: 0.07443,  5: 0.68395,  6: 0.86706,  7: 0.32109,  8: 0.83477,  9:-0.81434,
                10:-1.14091, 11:-1.24842, 12:-0.45291, 13:-0.62077, 14: 0.36064, 15: 0.31944, 16:-0.48781, 17: 0.95642, 18: 0.45407,
                19: 0.06060, 20: 0.20804, 21:-0.18583, 22:-0.43120, 23: 0.47467, 24: 0.67602, 25:-0.64300, 26:-0.21908, 27:-0.41382,
                28: 0.48454, 29: 0.76141, 30: 0.49180, 31: 0.67343, 32: 0.89262, 33: 0.10283, 34: 1.68269, 35: 0.18686, 36:-0.67882,
                37: 0.16838, 38: 0.45195, 39:-0.49717, 40:-0.35353, 41: 0.37722, 42: 0.58452, 43:-0.64879, 44: 0.02718, 45: 0.61077,
                46: 0.39805, 47: 0.74614, 48: 1.29245, 49: 0.48985, 50: 0.36192, 51: 0.41432, 52:-1.26576, 53:-1.44077, 54:-0.90955,
                55: 1.25430, 56: 0.80255, 57: 0.84710, 58: 0.30839, 59:-0.71294, 60: 0.82073, 61: 0.13761, 62:-0.54814, 63:-0.34141
    73 |      |  1: 0.80663,  2: 0.12687,  3: 0.24796,  4: 0.16556,  5: 0.99097,  6:-0.48265,  7:-0.28153,  8: 0.40965,  9:-0.70496,
                10: 0.26012, 11:-0.36568, 12:-0.29192, 13:-0.56206, 14:-0.47911, 15: 0.51714, 16:-0.22971, 17: 0.63671, 18:-1.69710,
                19: 0.15492, 20: 0.54971, 21: 0.63012, 22:-0.63176, 23:-0.33115, 24: 0.75671, 25:-0.52596, 26: 0.38802, 27:-1.45401,
                28: 0.27891, 29:-0.16062, 30: 0.98761, 31: 1.29134, 32:-0.58125, 33: 0.05438, 34:-2.45575, 35:-0.15403, 36:-0.70635,
                37: 1.09065, 38:-0.76238, 39:-1.05757, 40:-0.74386, 41:-1.19961, 42:-0.62810, 43:-0.71630, 44: 0.25574, 45:-0.00412,
                46:-0.49289, 47:-0.93325, 48:-0.35192, 49: 0.26859, 50: 0.61937, 51:-0.90668, 52: 1.60789, 53: 1.95310, 54: 1.39410,
                55: 1.75925, 56:-0.11130, 57:-0.13871, 58: 0.75982, 59: 0.51262, 60: 0.21696, 61: 0.29301, 62:-0.73394, 63:-0.56249
    74 |      | 64: 0.68901, 65:-2.55736, 66: 1.29763, 67:-2.66337, 68:-0.26664, 69:-1.08272, 70:-3.18323, 71: 1.66165, 72: 2.30328,
                73:-2.49465
    75 |      | 64:-1.54280, 65:-1.65041, 66:-2.60422, 67:-4.18438, 68: 0.71163, 69:-2.91797, 70: 1.60088, 71: 1.79910, 72:-1.56411,
                73: 0.35416
    76 |      | 64:-1.04212, 65:-1.84230, 66: 2.41406, 67:-2.79201, 68:-2.20869, 69: 1.03171, 70: 0.42974, 71:-3.60244, 72:-0.26099,
                73: 2.14584
    77 |      | 64:-2.95876, 65:-2.31369, 66: 2.94416, 67: 1.37717, 68: 0.01431, 69:-1.49970, 70: 2.41052, 71: 0.17421, 72:-1.02827,
                73:-2.75351
    78 |      | 64:-0.88070, 65: 1.50408, 66:-1.98888, 67:-1.77001, 68:-0.29616, 69: 0.67305, 70:-3.73907, 71: 1.82454, 72:-1.04925,
                73: 3.86515
    79 |      | 64: 0.56859, 65: 4.16939, 66:-2.18635, 67:-1.75508, 68: 0.01051, 69:-0.62628, 70:-0.70475, 71:-3.49279, 72:-0.56564,
                73:-2.43849
    80 |      | 64: 1.09936, 65:-1.69504, 66:-2.20226, 67: 1.98798, 68:-4.16990, 69:-3.40629, 70: 0.41910, 71: 0.46446, 72:-0.93315,
                73: 0.58301
    81 |      | 64:-2.63292, 65: 0.51100, 66:-3.16302, 67: 0.50314, 68:-1.18153, 69: 1.37143, 70: 1.66990, 71: 0.51375, 72: 2.72167,
                73:-2.95258
    82 |      | 64:-1.57739, 65: 2.84049, 66: 2.50887, 67: 1.72855, 68:-2.45258, 69: 0.17114, 70:-2.53020, 71: 0.21889, 72:-0.93018,
                73:-2.04501
    83 |      | 64: 0.58366, 65:-3.06827, 66:-1.79580, 67: 2.19657, 68: 1.65997, 69:-0.30905, 70:-2.73835, 71:-2.80656, 72:-1.43273,
                73:-0.65292
-------|------|---------------------------------------------------------------------------------------------------------------------


layer definition section :

layer | unitNo.
------|----------------------------------------------------------------------------------------------------------------------------
    2 | 64, 65, 66, 67, 68, 69, 70, 71, 72, 73
    3 | 74, 75, 76, 77, 78, 79, 80, 81, 82, 83
------|----------------------------------------------------------------------------------------------------------------------------
