SNNS network definition file V1.4-3D
generated at Fri Nov 11 17:06:24 2016

network name : 63_10_10 v5
source files :
no. of units : 83
no. of connections : 730
no. of unit types : 0
no. of site types : 0


learning function : BackpropMomentum
update function   : Topological_Order


unit default section :

act      | bias     | st | subnet | layer | act func     | out func
---------|----------|----|--------|-------|--------------|-------------
 0.00000 |  0.00000 | h  |      0 |     1 | Act_Logistic | Out_Identity 
---------|----------|----|--------|-------|--------------|-------------


unit definition section :

no. | typeName | unitName | act      | bias     | st | position | act func | out func | sites
----|----------|----------|----------|----------|----|----------|----------|----------|-------
  1 |          | noName   |  0.00000 | -0.71014 | i  |  1, 1, 1 |||
  2 |          | noName   |  0.00000 | -0.99164 | i  |  2, 1, 1 |||
  3 |          | noName   |  0.00000 |  0.96350 | i  |  3, 1, 1 |||
  4 |          | noName   |  0.00000 | -0.12528 | i  |  4, 1, 1 |||
  5 |          | noName   |  0.00000 | -0.51353 | i  |  5, 1, 1 |||
  6 |          | noName   |  0.00000 |  0.59020 | i  |  6, 1, 1 |||
  7 |          | noName   |  0.00000 | -0.46483 | i  |  7, 1, 1 |||
  8 |          | noName   |  0.00000 |  0.71221 | i  |  1, 2, 1 |||
  9 |          | noName   |  0.00000 | -0.19565 | i  |  2, 2, 1 |||
 10 |          | noName   |  0.80000 | -0.31907 | i  |  3, 2, 1 |||
 11 |          | noName   |  0.70000 |  0.52477 | i  |  4, 2, 1 |||
 12 |          | noName   |  0.80000 | -0.22514 | i  |  5, 2, 1 |||
 13 |          | noName   |  0.70000 |  0.07340 | i  |  6, 2, 1 |||
 14 |          | noName   |  0.00000 | -0.14982 | i  |  7, 2, 1 |||
 15 |          | noName   |  0.00000 | -0.95538 | i  |  1, 3, 1 |||
 16 |          | noName   |  0.00000 | -0.73888 | i  |  2, 3, 1 |||
 17 |          | noName   |  1.00000 |  0.09006 | i  |  3, 3, 1 |||
 18 |          | noName   |  0.00000 | -0.46580 | i  |  4, 3, 1 |||
 19 |          | noName   |  0.80000 | -0.68938 | i  |  5, 3, 1 |||
 20 |          | noName   |  0.00000 |  0.95062 | i  |  6, 3, 1 |||
 21 |          | noName   |  0.00000 |  0.23527 | i  |  7, 3, 1 |||
 22 |          | noName   |  0.00000 | -0.56944 | i  |  1, 4, 1 |||
 23 |          | noName   |  0.00000 |  0.70733 | i  |  2, 4, 1 |||
 24 |          | noName   |  0.00000 | -0.74316 | i  |  3, 4, 1 |||
 25 |          | noName   |  0.00000 |  0.56597 | i  |  4, 4, 1 |||
 26 |          | noName   |  0.00000 |  0.47533 | i  |  5, 4, 1 |||
 27 |          | noName   |  0.00000 |  0.10764 | i  |  6, 4, 1 |||
 28 |          | noName   |  0.00000 | -0.48100 | i  |  7, 4, 1 |||
 29 |          | noName   |  0.00000 |  0.19089 | i  |  1, 5, 1 |||
 30 |          | noName   |  0.00000 |  0.96381 | i  |  2, 5, 1 |||
 31 |          | noName   |  0.00000 |  0.75903 | i  |  3, 5, 1 |||
 32 |          | noName   |  0.00000 |  0.59349 | i  |  4, 5, 1 |||
 33 |          | noName   |  0.80000 | -0.25504 | i  |  5, 5, 1 |||
 34 |          | noName   |  0.00000 |  0.37938 | i  |  6, 5, 1 |||
 35 |          | noName   |  0.00000 | -0.95190 | i  |  7, 5, 1 |||
 36 |          | noName   |  0.00000 | -0.19059 | i  |  1, 6, 1 |||
 37 |          | noName   |  0.00000 |  0.77282 | i  |  2, 6, 1 |||
 38 |          | noName   |  0.00000 |  0.49144 | i  |  3, 6, 1 |||
 39 |          | noName   |  0.00000 | -0.54271 | i  |  4, 6, 1 |||
 40 |          | noName   |  0.70000 | -0.65014 | i  |  5, 6, 1 |||
 41 |          | noName   |  0.00000 |  0.83575 | i  |  6, 6, 1 |||
 42 |          | noName   |  0.00000 | -0.71514 | i  |  7, 6, 1 |||
 43 |          | noName   |  0.00000 | -0.97540 | i  |  1, 7, 1 |||
 44 |          | noName   |  0.80000 |  0.12107 | i  |  2, 7, 1 |||
 45 |          | noName   |  0.00000 |  0.15354 | i  |  3, 7, 1 |||
 46 |          | noName   |  0.00000 |  0.28507 | i  |  4, 7, 1 |||
 47 |          | noName   |  0.70000 | -0.37944 | i  |  5, 7, 1 |||
 48 |          | noName   |  0.00000 |  0.17264 | i  |  6, 7, 1 |||
 49 |          | noName   |  0.00000 |  0.59392 | i  |  7, 7, 1 |||
 50 |          | noName   |  0.00000 |  0.83898 | i  |  1, 8, 1 |||
 51 |          | noName   |  0.00000 | -0.64641 | i  |  2, 8, 1 |||
 52 |          | noName   |  0.80000 | -0.26896 | i  |  3, 8, 1 |||
 53 |          | noName   |  0.70000 |  0.82220 | i  |  4, 8, 1 |||
 54 |          | noName   |  0.00000 | -0.08371 | i  |  5, 8, 1 |||
 55 |          | noName   |  0.00000 | -0.58306 | i  |  6, 8, 1 |||
 56 |          | noName   |  0.00000 | -0.09122 | i  |  7, 8, 1 |||
 57 |          | noName   |  0.00000 |  0.42375 | i  |  1, 9, 1 |||
 58 |          | noName   |  0.00000 |  0.99268 | i  |  2, 9, 1 |||
 59 |          | noName   |  0.00000 | -0.31034 | i  |  3, 9, 1 |||
 60 |          | noName   |  0.00000 | -0.84808 | i  |  4, 9, 1 |||
 61 |          | noName   |  0.00000 |  0.81121 | i  |  5, 9, 1 |||
 62 |          | noName   |  0.00000 |  0.57695 | i  |  6, 9, 1 |||
 63 |          | noName   |  0.00000 | -0.59642 | i  |  7, 9, 1 |||
 64 |          | noName   |  0.38430 |  0.35084 | h  | 11, 1, 1 |||
 65 |          | noName   |  0.91066 |  1.41243 | h  | 11, 2, 1 |||
 66 |          | noName   |  0.79267 | -1.94420 | h  | 11, 3, 1 |||
 67 |          | noName   |  0.06256 | -0.30331 | h  | 11, 4, 1 |||
 68 |          | noName   |  0.95422 | -0.50286 | h  | 11, 5, 1 |||
 69 |          | noName   |  0.14531 | -0.75734 | h  | 11, 6, 1 |||
 70 |          | noName   |  0.26113 | -0.20343 | h  | 11, 7, 1 |||
 71 |          | noName   |  0.01917 | -1.36721 | h  | 11, 8, 1 |||
 72 |          | noName   |  0.96163 |  0.65473 | h  | 11, 9, 1 |||
 73 |          | noName   |  0.73932 |  0.68012 | h  | 11,10, 1 |||
 74 |          | noName   |  0.00336 | -2.14241 | o  | 15, 1, 1 |||
 75 |          | noName   |  0.04000 | -1.14308 | o  | 15, 2, 1 |||
 76 |          | noName   |  0.00524 | -0.11588 | o  | 15, 3, 1 |||
 77 |          | noName   |  0.00007 |  0.40955 | o  | 15, 4, 1 |||
 78 |          | noName   |  0.01077 | -1.59571 | o  | 15, 5, 1 |||
 79 |          | noName   |  0.03690 | -1.42094 | o  | 15, 6, 1 |||
 80 |          | noName   |  0.06087 | -2.57834 | o  | 15, 7, 1 |||
 81 |          | noName   |  0.06011 | -1.33964 | o  | 15, 8, 1 |||
 82 |          | noName   |  0.05217 | -1.75453 | o  | 15, 9, 1 |||
 83 |          | noName   |  0.92760 | -1.29751 | o  | 15,10, 1 |||
----|----------|----------|----------|----------|----|----------|----------|----------|-------


connection definition section :

target | site | source:weight
-------|------|---------------------------------------------------------------------------------------------------------------------
    64 |      |  1:-0.27018,  2:-0.05374,  3: 0.18967,  4:-0.36021,  5:-0.82733,  6: 0.64965,  7:-0.18448,  8:-0.94189,  9:-0.07966,
                10:-1.07805, 11:-0.35910, 12:-0.32794, 13:-0.13771, 14: 0.52788, 15: 0.10489, 16:-0.66309, 17: 0.24979, 18: 0.75797,
                19:-0.37694, 20: 0.02676, 21: 0.93017, 22: 0.68657, 23: 0.37442, 24: 0.37956, 25:-0.03061, 26:-0.75086, 27: 0.71394,
                28:-0.11881, 29: 0.31834, 30:-0.85051, 31: 0.73399, 32: 1.34168, 33: 1.80439, 34: 0.32958, 35: 0.73040, 36: 0.83917,
                37: 0.83210, 38:-0.67693, 39: 0.37733, 40:-0.78116, 41: 0.99063, 42: 0.78253, 43: 0.96399, 44: 0.23475, 45:-0.67534,
                46:-0.67130, 47: 0.88487, 48: 0.06105, 49:-0.65075, 50: 0.81085, 51: 0.00272, 52:-0.65425, 53:-0.68342, 54:-1.68993,
                55: 0.43943, 56: 0.65026, 57:-0.33378, 58:-0.07291, 59:-0.28703, 60: 0.16422, 61:-0.16019, 62:-0.64293, 63:-0.72253
    65 |      |  1:-0.60772,  2: 0.35704,  3:-0.42497,  4:-0.80706,  5: 0.69793,  6:-0.41734,  7: 0.30314,  8: 0.29783,  9: 0.33344,
                10: 0.41911, 11: 0.32232, 12:-0.38847, 13: 0.61434, 14: 0.09531, 15:-0.17588, 16:-0.87474, 17: 0.24638, 18: 1.29768,
                19:-0.02589, 20:-0.61017, 21:-0.78112, 22: 0.55150, 23: 0.13876, 24: 0.01419, 25: 0.89619, 26: 0.20436, 27: 1.37972,
                28: 0.77117, 29:-0.43449, 30:-1.09874, 31: 0.78683, 32: 1.49274, 33: 0.51809, 34:-0.01413, 35: 0.19095, 36: 0.79949,
                37:-1.27084, 38:-0.68841, 39: 1.36755, 40: 0.55628, 41:-0.57021, 42: 0.54460, 43:-0.81201, 44: 0.21502, 45: 0.46428,
                46:-0.01716, 47: 0.82101, 48:-1.14406, 49:-0.64251, 50:-0.83520, 51: 0.09844, 52:-1.43359, 53:-0.57175, 54:-1.74484,
                55:-2.06741, 56:-0.92261, 57: 0.30461, 58:-0.68554, 59: 0.45561, 60: 0.78442, 61: 0.74798, 62: 0.38932, 63: 0.72350
    66 |      |  1:-0.89062,  2:-0.25535,  3: 0.60790,  4: 0.06931,  5:-0.54338,  6:-0.79431,  7:-0.45122,  8: 0.77892,  9:-0.59973,
                10:-0.22077, 11: 1.11214, 12: 0.93914, 13:-0.90248, 14:-0.00620, 15:-0.12192, 16: 0.26370, 17:-0.83825, 18:-0.88029,
                19: 1.00750, 20:-0.01793, 21: 0.74615, 22: 0.09183, 23:-1.56772, 24:-0.24162, 25: 0.14015, 26: 0.83046, 27: 0.87191,
                28:-0.40098, 29:-0.29795, 30:-0.30581, 31: 1.50752, 32: 0.05894, 33: 1.74639, 34:-1.18659, 35:-0.58184, 36:-0.27439,
                37: 0.17925, 38: 0.77331, 39:-1.37947, 40: 1.29379, 41: 2.05204, 42: 0.20011, 43: 0.81005, 44:-0.73743, 45:-0.40825,
                46:-0.30091, 47: 0.79948, 48: 0.63277, 49: 0.20060, 50:-0.84509, 51:-0.46187, 52:-0.20627, 53: 0.69805, 54:-0.30809,
                55: 0.62606, 56:-0.71203, 57: 0.04587, 58: 0.03378, 59:-0.71929, 60: 0.92261, 61:-0.19480, 62: 0.86493, 63: 0.16727
    67 |      |  1: 0.71306,  2: 0.61315,  3:-0.22349,  4: 0.80401,  5:-0.15659,  6: 0.33518,  7:-0.89673,  8:-0.15098,  9:-1.34961,
                10: 0.43690, 11: 0.88859, 12: 1.96458, 13:-1.71621, 14: 0.66491, 15: 0.94256, 16: 0.89306, 17:-0.92199, 18: 0.46508,
                19: 0.27029, 20: 0.99133, 21: 0.15629, 22:-0.62615, 23:-0.00203, 24: 0.20981, 25:-0.33603, 26:-0.84777, 27:-0.24589,
                28: 0.77502, 29:-0.50267, 30:-0.19306, 31:-1.32620, 32:-0.56833, 33:-0.45638, 34: 0.50265, 35:-0.59978, 36: 0.65270,
                37:-0.41466, 38:-0.97540, 39: 0.66223, 40:-1.69480, 41:-0.69516, 42: 0.37785, 43:-0.05673, 44:-0.86446, 45:-0.27329,
                46: 1.23735, 47: 0.43144, 48: 1.28740, 49: 0.46062, 50:-0.96503, 51: 0.26417, 52:-0.11204, 53:-1.44152, 54:-0.12248,
                55: 0.17081, 56: 0.37968, 57:-0.40287, 58:-0.03616, 59: 0.55168, 60:-0.51109, 61: 0.28098, 62: 0.97540, 63:-0.96533
    68 |      |  1:-0.96466,  2: 0.46629,  3: 0.56920,  4: 0.93225,  5:-0.74725,  6: 0.78747,  7:-0.48259,  8:-0.14408,  9:-0.38704,
                10:-0.18123, 11:-0.11406, 12:-0.77522, 13: 1.17281, 14:-0.45012, 15: 0.69335, 16: 0.67094, 17:-0.92279, 18:-0.02385,
                19: 0.01197, 20: 0.57939, 21:-0.90613, 22:-0.53587, 23:-0.61601, 24: 0.96612, 25:-0.60140, 26:-0.04279, 27:-1.98553,
                28:-0.29075, 29: 0.72106, 30: 0.76713, 31:-0.36244, 32:-0.68606, 33: 0.61768, 34:-1.66869, 35: 0.12552, 36:-0.38420,
                37: 1.03066, 38: 0.38200, 39: 0.58709, 40: 1.55631, 41:-1.45285, 42: 0.70684, 43:-0.29893, 44: 0.07106, 45: 0.88867,
                46:-0.69537, 47: 0.53245, 48:-1.34592, 49:-0.28050, 50: 0.05893, 51:-1.21956, 52: 1.70275, 53: 1.57398, 54: 0.26432,
                55: 0.92030, 56: 0.45006, 57: 0.66540, 58:-0.01645, 59:-0.36827, 60: 0.39360, 61: 0.44493, 62:-0.08792, 63:-0.24851
    69 |      |  1:-0.09159,  2:-0.19193,  3:-0.52586,  4: 0.98914,  5: 0.07932,  6:-0.62102,  7: 0.34202,  8: 0.14719,  9:-1.59305,
                10: 0.00520, 11: 1.60097, 12: 1.75093, 13:-0.90215, 14:-0.90973, 15:-0.19388, 16: 0.46886, 17:-0.75866, 18: 0.57307,
                19:-0.25310, 20:-1.46048, 21: 0.20353, 22: 0.42900, 23:-0.23491, 24: 0.62499, 25:-0.00771, 26:-0.33269, 27:-1.24250,
                28: 0.81194, 29: 0.14261, 30:-0.09221, 31: 0.05248, 32: 0.95932, 33: 0.34168, 34: 0.38115, 35: 0.58232, 36:-0.34983,
                37:-0.52613, 38: 0.16184, 39:-0.52429, 40:-0.75580, 41:-1.82201, 42:-0.18412, 43: 0.19669, 44:-0.44780, 45: 0.09714,
                46: 1.20950, 47:-0.93562, 48:-0.45005, 49: 0.55931, 50: 0.48064, 51: 1.10657, 52:-0.11091, 53:-0.84265, 54: 0.78709,
                55: 2.68778, 56: 0.59685, 57:-0.04239, 58:-0.02811, 59: 0.88421, 60: 0.54680, 61:-0.43345, 62:-0.13352, 63:-0.25657
    70 |      |  1: 0.16410,  2: 0.14231,  3:-0.02029,  4: 0.50981,  5:-0.28251,  6:-0.07382,  7: 0.12778,  8:-0.92956,  9: 0.72276,
                10:-0.84590, 11:-0.53743, 12:-0.70077, 13: 0.24596, 14: 0.72741, 15:-0.04318, 16:-0.04479, 17: 0.65246, 18: 0.42179,
                19:-0.13852, 20:-0.76275, 21:-0.87030, 22:-0.66521, 23:-0.41032, 24: 0.78405, 25: 0.65100, 26:-0.86518, 27: 1.23403,
                28:-0.50688, 29:-0.46843, 30: 0.45474, 31:-1.33079, 32:-0.51844, 33:-1.33183, 34: 1.41965, 35: 0.75878, 36: 0.79101,
                37: 0.63541, 38: 0.68047, 39:-0.12894, 40: 2.78067, 41: 1.88343, 42:-0.66601, 43: 0.54338, 44:-0.55888, 45:-0.62835,
                46: 0.94615, 47:-1.05166, 48: 0.38165, 49: 0.56218, 50:-0.44603, 51: 0.19648, 52:-0.14341, 53: 0.68576, 54: 0.24795,
                55: 3.22697, 56: 0.91760, 57:-0.81909, 58: 0.80767, 59:-0.32774, 60:-0.14145, 61:-0.08469, 62: 0.02988, 63:-0.56371
    71 |      |  1:-0.36546,  2:-0.02701,  3: 0.57421,  4: 0.02945,  5: 0.56188,  6:-0.75463,  7: 0.42552,  8:-0.02658,  9: 1.44723,
                10:-1.03122, 11: 0.37431, 12: 0.60120, 13:-0.44855, 14: 0.90271, 15:-0.17881, 16: 0.43405, 17:-0.60753, 18: 0.34017,
                19:-0.74206, 20: 0.31263, 21: 0.51695, 22: 0.24808, 23: 0.78089, 24: 0.04093, 25: 0.36915, 26:-0.12221, 27: 1.14920,
                28: 0.16312, 29:-0.34245, 30: 1.40858, 31: 0.80327, 32: 0.33080, 33: 0.39853, 34:-0.06900, 35:-0.35673, 36: 0.07334,
                37: 0.96961, 38:-0.74566, 39:-1.20702, 40:-1.11157, 41: 0.11801, 42:-0.11002, 43: 0.85443, 44: 0.53281, 45:-0.26823,
                46: 0.18705, 47:-0.73262, 48: 0.71352, 49: 0.30998, 50:-0.46702, 51: 0.80287, 52: 0.28280, 53:-0.92987, 54: 0.05014,
                55:-0.29356, 56: 0.51006, 57:-0.95776, 58: 0.36985, 59: 0.35929, 60:-0.76080, 61: 0.76086, 62: 0.59380, 63: 0.25590
    72 |      |  1:-0.84826,  2: 0.80401,  3: 0.74584,  4:-0.91675,  5: 0.00699,  6:-0.84692,  7:-0.21397,  8:-0.79626,  9:-1.27515,
                10:-0.90098, 11: 0.05168, 12:-1.15180, 13: 1.22449, 14:-0.94244, 15:-0.92511, 16:-0.89300, 17: 0.54363, 18: 0.41774,
                19: 0.83959, 20: 1.10611, 21: 0.00980, 22: 0.23515, 23: 0.05511, 24:-0.00668, 25:-0.53186, 26: 1.27412, 27:-0.18993,
                28: 0.23191, 29: 0.29002, 30: 0.57669, 31: 0.18986, 32:-1.14483, 33: 0.96566, 34: 1.05337, 35:-0.77593, 36:-0.46764,
                37: 0.52556, 38: 0.19993, 39: 0.67538, 40: 1.78504, 41:-0.32708, 42:-0.88720, 43: 0.24308, 44: 0.89828, 45:-0.80303,
                46: 0.02208, 47: 1.48156, 48: 0.98628, 49:-0.61516, 50:-0.32853, 51:-0.29874, 52:-1.25907, 53:-0.95756, 54:-0.96892,
                55:-0.35145, 56:-0.52818, 57:-0.75127, 58:-0.46269, 59: 0.30857, 60: 0.59880, 61: 0.37260, 62: 0.74957, 63: 0.62804
    73 |      |  1: 0.54778,  2:-0.86084,  3: 0.98291,  4: 0.20634,  5: 0.44737,  6: 0.46568,  7:-0.23997,  8: 0.10904,  9: 0.17502,
                10:-0.62337, 11: 0.09576, 12:-0.04024, 13:-0.59043, 14:-0.36662, 15: 0.39390, 16: 0.21101, 17: 0.18772, 18: 0.85846,
                19: 0.10492, 20: 0.53715, 21: 0.25285, 22:-0.63762, 23:-1.76223, 24:-0.76110, 25: 0.91120, 26: 0.03599, 27:-0.45562,
                28: 0.10978, 29: 0.19846, 30:-0.04930, 31:-0.03067, 32: 0.43556, 33:-0.01204, 34:-2.02659, 35: 0.48949, 36: 0.20328,
                37: 0.61999, 38: 0.83361, 39: 0.04258, 40: 0.74419, 41: 0.91615, 42:-0.36863, 43: 0.82275, 44:-0.92919, 45: 0.78692,
                46: 0.15227, 47:-0.24532, 48: 0.52985, 49: 0.36882, 50: 0.22336, 51:-1.95202, 52: 0.29365, 53: 1.62385, 54: 0.42737,
                55:-1.85372, 56: 0.90063, 57: 0.50737, 58: 0.18906, 59:-0.11673, 60: 0.84747, 61: 0.02011, 62: 0.68865, 63:-0.02158
    74 |      | 64: 1.25080, 65:-0.43179, 66: 2.01313, 67: 2.28072, 68:-2.96996, 69: 2.54221, 70:-0.05226, 71:-2.08783, 72:-0.31657,
                73:-3.45491
    75 |      | 64: 0.98605, 65:-0.47466, 66: 3.03268, 67:-1.28857, 68:-1.67802, 69:-2.08533, 70:-1.95973, 71: 0.75782, 72:-2.93714,
                73: 1.24551
    76 |      | 64:-1.51756, 65:-3.40779, 66:-2.59452, 67: 2.13486, 68: 1.25383, 69:-0.45476, 70:-3.61448, 71:-0.01291, 72:-0.20885,
                73: 0.66724
    77 |      | 64:-1.83561, 65:-2.59906, 66:-1.16608, 67: 1.07152, 68:-3.18818, 69:-1.59946, 70: 1.70123, 71: 1.19111, 72:-2.41927,
                73:-1.32181
    78 |      | 64:-0.67935, 65:-1.37922, 66:-0.20894, 67:-2.54343, 68: 2.96520, 69: 2.42034, 70: 0.11186, 71: 0.05957, 72:-2.70205,
                73:-2.29312
    79 |      | 64: 0.86541, 65: 3.51517, 66:-1.75576, 67:-0.88784, 68:-0.54251, 69:-0.25842, 70:-3.67336, 71: 0.89392, 72:-0.72373,
                73:-2.34577
    80 |      | 64:-1.42053, 65:-3.78605, 66: 0.67016, 67:-1.11727, 68: 1.40377, 69:-2.06276, 70: 2.47199, 71:-1.22521, 72:-0.03954,
                73: 2.36810
    81 |      | 64: 2.06549, 65: 0.76559, 66:-1.02897, 67:-1.57624, 68:-1.39592, 69:-3.89331, 70: 1.73872, 71:-0.90437, 72: 1.28821,
                73:-2.38641
    82 |      | 64:-0.31680, 65: 1.94520, 66:-2.73135, 67: 0.96312, 68:-0.68366, 69: 1.20739, 70:-0.96406, 71:-2.48957, 72:-1.50273,
                73: 2.07151
    83 |      | 64:-0.11656, 65: 0.71168, 66: 1.12215, 67:-1.26164, 68: 0.97066, 69:-1.78778, 70:-1.30080, 71:-3.60145, 72: 1.97805,
                73: 0.37089
-------|------|---------------------------------------------------------------------------------------------------------------------


layer definition section :

layer | unitNo.
------|----------------------------------------------------------------------------------------------------------------------------
    2 | 64, 65, 66, 67, 68, 69, 70, 71, 72, 73
    3 | 74, 75, 76, 77, 78, 79, 80, 81, 82, 83
------|----------------------------------------------------------------------------------------------------------------------------
