SNNS network definition file V1.4-3D
generated at Fri Nov 11 16:49:34 2016

network name : 63_10_10 v1
source files :
no. of units : 83
no. of connections : 730
no. of unit types : 0
no. of site types : 0


learning function : BackpropMomentum
update function   : Topological_Order


unit default section :

act      | bias     | st | subnet | layer | act func     | out func
---------|----------|----|--------|-------|--------------|-------------
 0.00000 |  0.00000 | h  |      0 |     1 | Act_Logistic | Out_Identity 
---------|----------|----|--------|-------|--------------|-------------


unit definition section :

no. | typeName | unitName | act      | bias     | st | position | act func | out func | sites
----|----------|----------|----------|----------|----|----------|----------|----------|-------
  1 |          | noName   |  0.00000 | -0.71014 | i  |  1, 1, 1 |||
  2 |          | noName   |  0.00000 | -0.99164 | i  |  2, 1, 1 |||
  3 |          | noName   |  0.00000 |  0.96350 | i  |  3, 1, 1 |||
  4 |          | noName   |  0.00000 | -0.12528 | i  |  4, 1, 1 |||
  5 |          | noName   |  0.00000 | -0.51353 | i  |  5, 1, 1 |||
  6 |          | noName   |  0.00000 |  0.59020 | i  |  6, 1, 1 |||
  7 |          | noName   |  0.00000 | -0.46483 | i  |  7, 1, 1 |||
  8 |          | noName   |  0.00000 |  0.71221 | i  |  1, 2, 1 |||
  9 |          | noName   |  0.00000 | -0.19565 | i  |  2, 2, 1 |||
 10 |          | noName   |  0.80000 | -0.31907 | i  |  3, 2, 1 |||
 11 |          | noName   |  0.70000 |  0.52477 | i  |  4, 2, 1 |||
 12 |          | noName   |  0.80000 | -0.22514 | i  |  5, 2, 1 |||
 13 |          | noName   |  0.70000 |  0.07340 | i  |  6, 2, 1 |||
 14 |          | noName   |  0.00000 | -0.14982 | i  |  7, 2, 1 |||
 15 |          | noName   |  0.00000 | -0.95538 | i  |  1, 3, 1 |||
 16 |          | noName   |  0.00000 | -0.73888 | i  |  2, 3, 1 |||
 17 |          | noName   |  1.00000 |  0.09006 | i  |  3, 3, 1 |||
 18 |          | noName   |  0.00000 | -0.46580 | i  |  4, 3, 1 |||
 19 |          | noName   |  0.80000 | -0.68938 | i  |  5, 3, 1 |||
 20 |          | noName   |  0.00000 |  0.95062 | i  |  6, 3, 1 |||
 21 |          | noName   |  0.00000 |  0.23527 | i  |  7, 3, 1 |||
 22 |          | noName   |  0.00000 | -0.56944 | i  |  1, 4, 1 |||
 23 |          | noName   |  0.00000 |  0.70733 | i  |  2, 4, 1 |||
 24 |          | noName   |  0.00000 | -0.74316 | i  |  3, 4, 1 |||
 25 |          | noName   |  0.00000 |  0.56597 | i  |  4, 4, 1 |||
 26 |          | noName   |  0.00000 |  0.47533 | i  |  5, 4, 1 |||
 27 |          | noName   |  0.00000 |  0.10764 | i  |  6, 4, 1 |||
 28 |          | noName   |  0.00000 | -0.48100 | i  |  7, 4, 1 |||
 29 |          | noName   |  0.00000 |  0.19089 | i  |  1, 5, 1 |||
 30 |          | noName   |  0.00000 |  0.96381 | i  |  2, 5, 1 |||
 31 |          | noName   |  0.00000 |  0.75903 | i  |  3, 5, 1 |||
 32 |          | noName   |  0.00000 |  0.59349 | i  |  4, 5, 1 |||
 33 |          | noName   |  0.80000 | -0.25504 | i  |  5, 5, 1 |||
 34 |          | noName   |  0.00000 |  0.37938 | i  |  6, 5, 1 |||
 35 |          | noName   |  0.00000 | -0.95190 | i  |  7, 5, 1 |||
 36 |          | noName   |  0.00000 | -0.19059 | i  |  1, 6, 1 |||
 37 |          | noName   |  0.00000 |  0.77282 | i  |  2, 6, 1 |||
 38 |          | noName   |  0.00000 |  0.49144 | i  |  3, 6, 1 |||
 39 |          | noName   |  0.00000 | -0.54271 | i  |  4, 6, 1 |||
 40 |          | noName   |  0.70000 | -0.65014 | i  |  5, 6, 1 |||
 41 |          | noName   |  0.00000 |  0.83575 | i  |  6, 6, 1 |||
 42 |          | noName   |  0.00000 | -0.71514 | i  |  7, 6, 1 |||
 43 |          | noName   |  0.00000 | -0.97540 | i  |  1, 7, 1 |||
 44 |          | noName   |  0.80000 |  0.12107 | i  |  2, 7, 1 |||
 45 |          | noName   |  0.00000 |  0.15354 | i  |  3, 7, 1 |||
 46 |          | noName   |  0.00000 |  0.28507 | i  |  4, 7, 1 |||
 47 |          | noName   |  0.70000 | -0.37944 | i  |  5, 7, 1 |||
 48 |          | noName   |  0.00000 |  0.17264 | i  |  6, 7, 1 |||
 49 |          | noName   |  0.00000 |  0.59392 | i  |  7, 7, 1 |||
 50 |          | noName   |  0.00000 |  0.83898 | i  |  1, 8, 1 |||
 51 |          | noName   |  0.00000 | -0.64641 | i  |  2, 8, 1 |||
 52 |          | noName   |  0.80000 | -0.26896 | i  |  3, 8, 1 |||
 53 |          | noName   |  0.70000 |  0.82220 | i  |  4, 8, 1 |||
 54 |          | noName   |  0.00000 | -0.08371 | i  |  5, 8, 1 |||
 55 |          | noName   |  0.00000 | -0.58306 | i  |  6, 8, 1 |||
 56 |          | noName   |  0.00000 | -0.09122 | i  |  7, 8, 1 |||
 57 |          | noName   |  0.00000 |  0.42375 | i  |  1, 9, 1 |||
 58 |          | noName   |  0.00000 |  0.99268 | i  |  2, 9, 1 |||
 59 |          | noName   |  0.00000 | -0.31034 | i  |  3, 9, 1 |||
 60 |          | noName   |  0.00000 | -0.84808 | i  |  4, 9, 1 |||
 61 |          | noName   |  0.00000 |  0.81121 | i  |  5, 9, 1 |||
 62 |          | noName   |  0.00000 |  0.57695 | i  |  6, 9, 1 |||
 63 |          | noName   |  0.00000 | -0.59642 | i  |  7, 9, 1 |||
 64 |          | noName   |  0.42354 |  0.25658 | h  | 11, 1, 1 |||
 65 |          | noName   |  0.96033 |  1.83050 | h  | 11, 2, 1 |||
 66 |          | noName   |  0.17515 | -0.59373 | h  | 11, 3, 1 |||
 67 |          | noName   |  0.29819 | -1.29091 | h  | 11, 4, 1 |||
 68 |          | noName   |  0.98957 | -1.58076 | h  | 11, 5, 1 |||
 69 |          | noName   |  0.97977 | -0.52858 | h  | 11, 6, 1 |||
 70 |          | noName   |  0.02428 |  1.13670 | h  | 11, 7, 1 |||
 71 |          | noName   |  0.07621 | -2.11352 | h  | 11, 8, 1 |||
 72 |          | noName   |  0.13494 | -0.30059 | h  | 11, 9, 1 |||
 73 |          | noName   |  0.81277 |  0.89192 | h  | 11,10, 1 |||
 74 |          | noName   |  0.01047 | -1.66461 | o  | 15, 1, 1 |||
 75 |          | noName   |  0.00427 | -1.82427 | o  | 15, 2, 1 |||
 76 |          | noName   |  0.01592 |  0.28846 | o  | 15, 3, 1 |||
 77 |          | noName   |  0.00008 |  0.04242 | o  | 15, 4, 1 |||
 78 |          | noName   |  0.02206 | -2.54300 | o  | 15, 5, 1 |||
 79 |          | noName   |  0.02691 | -1.40452 | o  | 15, 6, 1 |||
 80 |          | noName   |  0.08374 | -2.67333 | o  | 15, 7, 1 |||
 81 |          | noName   |  0.00072 | -1.33906 | o  | 15, 8, 1 |||
 82 |          | noName   |  0.02935 | -2.64316 | o  | 15, 9, 1 |||
 83 |          | noName   |  0.89182 | -1.17861 | o  | 15,10, 1 |||
----|----------|----------|----------|----------|----|----------|----------|----------|-------


connection definition section :

target | site | source:weight
-------|------|---------------------------------------------------------------------------------------------------------------------
    64 |      | 63:-0.27018, 62:-0.05374, 61: 0.18967, 60:-0.36021, 59:-0.82733, 58: 0.64965, 57:-0.18448, 56:-0.94189, 55:-2.19646,
                54:-0.23684, 53: 0.83783, 52: 0.68994, 51:-1.10494, 50: 0.52788, 49: 0.10489, 48:-0.09776, 47: 0.08606, 46: 1.12439,
                45:-0.44572, 44:-0.61183, 43: 0.93017, 42: 0.68657, 41: 1.79647, 40: 0.99583, 39: 0.44409, 38:-0.79968, 37: 0.22712,
                36:-0.11881, 35: 0.31834, 34:-1.94601, 33:-1.19987, 32:-0.06077, 31: 0.75454, 30: 0.04896, 29: 0.73040, 28: 0.83917,
                27: 1.21839, 26:-0.80183, 25: 0.73133, 24:-0.83831, 23:-0.38335, 22: 0.78253, 21: 0.96399, 20: 0.31785, 19:-0.80213,
                18:-0.19516, 17: 0.86334, 16:-0.24410, 15:-0.65075, 14: 0.81085, 13:-1.75476, 12: 0.23149, 11: 0.32225, 10:-0.51915,
                 9: 0.57227,  8: 0.65026,  7:-0.33378,  6:-0.07291,  5:-0.28703,  4: 0.16422,  3:-0.16019,  2:-0.64293,  1:-0.72253
    65 |      | 63:-0.60772, 62: 0.35704, 61:-0.42497, 60:-0.80706, 59: 0.69793, 58:-0.41734, 57: 0.30314, 56: 0.29783, 55: 0.39933,
                54: 0.21765, 53: 0.83103, 52:-0.55685, 51:-0.53989, 50: 0.09531, 49:-0.17588, 48:-0.38538, 47: 0.60737, 46: 1.21410,
                45:-0.51457, 44: 0.34502, 43:-0.78112, 42: 0.55150, 41: 1.76074, 40: 2.16590, 39: 1.05790, 38:-0.18607, 37: 0.73818,
                36: 0.77117, 35:-0.43449, 34:-0.33474, 33: 0.02753, 32: 0.65031, 31:-0.82384, 30: 0.19410, 29: 0.19095, 28: 0.79949,
                27:-1.45298, 26:-0.37575, 25: 1.23501, 24: 0.41612, 23:-1.42133, 22: 0.54460, 21:-0.81201, 20: 0.69841, 19: 0.85238,
                18: 0.10638, 17: 0.47795, 16:-1.18375, 15:-0.64251, 14:-0.83520, 13: 0.95989, 12:-2.19652, 11:-0.56742, 10:-0.87087,
                 9:-0.97089,  8:-0.92261,  7: 0.30461,  6:-0.68554,  5: 0.45561,  4: 0.78442,  3: 0.74798,  2: 0.38932,  1: 0.72350
    66 |      | 63:-0.89062, 62:-0.25535, 61: 0.60790, 60: 0.06931, 59:-0.54338, 58:-0.79431, 57:-0.45122, 56: 0.77892, 55:-0.35081,
                54: 0.35188, 53: 0.71120, 52: 1.23323, 51: 0.07481, 50:-0.00620, 49:-0.12192, 48: 0.44540, 47:-1.28360, 46:-0.70458,
                45: 0.84240, 44: 1.50065, 43: 0.74615, 42: 0.09183, 41:-1.33744, 40:-0.72924, 39: 0.07303, 38: 0.69494, 37: 1.51097,
                36:-0.40098, 35:-0.29795, 34:-1.74894, 33:-0.17491, 32:-0.31494, 31: 0.82316, 30: 0.19571, 29:-0.58184, 28:-0.27439,
                27:-0.93169, 26: 0.32407, 25:-1.24108, 24:-0.03922, 23: 1.18891, 22: 0.20011, 21: 0.81005, 20: 0.42901, 19:-0.94611,
                18:-0.39452, 17: 0.64019, 16: 1.02821, 15: 0.20060, 14:-0.84509, 13: 0.94610, 12:-1.72513, 11:-0.83271, 10:-0.84303,
                 9: 1.19423,  8:-0.71203,  7: 0.04587,  6: 0.03378,  5:-0.71929,  4: 0.92261,  3:-0.19480,  2: 0.86493,  1: 0.16727
    67 |      | 63: 0.71306, 62: 0.61315, 61:-0.22349, 60: 0.80401, 59:-0.15659, 58: 0.33518, 57:-0.89673, 56:-0.15098, 55: 1.01071,
                54:-0.21195, 53: 0.05110, 52: 0.51579, 51: 0.65197, 50: 0.66491, 49: 0.94256, 48: 1.12502, 47:-0.85169, 46:-0.25428,
                45: 0.36344, 44: 0.16472, 43: 0.15629, 42:-0.62615, 41: 0.23544, 40: 1.03583, 39:-1.02955, 38:-0.77783, 37:-0.49114,
                36: 0.77502, 35:-0.50267, 34: 1.53161, 33:-0.68046, 32:-0.83672, 31:-0.39782, 30:-0.39623, 29:-0.59978, 28: 0.65270,
                27: 0.53694, 26:-0.91160, 25:-0.02162, 24:-0.35667, 23: 0.87220, 22: 0.37785, 21:-0.05673, 20:-0.87939, 19:-0.19781,
                18: 0.56760, 17: 0.52586, 16: 0.97798, 15: 0.46062, 14:-0.96503, 13: 1.04860, 12: 0.11839, 11:-1.01660, 10:-0.26807,
                 9: 0.75011,  8: 0.37968,  7:-0.40287,  6:-0.03616,  5: 0.55168,  4:-0.51109,  3: 0.28098,  2: 0.97540,  1:-0.96533
    68 |      | 63:-0.96466, 62: 0.46629, 61: 0.56920, 60: 0.93225, 59:-0.74725, 58: 0.78747, 57:-0.48259, 56:-0.14408, 55: 0.18480,
                54:-0.94999, 53:-0.13249, 52:-0.28884, 51: 0.42030, 50:-0.45012, 49: 0.69335, 48:-0.49656, 47:-0.75162, 46:-0.05369,
                45:-0.21317, 44: 0.54663, 43:-0.90613, 42:-0.53587, 41:-1.20458, 40: 0.19014, 39:-0.70027, 38:-0.22526, 37: 0.17176,
                36:-0.29075, 35: 0.72106, 34:-0.94736, 33: 2.02496, 32: 1.08181, 31: 2.18829, 30:-0.68630, 29: 0.12552, 28:-0.38420,
                27: 0.43346, 26: 0.53331, 25: 0.59024, 24: 0.31144, 23:-0.87387, 22: 0.70684, 21:-0.29893, 20:-2.20251, 19: 1.07106,
                18:-0.78488, 17: 0.31071, 16:-0.40230, 15:-0.28050, 14: 0.05893, 13:-0.34301, 12: 2.49805, 11: 2.02061, 10: 0.56600,
                 9:-0.78831,  8: 0.45006,  7: 0.66540,  6:-0.01645,  5:-0.36827,  4: 0.39360,  3: 0.44493,  2:-0.08792,  1:-0.24851
    69 |      | 63:-0.09159, 62:-0.19193, 61:-0.52586, 60: 0.98914, 59: 0.07932, 58:-0.62102, 57: 0.34202, 56: 0.14719, 55: 0.59327,
                54:-0.28040, 53: 0.86342, 52: 0.99736, 51:-1.22553, 50:-0.90973, 49:-0.19388, 48: 0.03416, 47:-0.62090, 46:-0.27979,
                45:-0.14914, 44: 0.72052, 43: 0.20353, 42: 0.42900, 41:-0.79371, 40: 1.83312, 39:-0.87738, 38:-0.26859, 37:-0.06377,
                36: 0.81194, 35: 0.14261, 34:-0.60398, 33:-0.34782, 32:-0.85534, 31:-1.50276, 30: 0.46190, 29: 0.58232, 28:-0.34983,
                27:-2.32966, 26: 0.26651, 25:-1.35938, 24:-0.18723, 23:-0.54921, 22:-0.18412, 21: 0.19669, 20:-0.33729, 19: 0.20751,
                18: 0.33611, 17:-0.82958, 16: 0.90824, 15: 0.55931, 14: 0.48064, 13: 2.28587, 12: 0.18902, 11:-0.41335, 10: 1.32678,
                 9: 0.15590,  8: 0.59685,  7:-0.04239,  6:-0.02811,  5: 0.88421,  4: 0.54680,  3:-0.43345,  2:-0.13352,  1:-0.25657
    70 |      | 63: 0.16410, 62: 0.14231, 61:-0.02029, 60: 0.50981, 59:-0.28251, 58:-0.07382, 57: 0.12778, 56:-0.92956, 55: 0.73738,
                54:-0.15376, 53:-1.13687, 52:-0.23904, 51: 0.02900, 50: 0.72741, 49:-0.04318, 48: 0.23865, 47: 0.30504, 46: 1.00546,
                45: 0.29380, 44:-0.54960, 43:-0.87030, 42:-0.66521, 41:-1.99917, 40:-1.74988, 39: 1.31983, 38:-0.52892, 37: 0.09813,
                36:-0.50688, 35:-0.46843, 34: 1.14642, 33:-1.36639, 32:-0.36527, 31:-1.70439, 30:-0.80774, 29: 0.75878, 28: 0.79101,
                27: 1.01750, 26: 0.41968, 25: 0.41420, 24: 0.99493, 23: 0.40780, 22:-0.66601, 21: 0.54338, 20: 0.45773, 19:-0.89023,
                18: 1.62244, 17:-0.71899, 16: 0.12242, 15: 0.56218, 14:-0.44603, 13:-1.66900, 12: 1.27637, 11: 0.73461, 10:-0.29369,
                 9: 0.17926,  8: 0.91760,  7:-0.81909,  6: 0.80767,  5:-0.32774,  4:-0.14145,  3:-0.08469,  2: 0.02988,  1:-0.56371
    71 |      | 63:-0.36546, 62:-0.02701, 61: 0.57421, 60: 0.02945, 59: 0.56188, 58:-0.75463, 57: 0.42552, 56:-0.02658, 55: 2.57181,
                54: 0.66621, 53: 2.19378, 52: 1.20588, 51: 0.94795, 50: 0.90271, 49:-0.17881, 48:-0.10748, 47:-0.99208, 46: 1.07211,
                45:-0.14603, 44:-1.15637, 43: 0.51695, 42: 0.24808, 41: 2.39941, 40: 1.10712, 39: 1.01645, 38: 0.37272, 37: 0.51012,
                36: 0.16312, 35:-0.34245, 34: 2.00167, 33: 0.09145, 32: 0.98865, 31: 0.97420, 30: 0.05488, 29:-0.35673, 28: 0.07334,
                27: 1.75599, 26:-1.13184, 25:-0.50664, 24:-0.29441, 23:-0.62287, 22:-0.11002, 21: 0.85443, 20:-0.64496, 19:-0.75057,
                18: 0.82714, 17:-0.18192, 16: 0.15467, 15: 0.30998, 14:-0.46702, 13:-0.65817, 12:-0.14669, 11:-0.48354, 10:-0.51442,
                 9: 0.24878,  8: 0.51006,  7:-0.95776,  6: 0.36985,  5: 0.35929,  4:-0.76080,  3: 0.76086,  2: 0.59380,  1: 0.25590
    72 |      | 63:-0.84826, 62: 0.80401, 61: 0.74584, 60:-0.91675, 59: 0.00699, 58:-0.84692, 57:-0.21397, 56:-0.79626, 55:-1.40876,
                54:-2.22325, 53:-1.00871, 52:-2.18474, 51: 0.42738, 50:-0.94244, 49:-0.92511, 48:-0.63356, 47: 0.51766, 46: 0.23579,
                45: 0.26963, 44: 0.60522, 43: 0.00980, 42: 0.23515, 41: 0.62417, 40: 0.02107, 39:-0.67887, 38: 0.81524, 37: 0.54968,
                36: 0.23191, 35: 0.29002, 34: 0.40627, 33: 1.55761, 32:-0.36618, 31: 1.89155, 30: 0.78408, 29:-0.77593, 28:-0.46764,
                27: 1.01926, 26: 0.19588, 25: 0.48805, 24: 0.79254, 23:-0.03131, 22:-0.88720, 21: 0.24308, 20: 0.35986, 19:-0.79624,
                18:-0.12809, 17: 0.95752, 16: 0.84382, 15:-0.61516, 14:-0.32853, 13: 0.79970, 12:-1.11075, 11:-0.89650, 10:-0.71883,
                 9:-0.08311,  8:-0.52818,  7:-0.75127,  6:-0.46269,  5: 0.30857,  4: 0.59880,  3: 0.37260,  2: 0.74957,  1: 0.62804
    73 |      | 63: 0.54778, 62:-0.86084, 61: 0.98291, 60: 0.20634, 59: 0.44737, 58: 0.46568, 57:-0.23997, 56: 0.10904, 55: 1.01335,
                54:-1.84401, 53:-1.00101, 52:-0.63678, 51: 0.76902, 50:-0.36662, 49: 0.39390, 48: 0.56176, 47: 0.79620, 46: 0.22419,
                45: 0.27903, 44: 0.34291, 43: 0.25285, 42:-0.63762, 41:-0.74604, 40:-0.14803, 39: 0.42707, 38: 0.17740, 37:-1.06145,
                36: 0.10978, 35: 0.19846, 34: 0.97954, 33: 0.16409, 32: 0.17472, 31: 0.53199, 30:-0.94087, 29: 0.48949, 28: 0.20328,
                27: 0.74395, 26: 1.41002, 25:-0.58086, 24: 0.10318, 23:-0.48903, 22:-0.36863, 21: 0.82275, 20:-0.34659, 19: 1.49122,
                18:-0.31358, 17:-0.12510, 16:-0.36336, 15: 0.36882, 14: 0.22336, 13:-0.55345, 12:-0.15314, 11: 0.68729, 10:-0.14005,
                 9:-1.18883,  8: 0.90063,  7: 0.50737,  6: 0.18906,  5:-0.11673,  4: 0.84747,  3: 0.02011,  2: 0.68865,  1:-0.02158
    74 |      | 73: 2.02661, 72: 0.84383, 71: 0.86967, 70: 0.79416, 69:-2.78769, 68: 1.95868, 67: 0.18228, 66:-3.43731, 65:-2.72562,
                64:-1.82329
    75 |      | 73:-1.53117, 72:-0.01163, 71: 0.65997, 70:-2.71798, 69:-3.01259, 68: 1.68888, 67:-1.73129, 66: 0.78364, 65:-2.12928,
                64: 3.15774
    76 |      | 73:-1.10567, 72:-2.38790, 71:-4.44029, 70: 1.89181, 69: 1.34196, 68:-2.37643, 67:-1.61733, 66: 1.70595, 65:-1.63090,
                64:-0.26690
    77 |      | 73:-1.10562, 72:-2.75533, 71: 1.71773, 70: 1.00788, 69:-1.87657, 68:-3.51028, 67: 1.57618, 66:-1.04618, 65:-3.62587,
                64: 0.41599
    78 |      | 73:-1.52973, 72:-2.82061, 71: 2.58701, 70:-2.08652, 69: 1.49334, 68: 1.05109, 67: 0.32453, 66: 1.16346, 65:-0.86484,
                64:-4.11884
    79 |      | 73:-0.68125, 72: 2.73995, 71:-3.95699, 70:-0.84834, 69:-0.03732, 68: 1.26084, 67:-0.55867, 66: 1.52942, 65:-2.13176,
                64:-2.22576
    80 |      | 73:-1.90874, 72:-1.33043, 71: 0.41276, 70:-3.27442, 69: 1.85176, 68:-2.95088, 67: 0.27616, 66:-0.22333, 65: 2.42604,
                64: 1.87095
    81 |      | 73: 0.39506, 72: 3.15325, 71:-0.25969, 70:-1.00041, 69:-2.16969, 68:-4.44193, 67: 1.02311, 66: 0.79718, 65: 0.28113,
                64:-1.87173
    82 |      | 73:-0.27041, 72:-1.44981, 71: 0.39706, 70: 3.16198, 69:-1.33697, 68:-0.95403, 67:-1.63337, 66:-3.43837, 65: 2.53716,
                64: 0.84895
    83 |      | 73: 2.09475, 72:-1.33613, 71:-2.63996, 70:-0.91213, 69: 1.55786, 68: 0.38932, 67:-0.21991, 66:-2.75416, 65: 1.45025,
                64:-1.81140
-------|------|---------------------------------------------------------------------------------------------------------------------


layer definition section :

layer | unitNo.
------|----------------------------------------------------------------------------------------------------------------------------
    2 | 64, 65, 66, 67, 68, 69, 70, 71, 72, 73
    3 | 74, 75, 76, 77, 78, 79, 80, 81, 82, 83
------|----------------------------------------------------------------------------------------------------------------------------
