SNNS network definition file V1.4-3D
generated at Fri Nov 11 16:53:42 2016

network name : 63_10_10 v2
source files :
no. of units : 83
no. of connections : 730
no. of unit types : 0
no. of site types : 0


learning function : BackpropMomentum
update function   : Topological_Order


unit default section :

act      | bias     | st | subnet | layer | act func     | out func
---------|----------|----|--------|-------|--------------|-------------
 0.00000 |  0.00000 | h  |      0 |     1 | Act_Logistic | Out_Identity 
---------|----------|----|--------|-------|--------------|-------------


unit definition section :

no. | typeName | unitName | act      | bias     | st | position | act func | out func | sites
----|----------|----------|----------|----------|----|----------|----------|----------|-------
  1 |          | noName   |  0.00000 |  0.71477 | i  |  1, 1, 1 |||
  2 |          | noName   |  0.00000 | -0.78137 | i  |  2, 1, 1 |||
  3 |          | noName   |  0.00000 | -0.45878 | i  |  3, 1, 1 |||
  4 |          | noName   |  0.00000 | -0.47343 | i  |  4, 1, 1 |||
  5 |          | noName   |  0.00000 |  0.34312 | i  |  5, 1, 1 |||
  6 |          | noName   |  0.00000 | -0.31968 | i  |  6, 1, 1 |||
  7 |          | noName   |  0.00000 |  0.99506 | i  |  7, 1, 1 |||
  8 |          | noName   |  0.00000 |  0.01254 | i  |  1, 2, 1 |||
  9 |          | noName   |  0.00000 |  0.25370 | i  |  2, 2, 1 |||
 10 |          | noName   |  0.80000 |  0.11313 | i  |  3, 2, 1 |||
 11 |          | noName   |  0.70000 |  0.39470 | i  |  4, 2, 1 |||
 12 |          | noName   |  0.80000 |  0.14499 | i  |  5, 2, 1 |||
 13 |          | noName   |  0.70000 | -0.41539 | i  |  6, 2, 1 |||
 14 |          | noName   |  0.00000 |  0.76739 | i  |  7, 2, 1 |||
 15 |          | noName   |  0.00000 |  0.99451 | i  |  1, 3, 1 |||
 16 |          | noName   |  0.00000 | -0.85333 | i  |  2, 3, 1 |||
 17 |          | noName   |  1.00000 |  0.71160 | i  |  3, 3, 1 |||
 18 |          | noName   |  0.00000 | -0.61547 | i  |  4, 3, 1 |||
 19 |          | noName   |  0.80000 | -0.03494 | i  |  5, 3, 1 |||
 20 |          | noName   |  0.00000 | -0.68108 | i  |  6, 3, 1 |||
 21 |          | noName   |  0.00000 |  0.29051 | i  |  7, 3, 1 |||
 22 |          | noName   |  0.00000 |  0.31809 | i  |  1, 4, 1 |||
 23 |          | noName   |  0.00000 |  0.28275 | i  |  2, 4, 1 |||
 24 |          | noName   |  0.00000 |  0.62450 | i  |  3, 4, 1 |||
 25 |          | noName   |  0.00000 |  0.75811 | i  |  4, 4, 1 |||
 26 |          | noName   |  0.00000 |  0.28214 | i  |  5, 4, 1 |||
 27 |          | noName   |  0.00000 |  0.73150 | i  |  6, 4, 1 |||
 28 |          | noName   |  0.00000 |  0.93127 | i  |  7, 4, 1 |||
 29 |          | noName   |  0.00000 |  0.85156 | i  |  1, 5, 1 |||
 30 |          | noName   |  0.00000 | -0.95740 | i  |  2, 5, 1 |||
 31 |          | noName   |  0.00000 | -0.91913 | i  |  3, 5, 1 |||
 32 |          | noName   |  0.00000 |  0.72814 | i  |  4, 5, 1 |||
 33 |          | noName   |  0.80000 |  0.71044 | i  |  5, 5, 1 |||
 34 |          | noName   |  0.00000 |  0.36186 | i  |  6, 5, 1 |||
 35 |          | noName   |  0.00000 |  0.50261 | i  |  7, 5, 1 |||
 36 |          | noName   |  0.00000 |  0.12656 | i  |  1, 6, 1 |||
 37 |          | noName   |  0.00000 |  0.12284 | i  |  2, 6, 1 |||
 38 |          | noName   |  0.00000 | -0.49101 | i  |  3, 6, 1 |||
 39 |          | noName   |  0.00000 |  0.28703 | i  |  4, 6, 1 |||
 40 |          | noName   |  0.70000 |  0.95892 | i  |  5, 6, 1 |||
 41 |          | noName   |  0.00000 | -0.52110 | i  |  6, 6, 1 |||
 42 |          | noName   |  0.00000 |  0.65062 | i  |  7, 6, 1 |||
 43 |          | noName   |  0.00000 |  0.92401 | i  |  1, 7, 1 |||
 44 |          | noName   |  0.80000 | -0.21195 | i  |  2, 7, 1 |||
 45 |          | noName   |  0.00000 | -0.00632 | i  |  3, 7, 1 |||
 46 |          | noName   |  0.00000 |  0.43162 | i  |  4, 7, 1 |||
 47 |          | noName   |  0.70000 |  0.60881 | i  |  5, 7, 1 |||
 48 |          | noName   |  0.00000 |  0.63866 | i  |  6, 7, 1 |||
 49 |          | noName   |  0.00000 |  0.76214 | i  |  7, 7, 1 |||
 50 |          | noName   |  0.00000 | -0.93957 | i  |  1, 8, 1 |||
 51 |          | noName   |  0.00000 | -0.76360 | i  |  2, 8, 1 |||
 52 |          | noName   |  0.80000 | -0.73589 | i  |  3, 8, 1 |||
 53 |          | noName   |  0.70000 | -0.79168 | i  |  4, 8, 1 |||
 54 |          | noName   |  0.00000 | -0.78918 | i  |  5, 8, 1 |||
 55 |          | noName   |  0.00000 |  0.94684 | i  |  6, 8, 1 |||
 56 |          | noName   |  0.00000 | -0.23875 | i  |  7, 8, 1 |||
 57 |          | noName   |  0.00000 |  0.49236 | i  |  1, 9, 1 |||
 58 |          | noName   |  0.00000 |  0.05234 | i  |  2, 9, 1 |||
 59 |          | noName   |  0.00000 | -0.71673 | i  |  3, 9, 1 |||
 60 |          | noName   |  0.00000 | -0.65539 | i  |  4, 9, 1 |||
 61 |          | noName   |  0.00000 |  0.43590 | i  |  5, 9, 1 |||
 62 |          | noName   |  0.00000 |  0.72204 | i  |  6, 9, 1 |||
 63 |          | noName   |  0.00000 |  0.02689 | i  |  7, 9, 1 |||
 64 |          | noName   |  0.17419 | -0.36098 | h  | 11, 1, 1 |||
 65 |          | noName   |  0.98890 | -0.07090 | h  | 11, 2, 1 |||
 66 |          | noName   |  0.06834 | -0.02616 | h  | 11, 3, 1 |||
 67 |          | noName   |  0.88108 |  0.26166 | h  | 11, 4, 1 |||
 68 |          | noName   |  0.12208 | -0.95948 | h  | 11, 5, 1 |||
 69 |          | noName   |  0.93105 |  2.02657 | h  | 11, 6, 1 |||
 70 |          | noName   |  0.89634 |  1.67800 | h  | 11, 7, 1 |||
 71 |          | noName   |  0.71461 |  0.98234 | h  | 11, 8, 1 |||
 72 |          | noName   |  0.88291 | -0.47426 | h  | 11, 9, 1 |||
 73 |          | noName   |  0.04833 |  0.89347 | h  | 11,10, 1 |||
 74 |          | noName   |  0.00438 | -0.11999 | o  | 15, 1, 1 |||
 75 |          | noName   |  0.00005 | -0.43019 | o  | 15, 2, 1 |||
 76 |          | noName   |  0.01450 | -2.11845 | o  | 15, 3, 1 |||
 77 |          | noName   |  0.00154 | -1.49136 | o  | 15, 4, 1 |||
 78 |          | noName   |  0.01609 | -0.40849 | o  | 15, 5, 1 |||
 79 |          | noName   |  0.02408 | -1.39489 | o  | 15, 6, 1 |||
 80 |          | noName   |  0.03185 | -0.19784 | o  | 15, 7, 1 |||
 81 |          | noName   |  0.01786 | -1.10769 | o  | 15, 8, 1 |||
 82 |          | noName   |  0.02311 | -0.71960 | o  | 15, 9, 1 |||
 83 |          | noName   |  0.92046 | -0.55405 | o  | 15,10, 1 |||
----|----------|----------|----------|----------|----|----------|----------|----------|-------


connection definition section :

target | site | source:weight
-------|------|---------------------------------------------------------------------------------------------------------------------
    64 |      |  1:-0.46928,  2: 0.55052,  3:-0.23130,  4:-0.51213,  5: 0.59105,  6: 0.35423,  7:-0.71679,  8: 0.53075,  9:-0.15201,
                10:-0.18841, 11:-0.52698, 12:-1.17538, 13: 0.58671, 14:-0.70049, 15: 0.99109, 16: 0.95728, 17: 0.54381, 18:-1.30581,
                19:-0.66872, 20: 0.54797, 21:-0.75933, 22: 0.09214, 23:-0.25289, 24: 0.77074, 25: 0.14525, 26: 0.31744, 27: 0.24728,
                28:-0.34397, 29:-0.82604, 30: 0.95950, 31: 2.15741, 32: 0.27484, 33: 1.42756, 34:-0.56036, 35:-0.26536, 36: 0.92553,
                37: 1.04133, 38:-0.94958, 39:-0.62087, 40:-0.66787, 41: 0.09353, 42: 0.07248, 43: 0.64104, 44: 0.33736, 45:-0.67656,
                46:-0.16608, 47:-0.46617, 48:-0.80149, 49:-0.77105, 50:-0.87677, 51: 0.20726, 52:-0.19316, 53:-0.88347, 54:-0.01368,
                55: 0.18750, 56:-0.80547, 57:-0.91327, 58: 0.39848, 59:-0.58086, 60: 0.72729, 61: 0.98029, 62: 0.82482, 63:-0.92669
    65 |      |  1: 0.52239,  2:-0.56639,  3:-0.89209,  4: 0.81695,  5: 0.62609,  6:-0.00534,  7:-0.31260,  8:-0.34568,  9:-0.33917,
                10: 1.26594, 11: 0.06994, 12: 0.28223, 13: 1.87525, 14: 0.10929, 15:-0.32957, 16:-0.39667, 17:-0.19742, 18: 0.28317,
                19:-0.26181, 20:-1.27406, 21:-0.69286, 22:-0.15458, 23:-1.21238, 24: 0.63665, 25:-0.28314, 26:-0.39100, 27:-2.77521,
                28: 0.48259, 29: 0.58190, 30: 0.54465, 31:-0.07456, 32: 0.71571, 33: 0.74927, 34:-1.39442, 35: 0.90857, 36: 0.60210,
                37:-0.15474, 38:-0.85369, 39:-0.70825, 40: 2.20179, 41: 0.13123, 42: 0.71807, 43: 0.95276, 44: 0.47941, 45: 0.78661,
                46: 0.89291, 47:-0.59330, 48:-0.96868, 49:-0.93811, 50: 0.16605, 51:-1.27870, 52:-0.16571, 53: 0.55806, 54: 1.04750,
                55:-0.24465, 56: 0.76348, 57:-0.58507, 58:-0.87854, 59:-0.31034, 60:-0.09116, 61:-0.48161, 62: 0.77459, 63:-0.90545
    66 |      |  1:-0.43150,  2: 0.23130,  3: 0.46910,  4: 0.78338,  5: 0.63976,  6: 0.02744,  7:-0.06992,  8: 0.21531,  9: 0.92200,
                10:-0.20274, 11:-0.30966, 12: 0.44940, 13:-0.27617, 14:-0.25260, 15:-0.61968, 16: 0.97040, 17:-0.38316, 18: 0.62033,
                19:-0.97589, 20:-0.09424, 21:-0.06870, 22:-0.74627, 23: 0.18631, 24:-0.69591, 25: 0.47018, 26:-0.14160, 27: 0.03879,
                28:-0.94470, 29: 0.14176, 30:-0.26443, 31: 0.72862, 32: 1.32019, 33:-0.51827, 34:-2.48116, 35:-0.56554, 36: 0.92572,
                37:-0.17055, 38:-0.27757, 39: 0.09383, 40:-1.63535, 41:-1.35080, 42: 0.57555, 43:-0.10575, 44: 0.31694, 45: 0.69951,
                46: 0.87745, 47:-1.21163, 48:-0.31116, 49:-0.11020, 50:-0.69793, 51:-0.42360, 52: 0.68463, 53: 0.56647, 54: 0.08218,
                55:-2.62099, 56: 0.05008, 57: 0.73077, 58: 0.45982, 59:-0.61992, 60:-0.96612, 61:-0.38340, 62:-0.12803, 63: 0.18827
    67 |      |  1:-0.45195,  2: 0.30686,  3:-0.23771,  4:-0.34336,  5:-0.17661,  6: 0.87841,  7: 0.73406,  8: 0.04569,  9: 0.24879,
                10: 0.59441, 11:-0.50402, 12: 0.07077, 13: 1.83121, 14:-0.23527, 15:-0.53172, 16: 1.01504, 17: 0.11557, 18:-1.16478,
                19: 0.14022, 20:-0.21228, 21:-0.44548, 22: 0.99298, 23:-0.28068, 24: 0.85534, 25:-0.19304, 26: 1.00178, 27:-1.65159,
                28: 0.01889, 29:-0.08005, 30: 0.67701, 31:-1.19605, 32: 0.38322, 33:-0.40677, 34: 1.59718, 35:-0.27744, 36: 0.66607,
                37: 0.43174, 38:-0.29539, 39:-1.41174, 40: 0.66158, 41:-0.28750, 42: 0.63323, 43: 0.50078, 44: 1.07236, 45: 0.37858,
                46:-0.54726, 47: 1.05362, 48:-0.34740, 49: 0.34153, 50: 0.64476, 51: 0.02824, 52:-1.34411, 53:-0.86538, 54:-0.17349,
                55: 0.98660, 56:-0.36363, 57:-0.71197, 58:-0.34831, 59: 0.77563, 60:-0.75298, 61:-0.15860, 62: 0.41795, 63:-0.54796
    68 |      |  1: 0.34001,  2: 0.02353,  3:-0.10221,  4: 0.70635,  5: 0.36851,  6:-0.02676,  7:-0.17814,  8:-0.02243,  9:-0.40056,
                10: 0.52913, 11: 0.92895, 12: 0.91223, 13:-2.07134, 14: 0.71203, 15: 0.28208, 16:-0.50455, 17: 0.42753, 18: 0.33107,
                19:-0.49438, 20:-0.25042, 21:-0.38170, 22: 0.73876, 23: 0.51220, 24: 0.37223, 25: 0.68306, 26:-0.36683, 27: 1.02362,
                28:-0.98236, 29: 0.98297, 30:-0.18370, 31:-0.51221, 32: 0.75191, 33:-1.52854, 34: 1.41008, 35:-0.81707, 36:-0.40751,
                37:-0.96179, 38:-0.98144, 39:-0.31548, 40:-1.96234, 41:-1.31682, 42: 0.87945, 43: 0.80749, 44:-0.15117, 45: 0.14029,
                46:-0.07276, 47:-0.39705, 48: 0.04354, 49: 0.04599, 50:-0.69280, 51: 0.78762, 52: 1.42909, 53: 0.64747, 54: 0.84883,
                55: 0.06208, 56:-0.89563, 57: 0.34086, 58: 0.93536, 59:-0.83880, 60: 0.69268, 61:-0.24088, 62:-0.28684, 63: 0.98364
    69 |      |  1: 0.82311,  2: 0.74462,  3: 0.78570,  4: 0.20194,  5:-0.53368,  6:-0.26225,  7:-0.08371,  8:-0.15708,  9: 1.63164,
                10:-0.50760, 11:-1.52797, 12:-0.83185, 13: 2.26645, 14: 0.13999, 15:-0.83068, 16:-0.88006, 17: 0.68175, 18: 0.71935,
                19: 1.53293, 20:-1.04808, 21: 0.56401, 22:-0.83312, 23: 0.28244, 24:-0.06314, 25: 1.31771, 26: 1.31724, 27: 1.70410,
                28: 0.69634, 29:-0.60302, 30: 0.02845, 31:-1.70567, 32:-0.62648, 33:-0.81199, 34: 1.37553, 35: 0.22587, 36: 0.47465,
                37:-0.00051, 38: 0.59020, 39: 0.73572, 40: 0.52171, 41: 0.50941, 42: 0.30235, 43:-0.15055, 44:-0.24346, 45:-0.69903,
                46: 0.81265, 47: 1.45446, 48: 0.35091, 49:-0.36784, 50:-0.59722, 51: 0.61691, 52:-1.09757, 53:-0.62582, 54:-0.39940,
                55:-2.38921, 56:-0.96387, 57: 0.14292, 58:-0.45091, 59: 0.82226, 60: 0.51543, 61:-0.06381, 62: 0.05850, 63:-0.11936
    70 |      |  1: 0.87640,  2: 0.83337,  3:-0.66393,  4:-0.58696,  5:-0.69158,  6:-0.40226,  7: 0.73986,  8: 0.47380,  9:-2.57408,
                10: 0.35353, 11: 0.60042, 12: 1.52881, 13:-0.50817, 14: 0.59954, 15: 0.47765, 16:-0.30958, 17: 0.00705, 18: 0.08331,
                19: 1.57457, 20: 1.11504, 21:-0.16703, 22:-0.04672, 23: 0.55865, 24: 0.63134, 25:-0.09099, 26: 1.28043, 27:-0.34767,
                28: 0.69933, 29: 0.22868, 30:-0.89923, 31:-0.30868, 32:-0.43391, 33: 0.10881, 34:-0.65445, 35: 0.26139, 36:-0.91797,
                37: 0.44048, 38: 0.34507, 39:-0.71176, 40:-1.76446, 41:-2.99143, 42: 0.89038, 43:-0.33811, 44: 0.64416, 45: 0.17710,
                46: 0.53329, 47: 0.51116, 48:-0.02076, 49: 0.72887, 50: 0.04483, 51:-0.45926, 52:-1.03213, 53:-1.79615, 54:-1.06150,
                55:-0.20798, 56:-0.98627, 57:-0.05173, 58:-0.26878, 59:-0.95630, 60: 0.85980, 61:-0.06101, 62: 0.75463, 63: 0.24076
    71 |      |  1:-0.62133,  2:-0.34690,  3:-0.54082,  4: 0.60918,  5:-0.91388,  6:-0.02097,  7:-0.98474,  8:-0.29783,  9: 0.62720,
                10:-0.33821, 11:-0.40709, 12:-1.08128, 13:-0.20598, 14:-0.35875, 15:-0.44530, 16: 0.12735, 17: 0.53246, 18:-0.67778,
                19:-0.18842, 20: 0.89685, 21:-0.13334, 22:-0.22642, 23:-0.43061, 24: 0.53758, 25:-0.60455, 26: 1.12603, 27: 1.23072,
                28:-0.32884, 29:-0.45573, 30: 0.59022, 31:-1.18082, 32:-1.91876, 33:-0.65854, 34: 1.43265, 35:-0.30039, 36: 0.18424,
                37:-0.45605, 38:-0.79089, 39: 0.00279, 40: 1.68710, 41: 0.45074, 42:-0.36827, 43:-0.72008, 44:-0.66906, 45: 0.08499,
                46: 0.40163, 47:-0.21966, 48: 1.53861, 49:-0.03488, 50:-0.65355, 51:-0.88958, 52: 0.13988, 53: 1.48790, 54:-0.20812,
                55: 0.80870, 56:-0.38084, 57: 0.01083, 58: 0.72002, 59: 0.11087, 60: 0.87036, 61: 0.33403, 62: 0.10239, 63:-0.83843
    72 |      |  1: 0.20902,  2:-0.43297,  3: 0.06522,  4:-0.94024,  5: 0.99091,  6: 0.30735,  7: 0.46532,  8: 0.36015,  9: 0.72646,
                10: 1.07976, 11: 0.27535, 12: 0.57824, 13: 0.19702, 14:-0.18387, 15: 0.74822, 16:-0.47544, 17:-0.61327, 18: 1.27064,
                19: 0.62741, 20: 0.15889, 21: 0.10654, 22: 0.30363, 23:-1.20109, 24: 0.73766, 25: 0.62222, 26: 0.99850, 27: 0.45000,
                28:-0.74352, 29: 0.41026, 30:-1.55947, 31: 0.97267, 32: 1.50087, 33: 0.88634, 34: 0.34754, 35:-0.04910, 36:-0.44926,
                37:-1.06200, 38:-0.89190, 39: 1.17933, 40:-0.90571, 41:-0.52777, 42: 0.51469, 43: 0.73882, 44:-0.35774, 45:-0.65886,
                46:-0.43291, 47: 0.39507, 48:-0.21589, 49: 0.96973, 50: 0.42112, 51: 0.36441, 52: 1.03891, 53: 0.07470, 54:-0.54296,
                55: 1.69291, 56: 0.43443, 57:-0.41563, 58: 0.75378, 59:-0.69121, 60: 0.69158, 61: 0.68761, 62:-0.59746, 63: 0.74090
    73 |      |  1: 0.24613,  2:-0.06143,  3:-0.93579,  4:-0.96551,  5: 0.21409,  6:-0.99158,  7:-0.18760,  8: 0.27976,  9:-0.01737,
                10:-0.01661, 11: 0.81207, 12: 0.53109, 13:-0.74641, 14: 0.67492, 15:-0.59423, 16: 0.67658, 17: 0.69890, 18: 1.03158,
                19: 0.33979, 20:-0.32007, 21: 0.99396, 22: 0.21915, 23: 0.54728, 24:-0.68645, 25: 0.90252, 26:-1.24840, 27: 0.18384,
                28: 0.09977, 29: 0.89306, 30: 0.16394, 31: 0.79291, 32: 0.41027, 33: 0.04260, 34: 1.23965, 35:-0.57482, 36:-0.04898,
                37:-0.84048, 38: 0.96783, 39: 1.57247, 40:-1.21695, 41:-0.27453, 42: 0.52757, 43:-0.92645, 44:-1.14610, 45:-0.73809,
                46: 1.57809, 47:-0.64728, 48: 0.02129, 49: 0.37156, 50:-0.61797, 51: 0.85339, 52:-1.82744, 53:-2.36025, 54:-2.04577,
                55:-0.95660, 56: 0.04154, 57: 0.92297, 58:-0.92938, 59: 0.92279, 60:-0.53209, 61:-0.43388, 62: 0.95599, 63: 0.07620
    74 |      | 64:-0.21033, 65:-2.49208, 66:-3.12236, 67:-0.24772, 68: 0.36298, 69:-3.22167, 70: 1.65224, 71:-1.61596, 72: 0.12153,
                73: 3.08611
    75 |      | 64: 2.12462, 65:-2.40600, 66: 2.55354, 67:-3.74043, 68: 0.10037, 69:-2.14821, 70:-2.45019, 71:-0.52571, 72: 0.36632,
                73:-0.69496
    76 |      | 64:-0.83578, 65:-0.99875, 66: 1.48442, 67:-0.60455, 68: 1.30476, 69:-2.83628, 70: 4.20746, 71: 0.39910, 72:-2.28959,
                73:-1.85072
    77 |      | 64:-2.07261, 65:-3.32770, 66:-1.20099, 67:-1.15571, 68: 3.43933, 69: 1.25223, 70:-2.04941, 71: 2.09440, 72:-1.63583,
                73:-0.60516
    78 |      | 64: 0.79985, 65: 1.79048, 66:-0.30068, 67: 0.96130, 68:-1.37796, 69:-3.13207, 70:-2.26440, 71:-3.57845, 72: 1.55558,
                73:-2.97289
    79 |      | 64:-0.29198, 65: 0.72808, 66: 1.01731, 67: 0.75375, 68:-3.51484, 69: 1.10856, 70: 0.37147, 71:-4.69217, 72:-1.59788,
                73: 2.44088
    80 |      | 64:-0.52028, 65: 2.14084, 66:-1.35291, 67: 0.11929, 68:-1.49235, 69:-1.87897, 70:-2.28615, 71: 2.49096, 72:-3.31936,
                73:-2.56851
    81 |      | 64: 0.46287, 65:-2.87775, 66:-1.93921, 67: 0.40843, 68:-3.31948, 69: 3.14898, 70:-2.04302, 71:-0.13523, 72:-1.16352,
                73: 1.38547
    82 |      | 64:-3.90200, 65: 0.10786, 66: 1.25790, 67:-3.26289, 68: 0.19566, 69: 0.02114, 70: 0.48162, 71:-1.82911, 72: 1.22651,
                73: 1.78497
    83 |      | 64:-2.37051, 65: 0.23485, 66:-2.21738, 67:-0.26712, 68:-2.76127, 69: 1.47296, 70: 2.27626, 71:-0.67698, 72: 1.25131,
                73:-2.59321
-------|------|---------------------------------------------------------------------------------------------------------------------


layer definition section :

layer | unitNo.
------|----------------------------------------------------------------------------------------------------------------------------
    2 | 64, 65, 66, 67, 68, 69, 70, 71, 72, 73
    3 | 74, 75, 76, 77, 78, 79, 80, 81, 82, 83
------|----------------------------------------------------------------------------------------------------------------------------
