SNNS network definition file V1.4-3D
generated at Fri Nov 11 17:02:32 2016

network name : 63_10_10 v4
source files :
no. of units : 83
no. of connections : 730
no. of unit types : 0
no. of site types : 0


learning function : BackpropMomentum
update function   : Topological_Order


unit default section :

act      | bias     | st | subnet | layer | act func     | out func
---------|----------|----|--------|-------|--------------|-------------
 0.00000 |  0.00000 | h  |      0 |     1 | Act_Logistic | Out_Identity 
---------|----------|----|--------|-------|--------------|-------------


unit definition section :

no. | typeName | unitName | act      | bias     | st | position | act func | out func | sites
----|----------|----------|----------|----------|----|----------|----------|----------|-------
  1 |          | noName   |  0.00000 | -0.06900 | i  |  1, 1, 1 |||
  2 |          | noName   |  0.00000 | -0.01627 | i  |  2, 1, 1 |||
  3 |          | noName   |  0.00000 | -0.69622 | i  |  3, 1, 1 |||
  4 |          | noName   |  0.00000 |  0.16947 | i  |  4, 1, 1 |||
  5 |          | noName   |  0.00000 |  0.31260 | i  |  5, 1, 1 |||
  6 |          | noName   |  0.00000 | -0.99066 | i  |  6, 1, 1 |||
  7 |          | noName   |  0.00000 |  0.50096 | i  |  7, 1, 1 |||
  8 |          | noName   |  0.00000 | -0.59948 | i  |  1, 2, 1 |||
  9 |          | noName   |  0.00000 | -0.78173 | i  |  2, 2, 1 |||
 10 |          | noName   |  0.80000 | -0.70373 | i  |  3, 2, 1 |||
 11 |          | noName   |  0.70000 |  0.22514 | i  |  4, 2, 1 |||
 12 |          | noName   |  0.80000 | -0.32041 | i  |  5, 2, 1 |||
 13 |          | noName   |  0.70000 |  0.40483 | i  |  6, 2, 1 |||
 14 |          | noName   |  0.00000 |  0.52898 | i  |  7, 2, 1 |||
 15 |          | noName   |  0.00000 | -0.43889 | i  |  1, 3, 1 |||
 16 |          | noName   |  0.00000 |  0.33946 | i  |  2, 3, 1 |||
 17 |          | noName   |  1.00000 | -0.88696 | i  |  3, 3, 1 |||
 18 |          | noName   |  0.00000 |  0.26634 | i  |  4, 3, 1 |||
 19 |          | noName   |  0.80000 |  0.98498 | i  |  5, 3, 1 |||
 20 |          | noName   |  0.00000 | -0.50798 | i  |  6, 3, 1 |||
 21 |          | noName   |  0.00000 | -0.61278 | i  |  7, 3, 1 |||
 22 |          | noName   |  0.00000 |  0.23655 | i  |  1, 4, 1 |||
 23 |          | noName   |  0.00000 |  0.73138 | i  |  2, 4, 1 |||
 24 |          | noName   |  0.00000 | -0.82391 | i  |  3, 4, 1 |||
 25 |          | noName   |  0.00000 | -0.11869 | i  |  4, 4, 1 |||
 26 |          | noName   |  0.00000 | -0.83410 | i  |  5, 4, 1 |||
 27 |          | noName   |  0.00000 | -0.44414 | i  |  6, 4, 1 |||
 28 |          | noName   |  0.00000 | -0.67846 | i  |  7, 4, 1 |||
 29 |          | noName   |  0.00000 | -0.78307 | i  |  1, 5, 1 |||
 30 |          | noName   |  0.00000 |  0.95624 | i  |  2, 5, 1 |||
 31 |          | noName   |  0.00000 | -0.54637 | i  |  3, 5, 1 |||
 32 |          | noName   |  0.00000 | -0.15775 | i  |  4, 5, 1 |||
 33 |          | noName   |  0.80000 |  0.95441 | i  |  5, 5, 1 |||
 34 |          | noName   |  0.00000 |  0.02145 | i  |  6, 5, 1 |||
 35 |          | noName   |  0.00000 |  0.89813 | i  |  7, 5, 1 |||
 36 |          | noName   |  0.00000 | -0.82958 | i  |  1, 6, 1 |||
 37 |          | noName   |  0.00000 | -0.76098 | i  |  2, 6, 1 |||
 38 |          | noName   |  0.00000 |  0.59807 | i  |  3, 6, 1 |||
 39 |          | noName   |  0.00000 |  0.16147 | i  |  4, 6, 1 |||
 40 |          | noName   |  0.70000 |  0.54521 | i  |  5, 6, 1 |||
 41 |          | noName   |  0.00000 | -0.81329 | i  |  6, 6, 1 |||
 42 |          | noName   |  0.00000 | -0.16025 | i  |  7, 6, 1 |||
 43 |          | noName   |  0.00000 | -0.72027 | i  |  1, 7, 1 |||
 44 |          | noName   |  0.80000 |  0.36717 | i  |  2, 7, 1 |||
 45 |          | noName   |  0.00000 | -0.93072 | i  |  3, 7, 1 |||
 46 |          | noName   |  0.00000 | -0.48991 | i  |  4, 7, 1 |||
 47 |          | noName   |  0.70000 |  0.22501 | i  |  5, 7, 1 |||
 48 |          | noName   |  0.00000 | -0.06790 | i  |  6, 7, 1 |||
 49 |          | noName   |  0.00000 |  0.36369 | i  |  7, 7, 1 |||
 50 |          | noName   |  0.00000 |  0.08524 | i  |  1, 8, 1 |||
 51 |          | noName   |  0.00000 | -0.15299 | i  |  2, 8, 1 |||
 52 |          | noName   |  0.80000 |  0.85589 | i  |  3, 8, 1 |||
 53 |          | noName   |  0.70000 |  0.72704 | i  |  4, 8, 1 |||
 54 |          | noName   |  0.00000 |  0.07950 | i  |  5, 8, 1 |||
 55 |          | noName   |  0.00000 | -0.85333 | i  |  6, 8, 1 |||
 56 |          | noName   |  0.00000 | -0.49632 | i  |  7, 8, 1 |||
 57 |          | noName   |  0.00000 | -0.04062 | i  |  1, 9, 1 |||
 58 |          | noName   |  0.00000 |  0.40599 | i  |  2, 9, 1 |||
 59 |          | noName   |  0.00000 | -0.55535 | i  |  3, 9, 1 |||
 60 |          | noName   |  0.00000 |  0.73516 | i  |  4, 9, 1 |||
 61 |          | noName   |  0.00000 |  0.01798 | i  |  5, 9, 1 |||
 62 |          | noName   |  0.00000 |  0.58452 | i  |  6, 9, 1 |||
 63 |          | noName   |  0.00000 | -0.99384 | i  |  7, 9, 1 |||
 64 |          | noName   |  0.99693 |  0.34066 | h  | 11, 1, 1 |||
 65 |          | noName   |  0.95375 | -0.32505 | h  | 11, 2, 1 |||
 66 |          | noName   |  0.02936 |  0.55916 | h  | 11, 3, 1 |||
 67 |          | noName   |  0.84184 | -0.32819 | h  | 11, 4, 1 |||
 68 |          | noName   |  0.44449 |  0.24542 | h  | 11, 5, 1 |||
 69 |          | noName   |  0.94847 |  1.55391 | h  | 11, 6, 1 |||
 70 |          | noName   |  0.17985 |  0.44186 | h  | 11, 7, 1 |||
 71 |          | noName   |  0.99248 |  0.57650 | h  | 11, 8, 1 |||
 72 |          | noName   |  0.07906 | -1.50640 | h  | 11, 9, 1 |||
 73 |          | noName   |  0.99375 |  0.79378 | h  | 11,10, 1 |||
 74 |          | noName   |  0.02089 | -1.51378 | o  | 15, 1, 1 |||
 75 |          | noName   |  0.00187 |  0.48796 | o  | 15, 2, 1 |||
 76 |          | noName   |  0.05337 |  0.69467 | o  | 15, 3, 1 |||
 77 |          | noName   |  0.00020 | -0.52715 | o  | 15, 4, 1 |||
 78 |          | noName   |  0.02657 | -1.84684 | o  | 15, 5, 1 |||
 79 |          | noName   |  0.01080 | -1.18282 | o  | 15, 6, 1 |||
 80 |          | noName   |  0.02722 | -0.99296 | o  | 15, 7, 1 |||
 81 |          | noName   |  0.00337 | -0.44134 | o  | 15, 8, 1 |||
 82 |          | noName   |  0.01863 | -1.97256 | o  | 15, 9, 1 |||
 83 |          | noName   |  0.90797 | -1.88890 | o  | 15,10, 1 |||
----|----------|----------|----------|----------|----|----------|----------|----------|-------


connection definition section :

target | site | source:weight
-------|------|---------------------------------------------------------------------------------------------------------------------
    64 |      |  1:-0.85571,  2: 0.61046,  3: 0.68621,  4: 0.04721,  5:-0.83294,  6:-0.70452,  7: 0.15592,  8:-0.29240,  9:-0.96536,
                10: 1.39761, 11:-0.40923, 12: 0.86204, 13: 1.82796, 14: 0.82714, 15: 0.16636, 16: 1.27185, 17: 0.24400, 18:-0.31992,
                19: 0.72301, 20:-1.06621, 21: 0.58226, 22: 0.73949, 23:-0.07410, 24:-0.27677, 25:-0.00251, 26:-0.34410, 27:-2.57755,
                28: 0.72655, 29: 0.58940, 30: 0.79436, 31:-0.90054, 32:-1.17497, 33: 0.32952, 34:-1.24253, 35:-0.79247, 36:-0.31895,
                37: 0.51586, 38: 0.03385, 39:-0.48597, 40: 1.58766, 41:-0.22851, 42:-0.03818, 43: 0.20151, 44: 0.74453, 45: 0.23472,
                46:-0.40958, 47: 0.92993, 48:-1.22621, 49: 0.41453, 50: 0.47685, 51:-1.17229, 52:-0.34136, 53:-0.75822, 54:-0.54276,
                55: 1.00279, 56:-0.49492, 57:-0.84930, 58: 0.55760, 59:-0.12467, 60: 0.59899, 61:-0.47844, 62:-0.89904, 63:-0.56310
    65 |      |  1:-0.64635,  2: 0.45213,  3:-0.18571,  4: 0.51598,  5: 0.76397,  6:-0.19236,  7:-0.22636,  8: 0.20463,  9: 0.01594,
                10:-1.00486, 11: 0.33635, 12:-0.89501, 13: 0.17007, 14:-0.67748, 15:-0.67937, 16:-0.22486, 17: 0.84851, 18:-0.87425,
                19: 0.33725, 20:-0.63893, 21:-0.79974, 22: 0.42644, 23:-1.76449, 24:-0.91772, 25:-0.43066, 26: 0.70602, 27:-0.02183,
                28:-0.78191, 29: 0.71740, 30: 0.02909, 31: 1.81540, 32: 1.27205, 33: 0.00646, 34: 0.63592, 35: 0.67095, 36: 0.55821,
                37: 0.64822, 38:-0.32591, 39: 0.26386, 40: 2.44819, 41: 3.26705, 42:-0.54051, 43: 0.88702, 44:-0.23632, 45:-0.69488,
                46: 0.12115, 47: 0.91906, 48:-0.47540, 49:-0.16849, 50:-0.02701, 51:-0.80116, 52: 0.21091, 53: 1.50934, 54:-0.17672,
                55: 2.02857, 56:-0.74981, 57:-0.12333, 58:-0.19156, 59:-0.10117, 60:-0.98773, 61:-0.60790, 62: 0.46995, 63:-0.54900
    66 |      |  1: 0.34428,  2: 0.15329,  3: 0.75451,  4:-0.62340,  5:-0.29911,  6: 0.75280,  7: 0.73296,  8: 0.75494,  9: 0.01642,
                10:-0.45159, 11:-0.17334, 12:-0.76824, 13:-0.40136, 14: 0.34709, 15: 0.02805, 16:-0.40624, 17:-0.03830, 18: 0.04243,
                19:-0.99218, 20:-0.40931, 21:-0.91101, 22:-0.24570, 23:-0.23894, 24:-0.63329, 25: 0.84779, 26:-0.75374, 27: 0.59176,
                28:-0.02780, 29: 0.07364, 30: 0.96482, 31:-2.22070, 32:-0.93481, 33:-2.13127, 34: 2.13859, 35:-0.14548, 36: 0.10257,
                37: 0.36790, 38: 0.22587, 39: 0.58922, 40: 0.84954, 41: 1.26325, 42:-0.39769, 43:-0.47240, 44: 0.41564, 45: 0.00320,
                46: 0.35668, 47:-0.49682, 48: 0.83845, 49: 0.14982, 50:-0.03165, 51: 0.67723, 52:-0.16258, 53:-0.84508, 54: 0.50777,
                55:-0.68480, 56:-0.64776, 57: 0.29740, 58:-0.32188, 59: 0.95666, 60:-0.34898, 61: 0.60222, 62:-0.22666, 63:-0.19767
    67 |      |  1: 0.90118,  2:-0.64147,  3: 0.57317,  4:-0.57012,  5:-0.42448,  6:-0.66210,  7:-0.58721,  8: 0.22172,  9: 0.23552,
                10:-0.10782, 11:-0.89491, 12:-1.21885, 13: 2.07049, 14:-0.76714, 15: 0.29240, 16: 0.14476, 17:-0.38115, 18:-0.57702,
                19: 1.03180, 20: 0.27276, 21:-0.90387, 22: 0.18027, 23: 0.08909, 24:-0.31028, 25:-0.07152, 26: 0.94507, 27: 0.30583,
                28:-0.83551, 29: 0.13071, 30:-0.40028, 31:-0.22518, 32:-0.00002, 33: 1.58703, 34: 1.95943, 35: 0.32487, 36:-0.38505,
                37:-0.49761, 38:-0.60387, 39: 0.62736, 40: 0.64856, 41:-0.22759, 42: 0.65990, 43:-0.68517, 44: 0.58064, 45:-0.94842,
                46:-0.31892, 47: 1.16887, 48: 0.26327, 49:-0.09543, 50: 0.85748, 51:-0.49153, 52:-0.51845, 53:-1.13890, 54:-2.81431,
                55: 0.60530, 56:-0.57549, 57:-0.42692, 58: 0.68615, 59:-0.50993, 60:-0.80908, 61:-0.87555, 62:-0.90680, 63: 0.24479
    68 |      |  1: 0.80963,  2: 0.71233,  3:-0.66326,  4: 0.47661,  5: 0.98553,  6:-0.22983,  7:-0.80786,  8: 0.46831,  9: 1.37724,
                10:-0.43065, 11: 0.90931, 12: 0.63518, 13: 0.04384, 14: 0.31187, 15:-0.88238, 16:-0.95655, 17: 0.85510, 18: 1.18623,
                19:-0.60721, 20:-0.92245, 21:-0.93072, 22: 0.16129, 23:-0.54692, 24: 0.16459, 25: 0.86045, 26:-0.78349, 27: 0.93955,
                28:-0.02908, 29:-0.63866, 30:-0.43641, 31: 0.39596, 32: 1.15580, 33: 0.38977, 34:-1.66233, 35: 0.64837, 36:-0.60381,
                37: 0.80780, 38:-0.10794, 39: 1.25040, 40:-0.27592, 41: 0.00809, 42:-0.09842, 43: 0.43999, 44:-0.48069, 45: 0.17295,
                46: 1.28963, 47:-0.75256, 48:-0.27776, 49: 0.63097, 50: 0.03470, 51:-0.48369, 52:-1.14773, 53: 0.06045, 54:-1.21869,
                55:-2.28109, 56: 0.08029, 57:-0.13614, 58: 0.35203, 59: 0.94061, 60:-0.69231, 61:-0.06833, 62:-0.48833, 63:-0.46776
    69 |      |  1: 0.85479,  2:-0.14078,  3: 0.11167,  4:-0.68249,  5:-0.47154,  6:-0.74352,  7: 0.44981,  8: 0.35801,  9:-2.96044,
                10: 0.78146, 11: 0.65421, 12: 1.69425, 13:-2.29848, 14: 0.91626, 15: 0.50768, 16:-0.39492, 17:-0.29453, 18:-0.64924,
                19: 1.29346, 20:-0.20531, 21:-0.14389, 22:-0.84558, 23:-0.96271, 24:-0.09543, 25:-0.84067, 26: 0.10110, 27:-0.18876,
                28: 0.56706, 29:-0.76183, 30:-0.94507, 31: 0.29302, 32:-0.32564, 33: 0.41634, 34:-0.00003, 35: 0.39128, 36: 0.74700,
                37:-0.64602, 38:-0.57945, 39:-0.55272, 40:-0.39314, 41: 0.41316, 42:-0.40294, 43: 0.09458, 44: 0.42303, 45: 0.08982,
                46:-0.18477, 47: 0.79684, 48: 0.28084, 49: 0.86419, 50:-0.10526, 51:-0.27426, 52:-0.90740, 53:-0.62733, 54:-0.78667,
                55: 0.22987, 56: 0.93292, 57: 0.32987, 58:-0.80480, 59:-0.25047, 60: 0.67724, 61: 0.99634, 62:-0.88934, 63:-0.58129
    70 |      |  1: 0.82171,  2:-0.55620,  3: 0.96429,  4:-0.24656,  5:-0.19785,  6: 0.00394,  7: 0.56475,  8:-0.24601,  9:-1.41473,
                10: 0.30440, 11: 0.12877, 12: 0.34560, 13:-0.39226, 14:-0.62218, 15:-0.53374, 16: 0.53477, 17:-0.79479, 18: 0.31499,
                19:-0.20824, 20:-0.91404, 21:-0.69573, 22:-0.38334, 23: 0.42158, 24:-0.97699, 25: 1.36200, 26:-0.83248, 27:-0.28812,
                28: 0.12882, 29: 0.23392, 30:-0.50734, 31: 1.13822, 32: 1.42556, 33: 1.23951, 34: 1.29768, 35: 0.12015, 36:-0.03183,
                37:-0.91255, 38: 0.68871, 39: 0.63163, 40:-0.53896, 41:-1.24636, 42:-0.98419, 43: 0.46989, 44:-0.86313, 45: 0.52507,
                46: 1.06623, 47:-0.42503, 48:-1.39554, 49: 0.13932, 50:-0.16794, 51: 0.53592, 52:-0.81599, 53:-0.43846, 54:-0.72931,
                55: 1.40344, 56: 0.59557, 57:-0.86877, 58: 0.73540, 59:-0.64159, 60: 0.97522, 61:-0.70885, 62: 0.97229, 63: 0.65807
    71 |      |  1:-0.50438,  2:-0.88952,  3: 0.96100,  4: 0.58513,  5:-0.59587,  6:-0.78051,  7:-0.08420,  8:-0.48033,  9: 0.12736,
                10: 0.50506, 11: 0.65915, 12: 0.28417, 13: 0.85624, 14:-0.97125, 15:-0.00241, 16:-0.29364, 17:-0.61046, 18: 0.73255,
                19: 0.57318, 20: 0.61847, 21: 0.26139, 22:-0.99493, 23: 0.68028, 24: 0.63323, 25:-0.49310, 26:-0.89082, 27:-0.02857,
                28: 0.83197, 29:-0.17893, 30: 0.21709, 31: 0.84597, 32: 0.63744, 33: 0.69289, 34:-0.73200, 35:-0.59868, 36: 0.36052,
                37: 0.05411, 38:-0.59648, 39: 0.42288, 40: 0.62080, 41:-0.72996, 42: 0.42747, 43: 0.75744, 44: 0.64934, 45: 0.20115,
                46: 0.17218, 47: 0.87359, 48: 0.84567, 49: 0.99158, 50: 0.24119, 51:-0.34097, 52: 0.50221, 53: 0.34956, 54: 0.58731,
                55: 0.66207, 56: 0.68157, 57:-0.57176, 58:-0.50804, 59: 0.20859, 60: 0.87744, 61: 0.78893, 62:-0.82159, 63:-0.99591
    72 |      |  1: 0.66173,  2:-0.49608,  3: 0.16825,  4:-0.38670,  5: 0.93213,  6:-0.88971,  7:-0.11808,  8:-0.48173,  9: 2.60030,
                10: 0.01562, 11:-1.36289, 12: 0.62286, 13: 1.50583, 14: 0.20115, 15:-0.89471, 16:-0.42280, 17:-0.70647, 18:-0.09168,
                19:-1.06479, 20:-1.10846, 21: 0.57518, 22:-0.22330, 23: 0.64379, 24: 0.84838, 25:-0.82794, 26:-0.62908, 27: 1.44377,
                28:-0.14774, 29: 0.47246, 30:-0.60367, 31: 1.02890, 32:-0.66387, 33:-0.38809, 34: 0.23443, 35: 0.80126, 36: 0.22483,
                37: 0.48375, 38: 0.27201, 39:-0.88071, 40:-0.59337, 41: 0.15772, 42:-0.89862, 43:-0.85156, 44:-0.60756, 45: 0.84088,
                46:-0.07579, 47: 0.53492, 48:-0.24745, 49: 0.95611, 50: 0.51665, 51: 1.78310, 52:-0.11852, 53: 1.32992, 54: 1.13913,
                55:-0.52107, 56:-0.19584, 57:-0.61907, 58: 0.98456, 59:-0.25858, 60: 0.05972, 61: 0.46208, 62: 0.81133, 63:-0.78918
    73 |      |  1:-0.89496,  2: 0.26859,  3:-0.34764,  4:-0.36119,  5:-0.01633,  6: 0.88336,  7: 0.84210,  8: 0.61315,  9: 0.69131,
                10: 0.22250, 11: 0.39202, 12: 0.33623, 13: 0.34766, 14: 0.22691, 15: 0.79351, 16:-0.35860, 17: 0.95239, 18:-0.37041,
                19: 1.24481, 20:-0.62223, 21:-0.90674, 22:-0.61144, 23:-0.77761, 24: 0.78185, 25: 0.88325, 26:-0.35823, 27: 0.21491,
                28:-0.63457, 29:-0.33940, 30:-1.60308, 31:-1.75183, 32:-0.62333, 33:-1.28154, 34: 0.10710, 35:-0.11374, 36: 0.86181,
                37:-0.96448, 38:-0.99878, 39:-0.57477, 40:-1.86625, 41:-2.65937, 42:-0.69280, 43: 0.83459, 44:-0.06766, 45:-0.83325,
                46:-0.01727, 47: 0.95637, 48:-0.84666, 49: 0.56804, 50:-0.94702, 51: 0.56193, 52: 2.12619, 53: 1.96864, 54: 1.23403,
                55: 1.36912, 56:-0.42326, 57: 0.14951, 58:-0.26737, 59: 0.39836, 60:-0.80224, 61: 0.28343, 62:-0.04721, 63:-0.96783
    74 |      | 64:-1.24309, 65: 0.21605, 66:-1.10223, 67: 0.45041, 68:-1.44525, 69: 3.24500, 70: 2.83713, 71:-0.73799, 72:-2.18114,
                73:-3.71095
    75 |      | 64:-3.06037, 65: 1.22959, 66:-3.30031, 67:-3.23448, 68: 1.25994, 69:-0.56483, 70:-1.57797, 71:-0.00153, 72: 1.28017,
                73:-1.92277
    76 |      | 64: 1.05851, 65:-4.39459, 66:-0.68557, 67:-1.78027, 68:-1.59602, 69: 1.16963, 70:-2.05437, 71:-0.03912, 72:-2.61152,
                73: 1.30759
    77 |      | 64:-3.22985, 65:-2.22760, 66: 2.53410, 67:-1.13433, 68:-1.25346, 69:-1.19014, 70:-2.09595, 71:-1.39698, 72: 2.26146,
                73: 1.49114
    78 |      | 64: 1.59662, 65: 0.68399, 66:-2.93009, 67:-1.89611, 68:-1.96203, 69:-3.23781, 70: 1.13992, 71:-1.45074, 72: 1.28769,
                73: 2.77738
    79 |      | 64: 2.93724, 65:-2.45478, 66:-1.40866, 67: 0.72300, 68: 2.27371, 69:-1.63397, 70: 0.53083, 71:-1.14686, 72: 0.51561,
                73:-2.96573
    80 |      | 64: 1.35389, 65: 2.72300, 66: 1.60221, 67:-2.05675, 68:-1.28425, 69: 0.29833, 70:-3.09716, 71:-1.04265, 72:-2.34471,
                73:-2.79781
    81 |      | 64:-2.67981, 65: 1.31214, 66: 0.06537, 67: 4.06614, 68:-0.75018, 69:-3.21169, 70:-0.55352, 71:-1.93743, 72: 0.25701,
                73:-1.88237
    82 |      | 64:-1.58783, 65:-1.10078, 66:-0.65220, 67:-2.51107, 68: 3.25689, 69: 0.36101, 70: 2.05408, 71:-1.00253, 72:-2.14580,
                73: 1.79074
    83 |      | 64: 1.65711, 65: 0.31066, 66:-3.78147, 67: 1.85906, 68:-1.27135, 69: 2.23923, 70:-0.71638, 71:-2.34731, 72:-2.26314,
                73: 1.86597
-------|------|---------------------------------------------------------------------------------------------------------------------


layer definition section :

layer | unitNo.
------|----------------------------------------------------------------------------------------------------------------------------
    2 | 64, 65, 66, 67, 68, 69, 70, 71, 72, 73
    3 | 74, 75, 76, 77, 78, 79, 80, 81, 82, 83
------|----------------------------------------------------------------------------------------------------------------------------
