SNNS network definition file V1.4-3D
generated at Fri Nov 11 16:41:43 2016

network name : 63_10_10 v0
source files :
no. of units : 83
no. of connections : 730
no. of unit types : 0
no. of site types : 0


learning function : Std_Backpropagation
update function   : Topological_Order


unit default section :

act      | bias     | st | subnet | layer | act func     | out func
---------|----------|----|--------|-------|--------------|-------------
 0.00000 |  0.00000 | h  |      0 |     1 | Act_Logistic | Out_Identity 
---------|----------|----|--------|-------|--------------|-------------


unit definition section :

no. | typeName | unitName | act      | bias     | st | position | act func | out func | sites
----|----------|----------|----------|----------|----|----------|----------|----------|-------
  1 |          | noName   |  0.00000 |  0.00000 | i  |  1, 1, 1 |||
  2 |          | noName   |  0.00000 |  0.00000 | i  |  2, 1, 1 |||
  3 |          | noName   |  0.00000 |  0.00000 | i  |  3, 1, 1 |||
  4 |          | noName   |  0.00000 |  0.00000 | i  |  4, 1, 1 |||
  5 |          | noName   |  0.00000 |  0.00000 | i  |  5, 1, 1 |||
  6 |          | noName   |  0.00000 |  0.00000 | i  |  6, 1, 1 |||
  7 |          | noName   |  0.00000 |  0.00000 | i  |  7, 1, 1 |||
  8 |          | noName   |  0.00000 |  0.00000 | i  |  1, 2, 1 |||
  9 |          | noName   |  0.00000 |  0.00000 | i  |  2, 2, 1 |||
 10 |          | noName   |  0.00000 |  0.00000 | i  |  3, 2, 1 |||
 11 |          | noName   |  0.00000 |  0.00000 | i  |  4, 2, 1 |||
 12 |          | noName   |  0.00000 |  0.00000 | i  |  5, 2, 1 |||
 13 |          | noName   |  0.00000 |  0.00000 | i  |  6, 2, 1 |||
 14 |          | noName   |  0.00000 |  0.00000 | i  |  7, 2, 1 |||
 15 |          | noName   |  0.00000 |  0.00000 | i  |  1, 3, 1 |||
 16 |          | noName   |  0.00000 |  0.00000 | i  |  2, 3, 1 |||
 17 |          | noName   |  0.00000 |  0.00000 | i  |  3, 3, 1 |||
 18 |          | noName   |  0.00000 |  0.00000 | i  |  4, 3, 1 |||
 19 |          | noName   |  0.00000 |  0.00000 | i  |  5, 3, 1 |||
 20 |          | noName   |  0.00000 |  0.00000 | i  |  6, 3, 1 |||
 21 |          | noName   |  0.00000 |  0.00000 | i  |  7, 3, 1 |||
 22 |          | noName   |  0.00000 |  0.00000 | i  |  1, 4, 1 |||
 23 |          | noName   |  0.00000 |  0.00000 | i  |  2, 4, 1 |||
 24 |          | noName   |  0.00000 |  0.00000 | i  |  3, 4, 1 |||
 25 |          | noName   |  0.00000 |  0.00000 | i  |  4, 4, 1 |||
 26 |          | noName   |  0.00000 |  0.00000 | i  |  5, 4, 1 |||
 27 |          | noName   |  0.00000 |  0.00000 | i  |  6, 4, 1 |||
 28 |          | noName   |  0.00000 |  0.00000 | i  |  7, 4, 1 |||
 29 |          | noName   |  0.00000 |  0.00000 | i  |  1, 5, 1 |||
 30 |          | noName   |  0.00000 |  0.00000 | i  |  2, 5, 1 |||
 31 |          | noName   |  0.00000 |  0.00000 | i  |  3, 5, 1 |||
 32 |          | noName   |  0.00000 |  0.00000 | i  |  4, 5, 1 |||
 33 |          | noName   |  0.00000 |  0.00000 | i  |  5, 5, 1 |||
 34 |          | noName   |  0.00000 |  0.00000 | i  |  6, 5, 1 |||
 35 |          | noName   |  0.00000 |  0.00000 | i  |  7, 5, 1 |||
 36 |          | noName   |  0.00000 |  0.00000 | i  |  1, 6, 1 |||
 37 |          | noName   |  0.00000 |  0.00000 | i  |  2, 6, 1 |||
 38 |          | noName   |  0.00000 |  0.00000 | i  |  3, 6, 1 |||
 39 |          | noName   |  0.00000 |  0.00000 | i  |  4, 6, 1 |||
 40 |          | noName   |  0.00000 |  0.00000 | i  |  5, 6, 1 |||
 41 |          | noName   |  0.00000 |  0.00000 | i  |  6, 6, 1 |||
 42 |          | noName   |  0.00000 |  0.00000 | i  |  7, 6, 1 |||
 43 |          | noName   |  0.00000 |  0.00000 | i  |  1, 7, 1 |||
 44 |          | noName   |  0.00000 |  0.00000 | i  |  2, 7, 1 |||
 45 |          | noName   |  0.00000 |  0.00000 | i  |  3, 7, 1 |||
 46 |          | noName   |  0.00000 |  0.00000 | i  |  4, 7, 1 |||
 47 |          | noName   |  0.00000 |  0.00000 | i  |  5, 7, 1 |||
 48 |          | noName   |  0.00000 |  0.00000 | i  |  6, 7, 1 |||
 49 |          | noName   |  0.00000 |  0.00000 | i  |  7, 7, 1 |||
 50 |          | noName   |  0.00000 |  0.00000 | i  |  1, 8, 1 |||
 51 |          | noName   |  0.00000 |  0.00000 | i  |  2, 8, 1 |||
 52 |          | noName   |  0.00000 |  0.00000 | i  |  3, 8, 1 |||
 53 |          | noName   |  0.00000 |  0.00000 | i  |  4, 8, 1 |||
 54 |          | noName   |  0.00000 |  0.00000 | i  |  5, 8, 1 |||
 55 |          | noName   |  0.00000 |  0.00000 | i  |  6, 8, 1 |||
 56 |          | noName   |  0.00000 |  0.00000 | i  |  7, 8, 1 |||
 57 |          | noName   |  0.00000 |  0.00000 | i  |  1, 9, 1 |||
 58 |          | noName   |  0.00000 |  0.00000 | i  |  2, 9, 1 |||
 59 |          | noName   |  0.00000 |  0.00000 | i  |  3, 9, 1 |||
 60 |          | noName   |  0.00000 |  0.00000 | i  |  4, 9, 1 |||
 61 |          | noName   |  0.00000 |  0.00000 | i  |  5, 9, 1 |||
 62 |          | noName   |  0.00000 |  0.00000 | i  |  6, 9, 1 |||
 63 |          | noName   |  0.00000 |  0.00000 | i  |  7, 9, 1 |||
 64 |          | noName   |  0.00000 |  0.00000 | h  | 11, 1, 1 |||
 65 |          | noName   |  0.00000 |  0.00000 | h  | 11, 2, 1 |||
 66 |          | noName   |  0.00000 |  0.00000 | h  | 11, 3, 1 |||
 67 |          | noName   |  0.00000 |  0.00000 | h  | 11, 4, 1 |||
 68 |          | noName   |  0.00000 |  0.00000 | h  | 11, 5, 1 |||
 69 |          | noName   |  0.00000 |  0.00000 | h  | 11, 6, 1 |||
 70 |          | noName   |  0.00000 |  0.00000 | h  | 11, 7, 1 |||
 71 |          | noName   |  0.00000 |  0.00000 | h  | 11, 8, 1 |||
 72 |          | noName   |  0.00000 |  0.00000 | h  | 11, 9, 1 |||
 73 |          | noName   |  0.00000 |  0.00000 | h  | 11,10, 1 |||
 74 |          | noName   |  0.00000 |  0.00000 | o  | 15, 1, 1 |||
 75 |          | noName   |  0.00000 |  0.00000 | o  | 15, 2, 1 |||
 76 |          | noName   |  0.00000 |  0.00000 | o  | 15, 3, 1 |||
 77 |          | noName   |  0.00000 |  0.00000 | o  | 15, 4, 1 |||
 78 |          | noName   |  0.00000 |  0.00000 | o  | 15, 5, 1 |||
 79 |          | noName   |  0.00000 |  0.00000 | o  | 15, 6, 1 |||
 80 |          | noName   |  0.00000 |  0.00000 | o  | 15, 7, 1 |||
 81 |          | noName   |  0.00000 |  0.00000 | o  | 15, 8, 1 |||
 82 |          | noName   |  0.00000 |  0.00000 | o  | 15, 9, 1 |||
 83 |          | noName   |  0.00000 |  0.00000 | o  | 15,10, 1 |||
----|----------|----------|----------|----------|----|----------|----------|----------|-------


connection definition section :

target | site | source:weight
-------|------|---------------------------------------------------------------------------------------------------------------------
    64 |      | 63: 0.00000, 62: 0.00000, 61: 0.00000, 60: 0.00000, 59: 0.00000, 58: 0.00000, 57: 0.00000, 56: 0.00000, 55: 0.00000,
                54: 0.00000, 53: 0.00000, 52: 0.00000, 51: 0.00000, 50: 0.00000, 49: 0.00000, 48: 0.00000, 47: 0.00000, 46: 0.00000,
                45: 0.00000, 44: 0.00000, 43: 0.00000, 42: 0.00000, 41: 0.00000, 40: 0.00000, 39: 0.00000, 38: 0.00000, 37: 0.00000,
                36: 0.00000, 35: 0.00000, 34: 0.00000, 33: 0.00000, 32: 0.00000, 31: 0.00000, 30: 0.00000, 29: 0.00000, 28: 0.00000,
                27: 0.00000, 26: 0.00000, 25: 0.00000, 24: 0.00000, 23: 0.00000, 22: 0.00000, 21: 0.00000, 20: 0.00000, 19: 0.00000,
                18: 0.00000, 17: 0.00000, 16: 0.00000, 15: 0.00000, 14: 0.00000, 13: 0.00000, 12: 0.00000, 11: 0.00000, 10: 0.00000,
                 9: 0.00000,  8: 0.00000,  7: 0.00000,  6: 0.00000,  5: 0.00000,  4: 0.00000,  3: 0.00000,  2: 0.00000,  1: 0.00000
    65 |      | 63: 0.00000, 62: 0.00000, 61: 0.00000, 60: 0.00000, 59: 0.00000, 58: 0.00000, 57: 0.00000, 56: 0.00000, 55: 0.00000,
                54: 0.00000, 53: 0.00000, 52: 0.00000, 51: 0.00000, 50: 0.00000, 49: 0.00000, 48: 0.00000, 47: 0.00000, 46: 0.00000,
                45: 0.00000, 44: 0.00000, 43: 0.00000, 42: 0.00000, 41: 0.00000, 40: 0.00000, 39: 0.00000, 38: 0.00000, 37: 0.00000,
                36: 0.00000, 35: 0.00000, 34: 0.00000, 33: 0.00000, 32: 0.00000, 31: 0.00000, 30: 0.00000, 29: 0.00000, 28: 0.00000,
                27: 0.00000, 26: 0.00000, 25: 0.00000, 24: 0.00000, 23: 0.00000, 22: 0.00000, 21: 0.00000, 20: 0.00000, 19: 0.00000,
                18: 0.00000, 17: 0.00000, 16: 0.00000, 15: 0.00000, 14: 0.00000, 13: 0.00000, 12: 0.00000, 11: 0.00000, 10: 0.00000,
                 9: 0.00000,  8: 0.00000,  7: 0.00000,  6: 0.00000,  5: 0.00000,  4: 0.00000,  3: 0.00000,  2: 0.00000,  1: 0.00000
    66 |      | 63: 0.00000, 62: 0.00000, 61: 0.00000, 60: 0.00000, 59: 0.00000, 58: 0.00000, 57: 0.00000, 56: 0.00000, 55: 0.00000,
                54: 0.00000, 53: 0.00000, 52: 0.00000, 51: 0.00000, 50: 0.00000, 49: 0.00000, 48: 0.00000, 47: 0.00000, 46: 0.00000,
                45: 0.00000, 44: 0.00000, 43: 0.00000, 42: 0.00000, 41: 0.00000, 40: 0.00000, 39: 0.00000, 38: 0.00000, 37: 0.00000,
                36: 0.00000, 35: 0.00000, 34: 0.00000, 33: 0.00000, 32: 0.00000, 31: 0.00000, 30: 0.00000, 29: 0.00000, 28: 0.00000,
                27: 0.00000, 26: 0.00000, 25: 0.00000, 24: 0.00000, 23: 0.00000, 22: 0.00000, 21: 0.00000, 20: 0.00000, 19: 0.00000,
                18: 0.00000, 17: 0.00000, 16: 0.00000, 15: 0.00000, 14: 0.00000, 13: 0.00000, 12: 0.00000, 11: 0.00000, 10: 0.00000,
                 9: 0.00000,  8: 0.00000,  7: 0.00000,  6: 0.00000,  5: 0.00000,  4: 0.00000,  3: 0.00000,  2: 0.00000,  1: 0.00000
    67 |      | 63: 0.00000, 62: 0.00000, 61: 0.00000, 60: 0.00000, 59: 0.00000, 58: 0.00000, 57: 0.00000, 56: 0.00000, 55: 0.00000,
                54: 0.00000, 53: 0.00000, 52: 0.00000, 51: 0.00000, 50: 0.00000, 49: 0.00000, 48: 0.00000, 47: 0.00000, 46: 0.00000,
                45: 0.00000, 44: 0.00000, 43: 0.00000, 42: 0.00000, 41: 0.00000, 40: 0.00000, 39: 0.00000, 38: 0.00000, 37: 0.00000,
                36: 0.00000, 35: 0.00000, 34: 0.00000, 33: 0.00000, 32: 0.00000, 31: 0.00000, 30: 0.00000, 29: 0.00000, 28: 0.00000,
                27: 0.00000, 26: 0.00000, 25: 0.00000, 24: 0.00000, 23: 0.00000, 22: 0.00000, 21: 0.00000, 20: 0.00000, 19: 0.00000,
                18: 0.00000, 17: 0.00000, 16: 0.00000, 15: 0.00000, 14: 0.00000, 13: 0.00000, 12: 0.00000, 11: 0.00000, 10: 0.00000,
                 9: 0.00000,  8: 0.00000,  7: 0.00000,  6: 0.00000,  5: 0.00000,  4: 0.00000,  3: 0.00000,  2: 0.00000,  1: 0.00000
    68 |      | 63: 0.00000, 62: 0.00000, 61: 0.00000, 60: 0.00000, 59: 0.00000, 58: 0.00000, 57: 0.00000, 56: 0.00000, 55: 0.00000,
                54: 0.00000, 53: 0.00000, 52: 0.00000, 51: 0.00000, 50: 0.00000, 49: 0.00000, 48: 0.00000, 47: 0.00000, 46: 0.00000,
                45: 0.00000, 44: 0.00000, 43: 0.00000, 42: 0.00000, 41: 0.00000, 40: 0.00000, 39: 0.00000, 38: 0.00000, 37: 0.00000,
                36: 0.00000, 35: 0.00000, 34: 0.00000, 33: 0.00000, 32: 0.00000, 31: 0.00000, 30: 0.00000, 29: 0.00000, 28: 0.00000,
                27: 0.00000, 26: 0.00000, 25: 0.00000, 24: 0.00000, 23: 0.00000, 22: 0.00000, 21: 0.00000, 20: 0.00000, 19: 0.00000,
                18: 0.00000, 17: 0.00000, 16: 0.00000, 15: 0.00000, 14: 0.00000, 13: 0.00000, 12: 0.00000, 11: 0.00000, 10: 0.00000,
                 9: 0.00000,  8: 0.00000,  7: 0.00000,  6: 0.00000,  5: 0.00000,  4: 0.00000,  3: 0.00000,  2: 0.00000,  1: 0.00000
    69 |      | 63: 0.00000, 62: 0.00000, 61: 0.00000, 60: 0.00000, 59: 0.00000, 58: 0.00000, 57: 0.00000, 56: 0.00000, 55: 0.00000,
                54: 0.00000, 53: 0.00000, 52: 0.00000, 51: 0.00000, 50: 0.00000, 49: 0.00000, 48: 0.00000, 47: 0.00000, 46: 0.00000,
                45: 0.00000, 44: 0.00000, 43: 0.00000, 42: 0.00000, 41: 0.00000, 40: 0.00000, 39: 0.00000, 38: 0.00000, 37: 0.00000,
                36: 0.00000, 35: 0.00000, 34: 0.00000, 33: 0.00000, 32: 0.00000, 31: 0.00000, 30: 0.00000, 29: 0.00000, 28: 0.00000,
                27: 0.00000, 26: 0.00000, 25: 0.00000, 24: 0.00000, 23: 0.00000, 22: 0.00000, 21: 0.00000, 20: 0.00000, 19: 0.00000,
                18: 0.00000, 17: 0.00000, 16: 0.00000, 15: 0.00000, 14: 0.00000, 13: 0.00000, 12: 0.00000, 11: 0.00000, 10: 0.00000,
                 9: 0.00000,  8: 0.00000,  7: 0.00000,  6: 0.00000,  5: 0.00000,  4: 0.00000,  3: 0.00000,  2: 0.00000,  1: 0.00000
    70 |      | 63: 0.00000, 62: 0.00000, 61: 0.00000, 60: 0.00000, 59: 0.00000, 58: 0.00000, 57: 0.00000, 56: 0.00000, 55: 0.00000,
                54: 0.00000, 53: 0.00000, 52: 0.00000, 51: 0.00000, 50: 0.00000, 49: 0.00000, 48: 0.00000, 47: 0.00000, 46: 0.00000,
                45: 0.00000, 44: 0.00000, 43: 0.00000, 42: 0.00000, 41: 0.00000, 40: 0.00000, 39: 0.00000, 38: 0.00000, 37: 0.00000,
                36: 0.00000, 35: 0.00000, 34: 0.00000, 33: 0.00000, 32: 0.00000, 31: 0.00000, 30: 0.00000, 29: 0.00000, 28: 0.00000,
                27: 0.00000, 26: 0.00000, 25: 0.00000, 24: 0.00000, 23: 0.00000, 22: 0.00000, 21: 0.00000, 20: 0.00000, 19: 0.00000,
                18: 0.00000, 17: 0.00000, 16: 0.00000, 15: 0.00000, 14: 0.00000, 13: 0.00000, 12: 0.00000, 11: 0.00000, 10: 0.00000,
                 9: 0.00000,  8: 0.00000,  7: 0.00000,  6: 0.00000,  5: 0.00000,  4: 0.00000,  3: 0.00000,  2: 0.00000,  1: 0.00000
    71 |      | 63: 0.00000, 62: 0.00000, 61: 0.00000, 60: 0.00000, 59: 0.00000, 58: 0.00000, 57: 0.00000, 56: 0.00000, 55: 0.00000,
                54: 0.00000, 53: 0.00000, 52: 0.00000, 51: 0.00000, 50: 0.00000, 49: 0.00000, 48: 0.00000, 47: 0.00000, 46: 0.00000,
                45: 0.00000, 44: 0.00000, 43: 0.00000, 42: 0.00000, 41: 0.00000, 40: 0.00000, 39: 0.00000, 38: 0.00000, 37: 0.00000,
                36: 0.00000, 35: 0.00000, 34: 0.00000, 33: 0.00000, 32: 0.00000, 31: 0.00000, 30: 0.00000, 29: 0.00000, 28: 0.00000,
                27: 0.00000, 26: 0.00000, 25: 0.00000, 24: 0.00000, 23: 0.00000, 22: 0.00000, 21: 0.00000, 20: 0.00000, 19: 0.00000,
                18: 0.00000, 17: 0.00000, 16: 0.00000, 15: 0.00000, 14: 0.00000, 13: 0.00000, 12: 0.00000, 11: 0.00000, 10: 0.00000,
                 9: 0.00000,  8: 0.00000,  7: 0.00000,  6: 0.00000,  5: 0.00000,  4: 0.00000,  3: 0.00000,  2: 0.00000,  1: 0.00000
    72 |      | 63: 0.00000, 62: 0.00000, 61: 0.00000, 60: 0.00000, 59: 0.00000, 58: 0.00000, 57: 0.00000, 56: 0.00000, 55: 0.00000,
                54: 0.00000, 53: 0.00000, 52: 0.00000, 51: 0.00000, 50: 0.00000, 49: 0.00000, 48: 0.00000, 47: 0.00000, 46: 0.00000,
                45: 0.00000, 44: 0.00000, 43: 0.00000, 42: 0.00000, 41: 0.00000, 40: 0.00000, 39: 0.00000, 38: 0.00000, 37: 0.00000,
                36: 0.00000, 35: 0.00000, 34: 0.00000, 33: 0.00000, 32: 0.00000, 31: 0.00000, 30: 0.00000, 29: 0.00000, 28: 0.00000,
                27: 0.00000, 26: 0.00000, 25: 0.00000, 24: 0.00000, 23: 0.00000, 22: 0.00000, 21: 0.00000, 20: 0.00000, 19: 0.00000,
                18: 0.00000, 17: 0.00000, 16: 0.00000, 15: 0.00000, 14: 0.00000, 13: 0.00000, 12: 0.00000, 11: 0.00000, 10: 0.00000,
                 9: 0.00000,  8: 0.00000,  7: 0.00000,  6: 0.00000,  5: 0.00000,  4: 0.00000,  3: 0.00000,  2: 0.00000,  1: 0.00000
    73 |      | 63: 0.00000, 62: 0.00000, 61: 0.00000, 60: 0.00000, 59: 0.00000, 58: 0.00000, 57: 0.00000, 56: 0.00000, 55: 0.00000,
                54: 0.00000, 53: 0.00000, 52: 0.00000, 51: 0.00000, 50: 0.00000, 49: 0.00000, 48: 0.00000, 47: 0.00000, 46: 0.00000,
                45: 0.00000, 44: 0.00000, 43: 0.00000, 42: 0.00000, 41: 0.00000, 40: 0.00000, 39: 0.00000, 38: 0.00000, 37: 0.00000,
                36: 0.00000, 35: 0.00000, 34: 0.00000, 33: 0.00000, 32: 0.00000, 31: 0.00000, 30: 0.00000, 29: 0.00000, 28: 0.00000,
                27: 0.00000, 26: 0.00000, 25: 0.00000, 24: 0.00000, 23: 0.00000, 22: 0.00000, 21: 0.00000, 20: 0.00000, 19: 0.00000,
                18: 0.00000, 17: 0.00000, 16: 0.00000, 15: 0.00000, 14: 0.00000, 13: 0.00000, 12: 0.00000, 11: 0.00000, 10: 0.00000,
                 9: 0.00000,  8: 0.00000,  7: 0.00000,  6: 0.00000,  5: 0.00000,  4: 0.00000,  3: 0.00000,  2: 0.00000,  1: 0.00000
    74 |      | 73: 0.00000, 72: 0.00000, 71: 0.00000, 70: 0.00000, 69: 0.00000, 68: 0.00000, 67: 0.00000, 66: 0.00000, 65: 0.00000,
                64: 0.00000
    75 |      | 73: 0.00000, 72: 0.00000, 71: 0.00000, 70: 0.00000, 69: 0.00000, 68: 0.00000, 67: 0.00000, 66: 0.00000, 65: 0.00000,
                64: 0.00000
    76 |      | 73: 0.00000, 72: 0.00000, 71: 0.00000, 70: 0.00000, 69: 0.00000, 68: 0.00000, 67: 0.00000, 66: 0.00000, 65: 0.00000,
                64: 0.00000
    77 |      | 73: 0.00000, 72: 0.00000, 71: 0.00000, 70: 0.00000, 69: 0.00000, 68: 0.00000, 67: 0.00000, 66: 0.00000, 65: 0.00000,
                64: 0.00000
    78 |      | 73: 0.00000, 72: 0.00000, 71: 0.00000, 70: 0.00000, 69: 0.00000, 68: 0.00000, 67: 0.00000, 66: 0.00000, 65: 0.00000,
                64: 0.00000
    79 |      | 73: 0.00000, 72: 0.00000, 71: 0.00000, 70: 0.00000, 69: 0.00000, 68: 0.00000, 67: 0.00000, 66: 0.00000, 65: 0.00000,
                64: 0.00000
    80 |      | 73: 0.00000, 72: 0.00000, 71: 0.00000, 70: 0.00000, 69: 0.00000, 68: 0.00000, 67: 0.00000, 66: 0.00000, 65: 0.00000,
                64: 0.00000
    81 |      | 73: 0.00000, 72: 0.00000, 71: 0.00000, 70: 0.00000, 69: 0.00000, 68: 0.00000, 67: 0.00000, 66: 0.00000, 65: 0.00000,
                64: 0.00000
    82 |      | 73: 0.00000, 72: 0.00000, 71: 0.00000, 70: 0.00000, 69: 0.00000, 68: 0.00000, 67: 0.00000, 66: 0.00000, 65: 0.00000,
                64: 0.00000
    83 |      | 73: 0.00000, 72: 0.00000, 71: 0.00000, 70: 0.00000, 69: 0.00000, 68: 0.00000, 67: 0.00000, 66: 0.00000, 65: 0.00000,
                64: 0.00000
-------|------|---------------------------------------------------------------------------------------------------------------------


layer definition section :

layer | unitNo.
------|----------------------------------------------------------------------------------------------------------------------------
    2 | 64, 65, 66, 67, 68, 69, 70, 71, 72, 73
    3 | 74, 75, 76, 77, 78, 79, 80, 81, 82, 83
------|----------------------------------------------------------------------------------------------------------------------------
