SNNS network definition file V1.4-3D
generated at Fri Nov 11 15:22:40 2016

network name : 63_4_10 v4
source files :
no. of units : 77
no. of connections : 292
no. of unit types : 0
no. of site types : 0


learning function : BackpropMomentum
update function   : Topological_Order


unit default section :

act      | bias     | st | subnet | layer | act func     | out func
---------|----------|----|--------|-------|--------------|-------------
 0.00000 |  0.00000 | h  |      0 |     1 | Act_Logistic | Out_Identity 
---------|----------|----|--------|-------|--------------|-------------


unit definition section :

no. | typeName | unitName | act      | bias     | st | position | act func | out func | sites
----|----------|----------|----------|----------|----|----------|----------|----------|-------
  1 |          | noName   |  0.00000 |  0.24625 | i  |  1, 1, 1 |||
  2 |          | noName   |  0.00000 |  0.61681 | i  |  2, 1, 1 |||
  3 |          | noName   |  0.00000 | -0.99030 | i  |  3, 1, 1 |||
  4 |          | noName   |  0.00000 | -0.78948 | i  |  4, 1, 1 |||
  5 |          | noName   |  0.00000 | -0.21116 | i  |  5, 1, 1 |||
  6 |          | noName   |  0.00000 | -0.44627 | i  |  6, 1, 1 |||
  7 |          | noName   |  0.00000 | -0.36644 | i  |  7, 1, 1 |||
  8 |          | noName   |  0.00000 |  0.64849 | i  |  1, 2, 1 |||
  9 |          | noName   |  0.00000 |  0.70702 | i  |  2, 2, 1 |||
 10 |          | noName   |  0.80000 | -0.37693 | i  |  3, 2, 1 |||
 11 |          | noName   |  0.70000 | -0.60466 | i  |  4, 2, 1 |||
 12 |          | noName   |  0.80000 |  0.12937 | i  |  5, 2, 1 |||
 13 |          | noName   |  0.70000 | -0.06186 | i  |  6, 2, 1 |||
 14 |          | noName   |  0.00000 |  0.99023 | i  |  7, 2, 1 |||
 15 |          | noName   |  0.00000 | -0.13352 | i  |  1, 3, 1 |||
 16 |          | noName   |  0.00000 | -0.26304 | i  |  2, 3, 1 |||
 17 |          | noName   |  1.00000 | -0.16245 | i  |  3, 3, 1 |||
 18 |          | noName   |  0.00000 | -0.23026 | i  |  4, 3, 1 |||
 19 |          | noName   |  0.80000 |  0.16086 | i  |  5, 3, 1 |||
 20 |          | noName   |  0.00000 |  0.75549 | i  |  6, 3, 1 |||
 21 |          | noName   |  0.00000 | -0.32517 | i  |  7, 3, 1 |||
 22 |          | noName   |  0.00000 | -0.21323 | i  |  1, 4, 1 |||
 23 |          | noName   |  0.00000 |  0.90210 | i  |  2, 4, 1 |||
 24 |          | noName   |  0.00000 |  0.01828 | i  |  3, 4, 1 |||
 25 |          | noName   |  0.00000 | -0.16282 | i  |  4, 4, 1 |||
 26 |          | noName   |  0.00000 |  0.21659 | i  |  5, 4, 1 |||
 27 |          | noName   |  0.00000 |  0.55351 | i  |  6, 4, 1 |||
 28 |          | noName   |  0.00000 | -0.83270 | i  |  7, 4, 1 |||
 29 |          | noName   |  0.00000 | -0.69762 | i  |  1, 5, 1 |||
 30 |          | noName   |  0.00000 | -0.58415 | i  |  2, 5, 1 |||
 31 |          | noName   |  0.00000 | -0.82531 | i  |  3, 5, 1 |||
 32 |          | noName   |  0.00000 | -0.36546 | i  |  4, 5, 1 |||
 33 |          | noName   |  0.80000 | -0.05637 | i  |  5, 5, 1 |||
 34 |          | noName   |  0.00000 |  0.25828 | i  |  6, 5, 1 |||
 35 |          | noName   |  0.00000 | -0.33445 | i  |  7, 5, 1 |||
 36 |          | noName   |  0.00000 | -0.84136 | i  |  1, 6, 1 |||
 37 |          | noName   |  0.00000 |  0.22904 | i  |  2, 6, 1 |||
 38 |          | noName   |  0.00000 | -0.71435 | i  |  3, 6, 1 |||
 39 |          | noName   |  0.00000 | -0.43858 | i  |  4, 6, 1 |||
 40 |          | noName   |  0.70000 |  0.64995 | i  |  5, 6, 1 |||
 41 |          | noName   |  0.00000 | -0.12186 | i  |  6, 6, 1 |||
 42 |          | noName   |  0.00000 |  0.98883 | i  |  7, 6, 1 |||
 43 |          | noName   |  0.00000 | -0.55809 | i  |  1, 7, 1 |||
 44 |          | noName   |  0.80000 | -0.78533 | i  |  2, 7, 1 |||
 45 |          | noName   |  0.00000 |  0.03800 | i  |  3, 7, 1 |||
 46 |          | noName   |  0.00000 | -0.47081 | i  |  4, 7, 1 |||
 47 |          | noName   |  0.70000 | -0.98529 | i  |  5, 7, 1 |||
 48 |          | noName   |  0.00000 |  0.15250 | i  |  6, 7, 1 |||
 49 |          | noName   |  0.00000 |  0.54112 | i  |  7, 7, 1 |||
 50 |          | noName   |  0.00000 | -0.78497 | i  |  1, 8, 1 |||
 51 |          | noName   |  0.00000 |  0.93841 | i  |  2, 8, 1 |||
 52 |          | noName   |  0.80000 | -0.26115 | i  |  3, 8, 1 |||
 53 |          | noName   |  0.70000 |  0.80798 | i  |  4, 8, 1 |||
 54 |          | noName   |  0.00000 |  0.04343 | i  |  5, 8, 1 |||
 55 |          | noName   |  0.00000 | -0.55467 | i  |  6, 8, 1 |||
 56 |          | noName   |  0.00000 | -0.39476 | i  |  7, 8, 1 |||
 57 |          | noName   |  0.00000 | -0.04306 | i  |  1, 9, 1 |||
 58 |          | noName   |  0.00000 | -0.37877 | i  |  2, 9, 1 |||
 59 |          | noName   |  0.00000 | -0.17118 | i  |  3, 9, 1 |||
 60 |          | noName   |  0.00000 |  0.52947 | i  |  4, 9, 1 |||
 61 |          | noName   |  0.00000 |  0.68322 | i  |  5, 9, 1 |||
 62 |          | noName   |  0.00000 | -0.22178 | i  |  6, 9, 1 |||
 63 |          | noName   |  0.00000 | -0.14505 | i  |  7, 9, 1 |||
 64 |          | noName   |  0.99850 |  0.42666 | h  | 11, 1, 1 |||
 65 |          | noName   |  0.98042 | -0.76112 | h  | 11, 2, 1 |||
 66 |          | noName   |  0.51006 | -0.21779 | h  | 11, 3, 1 |||
 67 |          | noName   |  0.00709 | -2.33508 | h  | 11, 4, 1 |||
 68 |          | noName   |  0.01139 | -3.26292 | o  | 15, 1, 1 |||
 69 |          | noName   |  0.00000 | -8.97798 | o  | 15, 2, 1 |||
 70 |          | noName   |  0.00000 |  0.67014 | o  | 15, 3, 1 |||
 71 |          | noName   |  0.00002 | -13.35873 | o  | 15, 4, 1 |||
 72 |          | noName   |  0.00002 | -14.16655 | o  | 15, 5, 1 |||
 73 |          | noName   |  0.01032 | -4.67137 | o  | 15, 6, 1 |||
 74 |          | noName   |  0.01862 | -4.89413 | o  | 15, 7, 1 |||
 75 |          | noName   |  0.00000 |  0.63408 | o  | 15, 8, 1 |||
 76 |          | noName   |  0.02330 | -3.08110 | o  | 15, 9, 1 |||
 77 |          | noName   |  0.96779 | -5.11084 | o  | 15,10, 1 |||
----|----------|----------|----------|----------|----|----------|----------|----------|-------


connection definition section :

target | site | source:weight
-------|------|---------------------------------------------------------------------------------------------------------------------
    64 |      |  1: 0.46983,  2:-0.81719,  3:-0.83654,  4: 0.50615,  5: 0.69396,  6: 0.27561,  7:-0.28074,  8:-0.04996,  9:-0.78867,
                10: 1.19801, 11: 0.94067, 12: 0.60262, 13: 3.18291, 14:-0.54137, 15:-0.37938, 16:-1.17900, 17:-0.31693, 18:-0.02400,
                19:-0.01365, 20:-2.99085, 21:-0.65508, 22:-0.32945, 23:-1.96402, 24: 0.00381, 25: 1.33304, 26: 0.98022, 27:-1.63723,
                28: 0.82598, 29:-0.64147, 30:-0.23641, 31: 0.30468, 32: 2.30720, 33: 1.22048, 34:-0.46122, 35:-0.44511, 36:-0.40092,
                37:-0.60920, 38: 0.63927, 39: 0.87267, 40: 0.31108, 41:-3.15775, 42:-0.47807, 43:-0.42094, 44: 0.95950, 45: 0.71892,
                46: 0.48334, 47: 0.80224, 48:-3.09216, 49: 0.84210, 50:-0.01749, 51: 0.14575, 52:-0.19152, 53:-0.42262, 54:-0.75594,
                55: 1.30810, 56: 0.28654, 57: 0.03018, 58:-0.13694, 59:-0.71856, 60: 0.94995, 61:-0.85076, 62:-0.98962, 63: 0.82958
    65 |      |  1: 0.51067,  2:-0.62468,  3:-0.79656,  4:-0.15372,  5: 0.35588,  6: 0.05484,  7: 0.64843,  8: 0.67437,  9:-3.53739,
                10: 0.58855, 11: 0.86059, 12: 3.22278, 13:-2.45987, 14: 0.07675, 15:-0.55864, 16: 1.41665, 17:-0.59075, 18:-0.84840,
                19: 0.09919, 20:-2.24809, 21: 0.91357, 22: 0.18699, 23:-1.03047, 24:-0.41124, 25:-0.36621, 26: 1.15768, 27: 0.02180,
                28: 0.85687, 29: 0.68865, 30:-2.29493, 31:-3.53589, 32:-4.39770, 33: 1.16719, 34: 4.44569, 35: 0.78552, 36:-0.28117,
                37:-0.65476, 38:-0.23685, 39:-1.09674, 40: 5.59151, 41: 4.95919, 42:-0.23978, 43:-0.13346, 44: 0.10347, 45:-0.46580,
                46:-0.98180, 47: 0.69761, 48:-0.86146, 49: 0.58824, 50: 0.49266, 51: 4.27700, 52:-1.39836, 53:-1.49151, 54: 0.81734,
                55:-1.09212, 56:-0.89172, 57: 0.82250, 58: 0.52580, 59:-0.26304, 60:-0.43522, 61:-0.57750, 62:-0.35087, 63:-0.89972
    66 |      |  1:-0.50237,  2:-0.19236,  3:-0.71026,  4: 0.75054,  5: 0.21622,  6: 0.56731,  7:-0.60631,  8:-0.09659,  9: 1.08582,
                10: 0.37604, 11: 0.45979, 12:-0.03793, 13: 0.33823, 14:-0.35466, 15: 0.92639, 16:-0.06386, 17:-0.60491, 18: 0.78813,
                19:-1.06348, 20: 0.60818, 21:-0.92792, 22:-0.73833, 23:-1.55092, 24: 0.10538, 25: 0.19856, 26:-0.85722, 27:-0.29166,
                28:-0.84564, 29:-0.39079, 30:-0.98258, 31:-1.15065, 32:-0.82301, 33:-2.25338, 34:-1.10680, 35: 0.01755, 36:-0.46257,
                37: 1.25292, 38: 0.83306, 39:-0.68108, 40:-2.25559, 41: 0.34567, 42:-0.05814, 43:-0.41050, 44:-1.21135, 45: 0.05020,
                46: 0.69003, 47:-0.86596, 48:-0.69929, 49: 0.65844, 50: 0.10880, 51:-0.99302, 52: 3.22061, 53: 4.66428, 54: 4.93188,
                55: 0.65138, 56:-0.09738, 57: 0.83776, 58: 0.09769, 59:-0.26945, 60: 0.76873, 61: 0.31944, 62:-0.75494, 63: 0.01480
    67 |      |  1:-0.44041,  2: 0.09293,  3: 0.58257,  4:-0.26164,  5: 0.71624,  6: 0.48869,  7:-0.07230,  8:-0.28068,  9: 4.46565,
                10:-0.49009, 11:-1.35733, 12: 0.28105, 13: 1.71135, 14:-0.03482, 15: 0.67333, 16:-0.44087, 17:-0.98059, 18:-1.52986,
                19:-1.33148, 20:-1.73229, 21:-0.48808, 22:-0.17942, 23: 1.59707, 24:-0.11454, 25:-1.37020, 26:-0.21115, 27: 3.82244,
                28: 0.61327, 29:-0.56346, 30: 0.16705, 31: 0.32242, 32:-0.55079, 33: 0.88179, 34: 0.75009, 35: 0.91113, 36: 0.07450,
                37:-0.68110, 38:-0.97522, 39:-1.27788, 40:-1.56237, 41: 0.24426, 42:-0.69481, 43:-0.96692, 44:-0.49098, 45: 0.83343,
                46:-0.34552, 47:-0.91394, 48:-1.03424, 49: 0.93164, 50:-0.80584, 51: 3.84879, 52: 0.56725, 53: 0.46521, 54: 0.62869,
                55: 0.55163, 56:-0.49846, 57:-0.42009, 58: 0.06705, 59: 0.79736, 60:-0.04386, 61:-0.34367, 62: 0.34916, 63:-0.07932
    68 |      | 64:-4.62095, 65: 7.97676, 66:-8.63758, 67:-0.21091
    69 |      | 64:-7.18823, 65:-7.52657, 66: 6.43029, 67: 5.96071
    70 |      | 64:-7.55033, 65:-7.77705, 66: 3.33234, 67:-7.46748
    71 |      | 64:-5.60248, 65: 6.20933, 66: 4.10789, 67: 6.07905
    72 |      | 64: 5.53937, 65:-5.20926, 66: 5.71677, 67: 5.71477
    73 |      | 64: 7.31936, 65:-3.33897, 66:-7.71277, 67: 1.05917
    74 |      | 64:-6.88569, 65: 7.47197, 66: 1.04584, 67:-7.68672
    75 |      | 64:-7.12615, 65:-7.01998, 66:-7.27201, 67: 3.02025
    76 |      | 64: 6.46257, 65:-7.30831, 66: 0.21879, 67:-7.62704
    77 |      | 64: 5.47776, 65: 5.31539, 66:-4.17373, 67:-5.42547
-------|------|---------------------------------------------------------------------------------------------------------------------


layer definition section :

layer | unitNo.
------|----------------------------------------------------------------------------------------------------------------------------
    2 | 64, 65, 66, 67
    3 | 68, 69, 70, 71, 72, 73, 74, 75, 76, 77
------|----------------------------------------------------------------------------------------------------------------------------
