SNNS network definition file V1.4-3D
generated at Fri Nov 11 14:54:43 2016

network name : 63_4_10 v3
source files :
no. of units : 77
no. of connections : 292
no. of unit types : 0
no. of site types : 0


learning function : BackpropMomentum
update function   : Topological_Order


unit default section :

act      | bias     | st | subnet | layer | act func     | out func
---------|----------|----|--------|-------|--------------|-------------
 0.00000 |  0.00000 | h  |      0 |     1 | Act_Logistic | Out_Identity 
---------|----------|----|--------|-------|--------------|-------------


unit definition section :

no. | typeName | unitName | act      | bias     | st | position | act func | out func | sites
----|----------|----------|----------|----------|----|----------|----------|----------|-------
  1 |          | noName   |  0.00000 |  0.35423 | i  |  1, 1, 1 |||
  2 |          | noName   |  0.00000 | -0.71679 | i  |  2, 1, 1 |||
  3 |          | noName   |  0.00000 |  0.53075 | i  |  3, 1, 1 |||
  4 |          | noName   |  0.00000 | -0.38713 | i  |  4, 1, 1 |||
  5 |          | noName   |  0.00000 |  0.10630 | i  |  5, 1, 1 |||
  6 |          | noName   |  0.00000 | -0.23496 | i  |  6, 1, 1 |||
  7 |          | noName   |  0.00000 | -0.70336 | i  |  7, 1, 1 |||
  8 |          | noName   |  0.00000 |  0.40385 | i  |  1, 2, 1 |||
  9 |          | noName   |  0.00000 | -0.70049 | i  |  2, 2, 1 |||
 10 |          | noName   |  0.80000 |  0.99109 | i  |  3, 2, 1 |||
 11 |          | noName   |  0.70000 |  0.69024 | i  |  4, 2, 1 |||
 12 |          | noName   |  0.80000 |  0.54381 | i  |  5, 2, 1 |||
 13 |          | noName   |  0.70000 | -0.68767 | i  |  6, 2, 1 |||
 14 |          | noName   |  0.00000 | -0.52898 | i  |  7, 2, 1 |||
 15 |          | noName   |  0.00000 |  0.24534 | i  |  1, 3, 1 |||
 16 |          | noName   |  0.00000 | -0.75933 | i  |  2, 3, 1 |||
 17 |          | noName   |  1.00000 |  0.09214 | i  |  3, 3, 1 |||
 18 |          | noName   |  0.00000 | -0.35063 | i  |  4, 3, 1 |||
 19 |          | noName   |  0.80000 |  0.77074 | i  |  5, 3, 1 |||
 20 |          | noName   |  0.00000 |  0.64342 | i  |  6, 3, 1 |||
 21 |          | noName   |  0.00000 |  0.46660 | i  |  7, 3, 1 |||
 22 |          | noName   |  0.00000 |  0.21940 | i  |  1, 4, 1 |||
 23 |          | noName   |  0.00000 | -0.34397 | i  |  2, 4, 1 |||
 24 |          | noName   |  0.00000 | -0.82604 | i  |  3, 4, 1 |||
 25 |          | noName   |  0.00000 |  0.39726 | i  |  4, 4, 1 |||
 26 |          | noName   |  0.00000 |  0.61406 | i  |  5, 4, 1 |||
 27 |          | noName   |  0.00000 | -0.34971 | i  |  6, 4, 1 |||
 28 |          | noName   |  0.00000 |  0.44188 | i  |  7, 4, 1 |||
 29 |          | noName   |  0.00000 |  0.48643 | i  |  1, 5, 1 |||
 30 |          | noName   |  0.00000 | -0.26536 | i  |  2, 5, 1 |||
 31 |          | noName   |  0.00000 |  0.92553 | i  |  3, 5, 1 |||
 32 |          | noName   |  0.00000 |  0.30290 | i  |  4, 5, 1 |||
 33 |          | noName   |  0.80000 | -0.94958 | i  |  5, 5, 1 |||
 34 |          | noName   |  0.00000 | -0.01968 | i  |  6, 5, 1 |||
 35 |          | noName   |  0.00000 | -0.76171 | i  |  7, 5, 1 |||
 36 |          | noName   |  0.00000 | -0.37510 | i  |  1, 6, 1 |||
 37 |          | noName   |  0.00000 |  0.07248 | i  |  2, 6, 1 |||
 38 |          | noName   |  0.00000 |  0.64104 | i  |  3, 6, 1 |||
 39 |          | noName   |  0.00000 |  0.00131 | i  |  4, 6, 1 |||
 40 |          | noName   |  0.70000 | -0.67656 | i  |  5, 6, 1 |||
 41 |          | noName   |  0.00000 |  0.34623 | i  |  6, 6, 1 |||
 42 |          | noName   |  0.00000 | -0.28416 | i  |  7, 6, 1 |||
 43 |          | noName   |  0.00000 | -0.92267 | i  |  1, 7, 1 |||
 44 |          | noName   |  0.80000 | -0.77105 | i  |  2, 7, 1 |||
 45 |          | noName   |  0.00000 | -0.87677 | i  |  3, 7, 1 |||
 46 |          | noName   |  0.00000 |  0.22019 | i  |  4, 7, 1 |||
 47 |          | noName   |  0.70000 |  0.10880 | i  |  5, 7, 1 |||
 48 |          | noName   |  0.00000 | -0.65105 | i  |  6, 7, 1 |||
 49 |          | noName   |  0.00000 |  0.57756 | i  |  7, 7, 1 |||
 50 |          | noName   |  0.00000 |  0.04331 | i  |  1, 8, 1 |||
 51 |          | noName   |  0.00000 | -0.80547 | i  |  2, 8, 1 |||
 52 |          | noName   |  0.80000 | -0.91327 | i  |  3, 8, 1 |||
 53 |          | noName   |  0.70000 |  0.39848 | i  |  4, 8, 1 |||
 54 |          | noName   |  0.00000 | -0.58086 | i  |  5, 8, 1 |||
 55 |          | noName   |  0.00000 |  0.72729 | i  |  6, 8, 1 |||
 56 |          | noName   |  0.00000 |  0.98029 | i  |  7, 8, 1 |||
 57 |          | noName   |  0.00000 |  0.82482 | i  |  1, 9, 1 |||
 58 |          | noName   |  0.00000 | -0.92669 | i  |  2, 9, 1 |||
 59 |          | noName   |  0.00000 | -0.79687 | i  |  3, 9, 1 |||
 60 |          | noName   |  0.00000 |  0.52239 | i  |  4, 9, 1 |||
 61 |          | noName   |  0.00000 | -0.56639 | i  |  5, 9, 1 |||
 62 |          | noName   |  0.00000 | -0.89209 | i  |  6, 9, 1 |||
 63 |          | noName   |  0.00000 |  0.81695 | i  |  7, 9, 1 |||
 64 |          | noName   |  0.50565 |  0.93875 | h  | 11, 1, 1 |||
 65 |          | noName   |  0.35086 |  0.18845 | h  | 11, 2, 1 |||
 66 |          | noName   |  0.03329 | -3.42319 | h  | 11, 3, 1 |||
 67 |          | noName   |  0.99586 |  1.71231 | h  | 11, 4, 1 |||
 68 |          | noName   |  0.00000 | -8.45046 | o  | 15, 1, 1 |||
 69 |          | noName   |  0.00000 | -9.69566 | o  | 15, 2, 1 |||
 70 |          | noName   |  0.01334 | -6.15762 | o  | 15, 3, 1 |||
 71 |          | noName   |  0.01865 | -10.51328 | o  | 15, 4, 1 |||
 72 |          | noName   |  0.00000 | -0.92370 | o  | 15, 5, 1 |||
 73 |          | noName   |  0.01277 |  4.28160 | o  | 15, 6, 1 |||
 74 |          | noName   |  0.00128 | -12.85097 | o  | 15, 7, 1 |||
 75 |          | noName   |  0.00152 | -3.72182 | o  | 15, 8, 1 |||
 76 |          | noName   |  0.01783 | -4.73608 | o  | 15, 9, 1 |||
 77 |          | noName   |  0.95565 | -5.02830 | o  | 15,10, 1 |||
----|----------|----------|----------|----------|----|----------|----------|----------|-------


connection definition section :

target | site | source:weight
-------|------|---------------------------------------------------------------------------------------------------------------------
    64 |      |  1:-0.00534,  2:-0.31260,  3:-0.34568,  4: 0.29667,  5: 0.70403,  6:-0.41252,  7: 0.29514,  8: 0.07327,  9: 0.52347,
                10:-0.54254, 11:-0.94704, 12:-0.36815, 13: 0.31560, 14:-0.65239, 15:-0.23685, 16:-0.45570, 17:-0.15458, 18:-1.18354,
                19: 0.57686, 20:-0.69607, 21:-0.71612, 22:-0.92560, 23:-0.99027, 24: 0.58190, 25: 0.10551, 26: 1.10664, 27: 1.82678,
                28: 0.66338, 29:-0.78112, 30: 0.57991, 31:-2.79145, 32:-2.30048, 33:-0.83528, 34: 4.39250, 35: 0.41411, 36: 0.22239,
                37: 0.81818, 38: 0.95276, 39:-0.62257, 40: 5.05690, 41: 5.54717, 42:-0.94549, 43: 0.27427, 44:-0.00685, 45: 0.16605,
                46:-1.18280, 47: 0.85184, 48: 1.58141, 49: 0.63646, 50:-0.92108, 51: 1.18504, 52:-2.64229, 53:-2.00153, 54:-0.80847,
                55: 0.26748, 56:-0.48161, 57: 0.77459, 58:-0.90545, 59:-0.15928, 60:-0.43150, 61: 0.23130, 62: 0.46910, 63: 0.78338
    65 |      |  1: 0.02744,  2:-0.06992,  3: 0.21531,  4:-0.19114,  5:-0.60552,  6:-0.60277,  7: 0.53502,  8: 0.40922,  9:-0.70304,
                10: 0.41810, 11: 0.73628, 12:-0.00640, 13:-0.59511, 14:-0.24509, 15:-0.60808, 16:-0.72943, 17:-0.74627, 18: 1.16467,
                19:-1.60337, 20:-0.98226, 21: 0.47233, 22: 0.08176, 23:-2.21541, 24: 0.14176, 25: 0.86018, 26:-1.20527, 27:-0.19715,
                28:-0.24613, 29:-0.57744, 30: 0.45053, 31: 1.03759, 32: 1.06279, 33:-0.85220, 34:-3.99827, 35:-0.18174, 36:-0.72472,
                37: 2.23951, 38:-0.10575, 39: 2.06630, 40: 3.37497, 41: 2.92951, 42:-0.52751, 43:-0.31364, 44:-0.82420, 45:-0.69793,
                46: 1.52844, 47:-0.70183, 48:-0.10943, 49:-0.43681, 50:-0.47362, 51:-1.96571, 52: 0.01354, 53: 0.36595, 54:-0.49409,
                55:-4.06882, 56:-0.38340, 57:-0.12803, 58: 0.18827, 59:-0.28599, 60:-0.45195, 61: 0.30686, 62:-0.23771, 63:-0.34336
    66 |      |  1: 0.87841,  2: 0.73406,  3: 0.04569,  4: 0.65343,  5: 0.66607,  6:-0.27061,  7: 0.41069,  8: 0.22819,  9:-2.55072,
                10:-1.11501, 11: 1.69466, 12: 3.20149, 13:-4.76383, 14:-0.14695, 15:-0.34874, 16: 0.10827, 17: 0.99298, 18:-1.79914,
                19:-0.94251, 20: 1.14485, 21: 0.77013, 22:-0.97345, 23: 0.41745, 24:-0.08005, 25:-0.90773, 26:-2.01411, 27: 0.52844,
                28:-0.90777, 29: 0.96081, 30: 0.60111, 31: 2.19380, 32:-1.47417, 33:-0.22282, 34:-1.20119, 35:-0.21714, 36:-0.21250,
                37: 1.23178, 38: 0.50078, 39:-0.65560, 40:-0.93764, 41: 0.40806, 42: 0.81750, 43:-0.22922, 44:-0.36007, 45: 0.64476,
                46:-1.42351, 47:-2.48338, 48: 0.76369, 49: 0.53374, 50:-0.14170, 51: 0.22943, 52: 1.72310, 53: 2.53890, 54: 2.42268,
                55: 2.01774, 56:-0.15860, 57: 0.41795, 58:-0.54796, 59:-0.46995, 60: 0.34001, 61: 0.02353, 62:-0.10221, 63: 0.70635
    67 |      |  1:-0.02676,  2:-0.17814,  3:-0.02243,  4: 0.33427,  5: 0.00693,  6: 0.11911,  7:-0.68322,  8:-0.65349,  9: 1.68019,
                10: 0.03053, 11:-0.62106, 12: 2.12795, 13: 0.95510, 14:-0.19779, 15: 0.06064, 16: 0.40516, 17: 0.73876, 18: 0.28311,
                19: 1.71113, 20: 1.36638, 21:-0.08444, 22: 0.69402, 23: 0.29143, 24: 0.98297, 25:-0.58043, 26: 0.81508, 27: 0.31436,
                28:-0.94263, 29: 0.69677, 30:-1.39640, 31:-4.12681, 32:-3.37385, 33:-2.95824, 34: 0.66784, 35:-0.36003, 36:-0.23710,
                37: 0.34704, 38: 0.80749, 39:-0.28086, 40:-0.43122, 41:-2.54364, 42:-0.06302, 43:-0.01553, 44: 0.35376, 45:-0.69280,
                46:-1.52815, 47: 2.04470, 48: 0.74658, 49:-0.27628, 50:-0.45262, 51:-1.37718, 52: 0.48804, 53: 0.37988, 54: 0.18691,
                55:-2.68279, 56:-0.24088, 57:-0.28684, 58: 0.98364, 59: 0.99597, 60: 0.82311, 61: 0.74462, 62: 0.78570, 63: 0.20194
    68 |      | 64: 4.78392, 65:-4.89191, 66: 7.33655, 67:-7.35393
    69 |      | 64:-4.15505, 65: 5.84821, 66: 9.64157, 67:-6.88791
    70 |      | 64:-8.53580, 65:-2.94004, 66: 3.83519, 67: 7.10382
    71 |      | 64: 4.96574, 65:-7.52814, 66: 2.41657, 67: 6.62776
    72 |      | 64:-10.62621, 65:-8.21537, 66: 6.15819, 67:-6.62334
    73 |      | 64:-7.59404, 65:-3.04468, 66:-11.65261, 67:-3.34692
    74 |      | 64: 5.85305, 65: 7.36843, 66: 2.51924, 67: 0.56771
    75 |      | 64: 7.41376, 65:-2.43278, 66:-7.50251, 67:-5.43049
    76 |      | 64:-7.43495, 65: 8.61032, 66:-3.89518, 67: 1.60200
    77 |      | 64: 1.13953, 65: 0.06588, 66:-8.06411, 67: 7.80005
-------|------|---------------------------------------------------------------------------------------------------------------------


layer definition section :

layer | unitNo.
------|----------------------------------------------------------------------------------------------------------------------------
    2 | 64, 65, 66, 67
    3 | 68, 69, 70, 71, 72, 73, 74, 75, 76, 77
------|----------------------------------------------------------------------------------------------------------------------------
