SNNS network definition file V1.4-3D
generated at Fri Nov 11 15:29:01 2016

network name : 63_4_10 v5
source files :
no. of units : 77
no. of connections : 292
no. of unit types : 0
no. of site types : 0


learning function : BackpropMomentum
update function   : Topological_Order


unit default section :

act      | bias     | st | subnet | layer | act func     | out func
---------|----------|----|--------|-------|--------------|-------------
 0.00000 |  0.00000 | h  |      0 |     1 | Act_Logistic | Out_Identity 
---------|----------|----|--------|-------|--------------|-------------


unit definition section :

no. | typeName | unitName | act      | bias     | st | position | act func | out func | sites
----|----------|----------|----------|----------|----|----------|----------|----------|-------
  1 |          | noName   |  0.00000 | -0.88794 | i  |  1, 1, 1 |||
  2 |          | noName   |  0.00000 | -0.34098 | i  |  2, 1, 1 |||
  3 |          | noName   |  0.00000 |  0.90448 | i  |  3, 1, 1 |||
  4 |          | noName   |  0.00000 | -0.35862 | i  |  4, 1, 1 |||
  5 |          | noName   |  0.00000 | -0.38475 | i  |  5, 1, 1 |||
  6 |          | noName   |  0.00000 | -0.67406 | i  |  6, 1, 1 |||
  7 |          | noName   |  0.00000 | -0.26292 | i  |  7, 1, 1 |||
  8 |          | noName   |  0.00000 | -0.44713 | i  |  1, 2, 1 |||
  9 |          | noName   |  0.00000 |  0.92224 | i  |  2, 2, 1 |||
 10 |          | noName   |  0.70000 | -0.52757 | i  |  3, 2, 1 |||
 11 |          | noName   |  0.80000 | -0.47838 | i  |  4, 2, 1 |||
 12 |          | noName   |  0.70000 |  0.24967 | i  |  5, 2, 1 |||
 13 |          | noName   |  0.00000 |  0.51207 | i  |  6, 2, 1 |||
 14 |          | noName   |  0.00000 |  0.16562 | i  |  7, 2, 1 |||
 15 |          | noName   |  0.00000 | -0.45799 | i  |  1, 3, 1 |||
 16 |          | noName   |  0.00000 |  0.42430 | i  |  2, 3, 1 |||
 17 |          | noName   |  0.00000 | -0.32420 | i  |  3, 3, 1 |||
 18 |          | noName   |  0.80000 |  0.42827 | i  |  4, 3, 1 |||
 19 |          | noName   |  0.00000 | -0.95685 | i  |  5, 3, 1 |||
 20 |          | noName   |  0.00000 |  0.40110 | i  |  6, 3, 1 |||
 21 |          | noName   |  0.00000 |  0.26139 | i  |  7, 3, 1 |||
 22 |          | noName   |  0.00000 | -0.74725 | i  |  1, 4, 1 |||
 23 |          | noName   |  0.00000 |  0.43974 | i  |  2, 4, 1 |||
 24 |          | noName   |  0.00000 | -0.23820 | i  |  3, 4, 1 |||
 25 |          | noName   |  0.70000 |  0.04788 | i  |  4, 4, 1 |||
 26 |          | noName   |  0.00000 |  0.72826 | i  |  5, 4, 1 |||
 27 |          | noName   |  0.00000 |  0.18387 | i  |  6, 4, 1 |||
 28 |          | noName   |  0.00000 | -0.00967 | i  |  7, 4, 1 |||
 29 |          | noName   |  0.00000 | -0.93841 | i  |  1, 5, 1 |||
 30 |          | noName   |  0.00000 |  0.34355 | i  |  2, 5, 1 |||
 31 |          | noName   |  1.00000 |  0.10697 | i  |  3, 5, 1 |||
 32 |          | noName   |  0.80000 | -0.30082 | i  |  4, 5, 1 |||
 33 |          | noName   |  0.00000 |  0.14518 | i  |  5, 5, 1 |||
 34 |          | noName   |  0.00000 |  0.52855 | i  |  6, 5, 1 |||
 35 |          | noName   |  0.00000 | -0.95471 | i  |  7, 5, 1 |||
 36 |          | noName   |  0.00000 | -0.99872 | i  |  1, 6, 1 |||
 37 |          | noName   |  0.00000 |  0.09391 | i  |  2, 6, 1 |||
 38 |          | noName   |  0.00000 |  0.49614 | i  |  3, 6, 1 |||
 39 |          | noName   |  0.00000 | -0.43553 | i  |  4, 6, 1 |||
 40 |          | noName   |  0.00000 |  0.58806 | i  |  5, 6, 1 |||
 41 |          | noName   |  0.00000 |  0.67046 | i  |  6, 6, 1 |||
 42 |          | noName   |  0.00000 |  0.44761 | i  |  7, 6, 1 |||
 43 |          | noName   |  0.00000 | -0.40709 | i  |  1, 7, 1 |||
 44 |          | noName   |  0.00000 |  0.07730 | i  |  2, 7, 1 |||
 45 |          | noName   |  0.00000 | -0.18882 | i  |  3, 7, 1 |||
 46 |          | noName   |  0.80000 | -0.79644 | i  |  4, 7, 1 |||
 47 |          | noName   |  0.00000 | -0.22123 | i  |  5, 7, 1 |||
 48 |          | noName   |  0.00000 | -0.80657 | i  |  6, 7, 1 |||
 49 |          | noName   |  0.00000 |  0.33641 | i  |  7, 7, 1 |||
 50 |          | noName   |  0.00000 | -0.67632 | i  |  1, 8, 1 |||
 51 |          | noName   |  0.00000 |  0.38188 | i  |  2, 8, 1 |||
 52 |          | noName   |  0.70000 |  0.34153 | i  |  3, 8, 1 |||
 53 |          | noName   |  0.80000 |  0.47703 | i  |  4, 8, 1 |||
 54 |          | noName   |  0.70000 |  0.77648 | i  |  5, 8, 1 |||
 55 |          | noName   |  0.00000 |  0.51317 | i  |  6, 8, 1 |||
 56 |          | noName   |  0.00000 |  0.13901 | i  |  7, 8, 1 |||
 57 |          | noName   |  0.00000 | -0.47014 | i  |  1, 9, 1 |||
 58 |          | noName   |  0.00000 | -0.77709 | i  |  2, 9, 1 |||
 59 |          | noName   |  0.00000 | -0.46574 | i  |  3, 9, 1 |||
 60 |          | noName   |  0.00000 |  0.46690 | i  |  4, 9, 1 |||
 61 |          | noName   |  0.00000 |  0.95495 | i  |  5, 9, 1 |||
 62 |          | noName   |  0.00000 | -0.02420 | i  |  6, 9, 1 |||
 63 |          | noName   |  0.00000 | -0.57018 | i  |  7, 9, 1 |||
 64 |          | noName   |  0.00050 |  1.75167 | h  | 11, 1, 1 |||
 65 |          | noName   |  0.99730 | -0.08344 | h  | 11, 2, 1 |||
 66 |          | noName   |  0.00704 | -1.92037 | h  | 11, 3, 1 |||
 67 |          | noName   |  0.99822 | -1.19709 | h  | 11, 4, 1 |||
 68 |          | noName   |  0.04139 |  0.69889 | o  | 15, 1, 1 |||
 69 |          | noName   |  0.06447 | -7.40959 | o  | 15, 2, 1 |||
 70 |          | noName   |  0.03590 | -6.79100 | o  | 15, 3, 1 |||
 71 |          | noName   |  0.00001 | -6.42949 | o  | 15, 4, 1 |||
 72 |          | noName   |  0.04552 | -0.95533 | o  | 15, 5, 1 |||
 73 |          | noName   |  0.00010 |  0.85450 | o  | 15, 6, 1 |||
 74 |          | noName   |  0.05245 | -11.87980 | o  | 15, 7, 1 |||
 75 |          | noName   |  0.00002 | -0.62480 | o  | 15, 8, 1 |||
 76 |          | noName   |  0.94812 | -5.73485 | o  | 15, 9, 1 |||
 77 |          | noName   |  0.00006 | -6.64960 | o  | 15,10, 1 |||
----|----------|----------|----------|----------|----|----------|----------|----------|-------


connection definition section :

target | site | source:weight
-------|------|---------------------------------------------------------------------------------------------------------------------
    64 |      |  1: 0.22581,  2:-0.30296,  3:-0.03476,  4: 0.99701,  5:-0.25266,  6: 0.89599,  7:-0.55876,  8: 0.26054,  9: 0.90636,
                10: 0.06798, 11: 0.52225, 12: 0.61241, 13: 2.22621, 14:-0.90271, 15: 0.31150, 16: 0.74226, 17:-0.80004, 18:-0.58452,
                19: 0.35713, 20: 0.42901, 21: 0.46428, 22: 0.98907, 23: 0.99207, 24: 0.78661, 25:-0.73968, 26: 1.53382, 27:-0.85492,
                28: 0.23191, 29: 0.43980, 30: 0.09051, 31:-4.63698, 32:-2.33809, 33:-2.98611, 34: 0.45705, 35: 0.22898, 36: 0.43358,
                37: 0.97567, 38: 0.77209, 39:-1.82308, 40: 0.89221, 41:-1.06967, 42:-0.02383, 43:-0.09726, 44: 1.59728, 45: 0.15757,
                46:-1.20408, 47: 0.95338, 48: 0.40777, 49: 0.49950, 50:-0.83709, 51:-1.29847, 52: 0.20258, 53:-1.96688, 54:-0.50741,
                55:-4.33068, 56:-0.17008, 57:-0.13218, 58:-0.46055, 59:-0.09397, 60:-0.55004, 61:-0.47734, 62: 0.28349, 63: 0.78619
    65 |      |  1:-0.10135,  2:-0.17661,  3:-0.53587,  4: 0.92883,  5: 0.47874,  6:-0.31657,  7: 0.44609,  8: 0.20676,  9:-2.16948,
                10: 1.00660, 11: 1.67569, 12: 1.12170, 13:-5.30180, 14: 0.06333, 15: 0.43101, 16: 0.53234, 17:-0.96979, 18: 0.39770,
                19:-1.25931, 20: 2.06876, 21: 0.77929, 22: 0.40477, 23:-0.75409, 24:-0.79290, 25:-0.22152, 26:-1.13617, 27: 0.20012,
                28:-0.90185, 29:-0.22764, 30: 0.23731, 31: 1.44120, 32:-0.06060, 33:-1.79937, 34:-2.15657, 35: 0.36052, 36: 0.91284,
                37: 1.25155, 38: 0.50175, 39:-0.39459, 40:-0.38209, 41: 0.51506, 42: 0.32597, 43: 0.95202, 44:-1.86965, 45: 0.81481,
                46: 0.88902, 47:-1.01970, 48: 1.15787, 49: 0.15030, 50:-0.69561, 51:-1.08595, 52: 0.65534, 53: 0.10002, 54: 0.51343,
                55:-0.89205, 56: 0.66863, 57: 0.34056, 58: 0.71728, 59:-0.10294, 60: 0.96594, 61: 0.32023, 62: 0.41752, 63:-0.88354
    66 |      |  1: 0.49382,  2: 0.94830,  3: 0.67071,  4:-0.37175,  5:-0.76470,  6:-0.58898,  7:-0.41643,  8: 0.89557,  9: 2.78345,
                10:-1.20806, 11:-0.82319, 12:-1.29281, 13: 0.43692, 14:-0.58855, 15: 0.85748, 16: 0.12229, 17:-0.22001, 18:-1.25174,
                19: 1.41147, 20:-1.65205, 21: 0.88214, 22: 0.47252, 23:-0.88074, 24:-0.22257, 25:-0.65852, 26: 1.93837, 27: 2.74175,
                28:-0.34465, 29:-0.13993, 30: 0.27674, 31:-0.36710, 32:-1.93340, 33: 0.60495, 34:-0.46643, 35:-0.79052, 36:-0.86962,
                37:-1.01912, 38:-0.09207, 39:-1.55228, 40: 3.59528, 41: 4.59528, 42:-0.46782, 43: 0.63518, 44: 0.05631, 45: 0.83361,
                46:-1.52243, 47: 0.65906, 48: 0.07869, 49: 0.40226, 50: 0.40825, 51: 0.66365, 52: 1.21171, 53: 2.77919, 54: 1.29056,
                55:-1.28507, 56:-0.09098, 57:-0.81365, 58: 0.04147, 59:-0.34806, 60: 0.58104, 61: 0.64830, 62: 0.47563, 63: 0.12790
    67 |      |  1:-0.62529,  2: 0.98175,  3:-0.14560,  4: 0.28684,  5: 0.44285,  6: 0.80151,  7: 0.68590,  8: 0.83068,  9:-0.56290,
                10: 0.15269, 11: 0.97104, 12:-0.21504, 13: 0.74370, 14: 0.48924, 15:-0.45201, 16: 0.06456, 17:-0.93756, 18: 1.10453,
                19: 0.86885, 20:-0.95258, 21:-0.55144, 22:-0.83508, 23:-1.54582, 24: 0.25138, 25: 0.89375, 26:-0.05043, 27:-2.22023,
                28:-0.03006, 29: 0.50377, 30: 0.42289, 31: 0.03518, 32: 0.96433, 33: 0.63406, 34:-3.18051, 35:-0.45463, 36: 0.77776,
                37: 0.32118, 38: 0.21323, 39: 0.13417, 40: 3.65593, 41: 1.66148, 42: 0.62999, 43:-0.15317, 44:-0.46392, 45: 0.26481,
                46: 1.31970, 47: 0.73336, 48:-1.32231, 49:-0.63146, 50: 0.13456, 51:-1.90532, 52: 1.26992, 53: 2.32866, 54: 0.95869,
                55: 1.09410, 56:-0.19498, 57:-0.35655, 58:-0.20267, 59: 0.31516, 60: 0.86175, 61: 0.80773, 62:-0.44462, 63: 0.52733
    68 |      | 64:-4.36465, 65: 3.01859, 66:-4.98101, 67:-6.82656
    69 |      | 64:-6.16171, 65: 4.90190, 66: 5.46415, 67:-0.18967
    70 |      | 64: 5.67760, 65: 4.43751, 66:-6.24180, 67:-0.88559
    71 |      | 64: 4.33103, 65: 1.66313, 66: 3.67105, 67:-6.62488
    72 |      | 64:-5.46931, 65:-7.03346, 66:-2.26027, 67: 4.95416
    73 |      | 64: 3.93919, 65:-6.37679, 66:-5.25634, 67:-3.67677
    74 |      | 64: 2.43993, 65: 4.55538, 66: 2.69506, 67: 4.43032
    75 |      | 64:-3.11444, 65:-5.14637, 66: 4.27007, 67:-5.23593
    76 |      | 64:-3.63583, 65: 3.77650, 66:-5.12224, 67: 4.92073
    77 |      | 64: 4.02138, 65:-5.88535, 66: 2.81889, 67: 2.75634
-------|------|---------------------------------------------------------------------------------------------------------------------


layer definition section :

layer | unitNo.
------|----------------------------------------------------------------------------------------------------------------------------
    2 | 64, 65, 66, 67
    3 | 68, 69, 70, 71, 72, 73, 74, 75, 76, 77
------|----------------------------------------------------------------------------------------------------------------------------
