SNNS network definition file V1.4-3D
generated at Fri Nov 11 16:26:09 2016

network name : 63_8_10 v2
source files :
no. of units : 81
no. of connections : 584
no. of unit types : 0
no. of site types : 0


learning function : BackpropMomentum
update function   : Topological_Order


unit default section :

act      | bias     | st | subnet | layer | act func     | out func
---------|----------|----|--------|-------|--------------|-------------
 0.00000 |  0.00000 | h  |      0 |     1 | Act_Logistic | Out_Identity 
---------|----------|----|--------|-------|--------------|-------------


unit definition section :

no. | typeName | unitName | act      | bias     | st | position | act func | out func | sites
----|----------|----------|----------|----------|----|----------|----------|----------|-------
  1 |          | noName   |  0.00000 | -0.61126 | i  |  1, 1, 1 |||
  2 |          | noName   |  0.00000 |  0.87103 | i  |  2, 1, 1 |||
  3 |          | noName   |  0.00000 | -0.22306 | i  |  3, 1, 1 |||
  4 |          | noName   |  0.00000 | -0.40587 | i  |  4, 1, 1 |||
  5 |          | noName   |  0.00000 | -0.24082 | i  |  5, 1, 1 |||
  6 |          | noName   |  0.00000 | -0.25083 | i  |  6, 1, 1 |||
  7 |          | noName   |  0.00000 | -0.68102 | i  |  7, 1, 1 |||
  8 |          | noName   |  0.00000 |  0.00485 | i  |  1, 2, 1 |||
  9 |          | noName   |  0.00000 |  0.71722 | i  |  2, 2, 1 |||
 10 |          | noName   |  0.80000 |  0.40214 | i  |  3, 2, 1 |||
 11 |          | noName   |  0.70000 |  0.48613 | i  |  4, 2, 1 |||
 12 |          | noName   |  0.80000 |  0.00424 | i  |  5, 2, 1 |||
 13 |          | noName   |  0.70000 | -0.41997 | i  |  6, 2, 1 |||
 14 |          | noName   |  0.00000 | -0.85919 | i  |  7, 2, 1 |||
 15 |          | noName   |  0.00000 |  0.55754 | i  |  1, 3, 1 |||
 16 |          | noName   |  0.00000 |  0.11899 | i  |  2, 3, 1 |||
 17 |          | noName   |  1.00000 |  0.67467 | i  |  3, 3, 1 |||
 18 |          | noName   |  0.00000 |  0.26316 | i  |  4, 3, 1 |||
 19 |          | noName   |  0.80000 | -0.19559 | i  |  5, 3, 1 |||
 20 |          | noName   |  0.00000 | -0.95965 | i  |  6, 3, 1 |||
 21 |          | noName   |  0.00000 |  0.41264 | i  |  7, 3, 1 |||
 22 |          | noName   |  0.00000 |  0.07785 | i  |  1, 4, 1 |||
 23 |          | noName   |  0.00000 | -0.33097 | i  |  2, 4, 1 |||
 24 |          | noName   |  0.00000 |  0.33714 | i  |  3, 4, 1 |||
 25 |          | noName   |  0.00000 | -0.59862 | i  |  4, 4, 1 |||
 26 |          | noName   |  0.00000 | -0.17771 | i  |  5, 4, 1 |||
 27 |          | noName   |  0.00000 |  0.26011 | i  |  6, 4, 1 |||
 28 |          | noName   |  0.00000 | -0.78076 | i  |  7, 4, 1 |||
 29 |          | noName   |  0.00000 |  0.40214 | i  |  1, 5, 1 |||
 30 |          | noName   |  0.00000 | -0.96167 | i  |  2, 5, 1 |||
 31 |          | noName   |  0.00000 |  0.47685 | i  |  3, 5, 1 |||
 32 |          | noName   |  0.00000 | -0.58428 | i  |  4, 5, 1 |||
 33 |          | noName   |  0.80000 | -0.05179 | i  |  5, 5, 1 |||
 34 |          | noName   |  0.00000 | -0.03348 | i  |  6, 5, 1 |||
 35 |          | noName   |  0.00000 | -0.92499 | i  |  7, 5, 1 |||
 36 |          | noName   |  0.00000 | -0.77319 | i  |  1, 6, 1 |||
 37 |          | noName   |  0.00000 |  0.43632 | i  |  2, 6, 1 |||
 38 |          | noName   |  0.00000 |  0.52324 | i  |  3, 6, 1 |||
 39 |          | noName   |  0.00000 | -0.01376 | i  |  4, 6, 1 |||
 40 |          | noName   |  0.70000 |  0.81579 | i  |  5, 6, 1 |||
 41 |          | noName   |  0.00000 |  0.50273 | i  |  6, 6, 1 |||
 42 |          | noName   |  0.00000 |  0.42192 | i  |  7, 6, 1 |||
 43 |          | noName   |  0.00000 |  0.20389 | i  |  1, 7, 1 |||
 44 |          | noName   |  0.80000 | -0.19919 | i  |  2, 7, 1 |||
 45 |          | noName   |  0.00000 |  0.49699 | i  |  3, 7, 1 |||
 46 |          | noName   |  0.00000 |  0.00137 | i  |  4, 7, 1 |||
 47 |          | noName   |  0.70000 | -0.45170 | i  |  5, 7, 1 |||
 48 |          | noName   |  0.00000 | -0.78973 | i  |  6, 7, 1 |||
 49 |          | noName   |  0.00000 |  0.86615 | i  |  7, 7, 1 |||
 50 |          | noName   |  0.00000 |  0.32395 | i  |  1, 8, 1 |||
 51 |          | noName   |  0.00000 |  0.62285 | i  |  2, 8, 1 |||
 52 |          | noName   |  0.80000 |  0.86395 | i  |  3, 8, 1 |||
 53 |          | noName   |  0.70000 |  0.26127 | i  |  4, 8, 1 |||
 54 |          | noName   |  0.00000 |  0.10501 | i  |  5, 8, 1 |||
 55 |          | noName   |  0.00000 |  0.27427 | i  |  6, 8, 1 |||
 56 |          | noName   |  0.00000 |  0.24229 | i  |  7, 8, 1 |||
 57 |          | noName   |  0.00000 | -0.82043 | i  |  1, 9, 1 |||
 58 |          | noName   |  0.00000 |  0.03787 | i  |  2, 9, 1 |||
 59 |          | noName   |  0.00000 |  0.86914 | i  |  3, 9, 1 |||
 60 |          | noName   |  0.00000 | -0.09348 | i  |  4, 9, 1 |||
 61 |          | noName   |  0.00000 | -0.04630 | i  |  5, 9, 1 |||
 62 |          | noName   |  0.00000 |  0.07492 | i  |  6, 9, 1 |||
 63 |          | noName   |  0.00000 |  0.69939 | i  |  7, 9, 1 |||
 64 |          | noName   |  0.53012 | -1.10980 | h  | 11, 1, 1 |||
 65 |          | noName   |  0.97515 | -0.65783 | h  | 11, 2, 1 |||
 66 |          | noName   |  0.84603 |  1.23462 | h  | 11, 3, 1 |||
 67 |          | noName   |  0.92646 |  0.50284 | h  | 11, 4, 1 |||
 68 |          | noName   |  0.97732 |  0.56068 | h  | 11, 5, 1 |||
 69 |          | noName   |  0.91742 |  1.26081 | h  | 11, 6, 1 |||
 70 |          | noName   |  0.99359 | -0.74384 | h  | 11, 7, 1 |||
 71 |          | noName   |  0.20083 |  1.04809 | h  | 11, 8, 1 |||
 72 |          | noName   |  0.01166 | -0.39333 | o  | 15, 1, 1 |||
 73 |          | noName   |  0.01080 | -3.51079 | o  | 15, 2, 1 |||
 74 |          | noName   |  0.00240 | -1.05181 | o  | 15, 3, 1 |||
 75 |          | noName   |  0.01405 | -1.35403 | o  | 15, 4, 1 |||
 76 |          | noName   |  0.00025 | -0.36777 | o  | 15, 5, 1 |||
 77 |          | noName   |  0.02068 | -1.05024 | o  | 15, 6, 1 |||
 78 |          | noName   |  0.00132 | -1.43823 | o  | 15, 7, 1 |||
 79 |          | noName   |  0.00110 | -0.28945 | o  | 15, 8, 1 |||
 80 |          | noName   |  0.02058 | -1.47846 | o  | 15, 9, 1 |||
 81 |          | noName   |  0.85680 | -3.19851 | o  | 15,10, 1 |||
----|----------|----------|----------|----------|----|----------|----------|----------|-------


connection definition section :

target | site | source:weight
-------|------|---------------------------------------------------------------------------------------------------------------------
    64 |      |  1: 0.90124,  2: 0.22898,  3:-0.17051,  4:-0.38072,  5:-0.55272,  6: 0.45604,  7: 0.69707,  8: 0.93738,  9: 0.73546,
                10:-0.01591, 11:-0.71665, 12: 0.11439, 13: 0.29607, 14:-0.95776, 15:-0.35716, 16: 0.37728, 17: 0.59301, 18:-0.95102,
                19:-0.54818, 20:-0.02823, 21:-0.06674, 22: 0.07236, 23: 1.00101, 24: 0.99152, 25:-0.04133, 26: 0.09169, 27: 0.63790,
                28: 0.98193, 29: 0.32926, 30: 1.14066, 31: 0.13706, 32: 0.16865, 33: 0.68301, 34: 0.60843, 35:-0.01578, 36:-0.55992,
                37:-0.30281, 38: 0.56352, 39: 0.51328, 40: 0.95125, 41: 0.09097, 42:-0.00961, 43: 0.79888, 44: 0.74577, 45: 0.19590,
                46: 0.55683, 47:-0.96691, 48:-0.00253, 49:-0.06412, 50:-0.32218, 51: 1.17841, 52: 0.37038, 53:-0.19540, 54: 0.92412,
                55:-0.66235, 56:-0.11386, 57:-0.48735, 58:-0.69286, 59: 0.06864, 60:-0.15183, 61:-0.17978, 62: 0.46355, 63: 0.38176
    65 |      |  1:-0.75225,  2: 0.47520,  3:-0.95459,  4: 0.67009,  5: 0.51183,  6:-0.32560,  7: 0.61858,  8: 0.00510,  9:-1.35264,
                10: 1.38459, 11: 1.31654, 12: 2.23019, 13:-1.92379, 14: 0.35417, 15:-0.92517, 16:-0.49283, 17: 0.03787, 18: 0.16488,
                19: 0.82382, 20:-0.26178, 21: 0.91333, 22:-0.67064, 23:-0.26717, 24: 0.53996, 25: 0.21913, 26: 0.50271, 27: 0.71483,
                28:-0.77923, 29: 0.78063, 30:-0.20526, 31: 1.73277, 32: 1.92407, 33: 1.97962, 34:-1.20196, 35: 0.08206, 36: 0.60283,
                37:-0.13038, 38: 0.42979, 39: 0.29212, 40:-3.41585, 41:-3.60239, 42:-0.97241, 43:-0.68450, 44: 0.36226, 45:-0.90417,
                46:-0.59951, 47: 0.69380, 48:-1.24072, 49:-0.89557, 50:-0.87402, 51:-0.67521, 52: 1.68778, 53:-0.22073, 54: 0.11925,
                55: 0.41979, 56: 0.87915, 57:-0.49846, 58: 0.49937, 59: 0.82757, 60:-0.87255, 61:-0.37297, 62:-0.82818, 63: 0.68334
    66 |      |  1:-0.42698,  2: 0.17612,  3:-0.27451,  4:-0.15586,  5:-0.34025,  6:-0.71679,  7:-0.55315,  8: 0.11814,  9: 2.89471,
                10: 0.04703, 11:-0.94802, 12:-2.51718, 13: 1.95601, 14: 0.58043, 15: 0.34184, 16:-1.21008, 17: 0.40379, 18: 1.47871,
                19: 0.20455, 20:-1.35584, 21: 0.30967, 22: 0.97790, 23:-0.54627, 24:-0.85754, 25: 1.42634, 26: 0.23987, 27: 1.21269,
                28: 0.90863, 29: 0.83837, 30: 0.15520, 31: 1.97129, 32: 1.54459, 33: 0.60302, 34:-1.57140, 35: 0.16947, 36: 0.31260,
                37:-0.63186, 38: 0.50096, 39: 0.10293, 40:-0.72057, 41:-0.32271, 42: 0.22514, 43:-0.32041, 44: 0.33196, 45: 0.52898,
                46: 0.18571, 47: 0.45209, 48:-1.48635, 49: 0.26634, 50: 0.98498, 51:-0.45484, 52:-0.21089, 53: 1.11566, 54: 0.56832,
                55:-0.71095, 56:-0.11869, 57:-0.83410, 58:-0.44414, 59:-0.67846, 60:-0.78307, 61: 0.95624, 62:-0.54637, 63:-0.15775
    67 |      |  1: 0.02145,  2: 0.89813,  3:-0.82958,  4:-0.76098,  5: 0.59807,  6: 0.16147,  7: 0.54521,  8:-0.81329,  9: 0.22699,
                10:-0.78879, 11: 0.34721, 12:-0.86855, 13:-1.64243, 14: 0.22501, 15:-0.06790, 16:-0.30381, 17: 0.08524, 18:-0.14790,
                19: 1.42625, 20: 0.67118, 21: 0.07950, 22:-0.85333, 23:-1.26918, 24:-0.04062, 25: 0.30521, 26:-0.18362, 27: 2.53653,
                28: 0.01798, 29: 0.58452, 30:-0.93222, 31: 0.91606, 32:-1.02344, 33: 0.81870, 34: 1.49656, 35: 0.04721, 36:-0.83294,
                37:-0.85951, 38: 0.15592, 39:-0.35808, 40: 1.17945, 41: 3.31060, 42:-0.72576, 43: 0.81695, 44:-0.50424, 45: 0.82714,
                46: 0.02603, 47: 1.23648, 48: 1.25726, 49: 0.31602, 50: 0.57103, 51:-0.32879, 52: 0.46454, 53: 1.03236, 54:-0.25064,
                55:-0.37522, 56: 0.55290, 57:-0.47472, 58:-0.58190, 59: 0.72655, 60: 0.58940, 61: 0.38975, 62:-0.43706, 63:-0.90307
    68 |      |  1:-0.26249,  2:-0.79247,  3:-0.31895,  4:-0.04746,  5: 0.03385,  6: 0.18796,  7: 0.27689,  8: 0.12101,  9: 1.23926,
                10: 1.09122, 11:-0.14996, 12: 1.69290, 13: 1.22231, 14: 0.79180, 15:-0.66613, 16: 1.04475, 17: 0.47685, 18:-1.51078,
                19: 0.09634, 20:-0.73568, 21:-0.82018, 22: 0.96478, 23: 0.76115, 24:-0.84930, 25:-0.01606, 26: 0.28419, 27: 0.28690,
                28:-0.47844, 29:-0.89904, 30:-0.62583, 31:-2.43345, 32:-2.75024, 33:-0.16665, 34: 0.20143, 35: 0.51598, 36: 0.76397,
                37:-0.33354, 38:-0.22636, 39:-0.47343, 40: 0.22040, 41:-1.05331, 42: 0.86651, 43: 0.65319, 44: 0.57490, 45:-0.67748,
                46:-1.28983, 47: 0.65141, 48: 0.41623, 49:-0.85192, 50: 0.20060, 51: 0.61071, 52:-0.99889, 53:-0.66735, 54:-1.31283,
                55:-4.79299, 56:-0.44597, 57: 0.59911, 58: 0.02756, 59:-0.78191, 60: 0.71740, 61:-0.49028, 62: 0.75365, 63: 0.68566
    69 |      |  1: 0.86596,  2: 0.67095,  3: 0.55821,  4: 0.08225,  5:-0.32591,  6: 0.24162,  7: 0.00510,  8: 0.83111,  9:-1.44500,
                10: 1.06090, 11: 0.30070, 12:-0.24160, 13: 0.76549, 14: 0.78472, 15:-0.96454, 16:-0.55667, 17:-0.02701, 18: 0.34908,
                19: 0.89840, 20: 0.42007, 21:-0.43242, 22: 0.56102, 23:-0.73483, 24:-0.12333, 25: 0.54761, 26: 0.67365, 27:-1.27423,
                28:-0.60790, 29: 0.46995, 30:-0.52035, 31:-0.00416, 32: 0.90064, 33: 0.98615, 34: 2.44476, 35:-0.62340, 36:-0.29911,
                37: 0.44393, 38: 0.73296, 39: 1.63778, 40: 1.09423, 41: 0.29566, 42: 0.69317, 43: 0.11423, 44:-0.44719, 45: 0.34709,
                46: 0.75365, 47: 0.42289, 48:-0.12489, 49:-0.34294, 50:-0.80993, 51:-0.52348, 52:-1.82523, 53:-1.39915, 54:-1.88423,
                55: 0.88222, 56: 0.54491, 57:-0.59307, 58: 0.32554, 59:-0.02780, 60: 0.07364, 61: 0.89819, 62:-0.72045, 63:-0.15342
    70 |      |  1: 0.55107,  2:-0.14548,  3: 0.10257,  4: 0.72582,  5: 0.22587,  6: 0.20133,  7: 0.09323,  8: 0.22721,  9:-0.62118,
                10:-0.06772, 11: 0.64227, 12: 0.14994, 13: 0.63583, 14:-0.29246, 15: 0.52519, 16:-0.08998, 17:-0.03165, 18: 0.31370,
                19: 1.22943, 20:-1.00092, 21: 0.19993, 22:-0.93579, 23:-1.19329, 24: 0.29740, 25:-0.52994, 26: 1.56695, 27:-0.75973,
                28: 0.60222, 29:-0.22666, 30:-0.31551, 31:-1.19083, 32: 0.26426, 33:-0.42269, 34: 0.38703, 35:-0.57012, 36:-0.42448,
                37:-0.87932, 38:-0.58721, 39:-0.09821, 40: 1.48178, 41: 0.45530, 42:-0.55437, 43:-0.87420, 44: 1.25870, 45:-0.76714,
                46: 0.09531, 47: 1.48906, 48:-0.61673, 49:-0.26255, 50:-0.14402, 51:-0.07430, 52: 0.31514, 53: 1.24862, 54: 0.23473,
                55: 0.23194, 56: 0.18558, 57:-0.03171, 58: 0.25352, 59:-0.83551, 60: 0.13071, 61: 0.13706, 62: 0.39476, 63: 0.81817
    71 |      |  1: 0.93756,  2: 0.32487,  3:-0.38505,  4:-0.01907,  5:-0.60387,  6: 0.94610,  7:-0.09549,  8: 0.21946,  9:-1.04710,
                10:-0.16553, 11: 0.66044, 12:-1.27801, 13:-1.65027, 14: 0.06436, 15: 0.29130, 16:-0.14855, 17: 0.85748, 18: 0.29506,
                19:-0.33911, 20: 1.21176, 21:-0.96625, 22: 0.60350, 23:-0.96764, 24:-0.42692, 25: 1.29083, 26:-1.29425, 27:-2.40881,
                28:-0.87555, 29:-0.90680, 30: 0.67613, 31:-1.07651, 32: 0.66403, 33:-1.15703, 34:-2.10767, 35: 0.47661, 36: 0.98553,
                37: 0.36769, 38:-0.80786, 39: 1.19485, 40: 0.55297, 41:-0.72983, 42: 0.81542, 43: 0.61376, 44: 0.16083, 45: 0.31187,
                46:-0.25975, 47:-1.74900, 48: 1.15564, 49: 0.28379, 50:-0.48540, 51:-2.86599, 52:-0.21968, 53: 0.91750, 54: 0.85452,
                55:-0.33114, 56: 0.13627, 57:-0.69720, 58: 0.75280, 59:-0.02908, 60:-0.63866, 61:-0.19156, 62: 0.35295, 63: 0.83850
    72 |      | 64:-1.77335, 65: 2.28304, 66:-4.39406, 67: 1.03030, 68:-3.15610, 69: 2.47929, 70:-1.27676, 71:-2.44650
    73 |      | 64:-1.44656, 65: 2.74701, 66: 1.46669, 67: 3.78192, 68:-1.95648, 69:-4.13469, 70:-1.77566, 71:-0.96359
    74 |      | 64:-1.80342, 65: 3.27647, 66:-3.75376, 67:-2.69403, 68: 1.37747, 69:-1.99761, 70:-1.61691, 71: 2.72365
    75 |      | 64: 0.13052, 65:-1.80068, 66:-3.05503, 67: 1.81552, 68: 3.84075, 69:-2.38939, 70:-0.99579, 71:-4.38110
    76 |      | 64: 0.03434, 65: 2.05189, 66: 1.56098, 67:-4.62961, 68:-4.19165, 69:-2.86599, 70: 0.16664, 71:-2.11459
    77 |      | 64:-0.81247, 65:-0.94389, 66: 0.75336, 67:-5.40017, 68: 4.60488, 69: 0.45424, 70:-1.44847, 71:-2.83253
    78 |      | 64:-0.82991, 65:-5.18134, 66:-2.58371, 67: 1.04903, 68:-0.09962, 69: 0.03137, 70: 0.82000, 71: 3.83731
    79 |      | 64:-0.86604, 65:-5.17364, 66: 2.58768, 67: 1.63603, 68:-3.25192, 69: 0.03712, 70:-1.21859, 71:-1.82162
    80 |      | 64:-3.50940, 65:-0.23463, 66: 1.19610, 67:-1.89284, 68:-2.90244, 69: 1.98585, 70: 0.82180, 71: 3.21167
    81 |      | 64:-2.53863, 65:-0.92135, 66:-0.52800, 67: 0.17786, 68: 1.83389, 69: 1.92930, 70: 4.53592, 71:-2.76601
-------|------|---------------------------------------------------------------------------------------------------------------------


layer definition section :

layer | unitNo.
------|----------------------------------------------------------------------------------------------------------------------------
    2 | 64, 65, 66, 67, 68, 69, 70, 71
    3 | 72, 73, 74, 75, 76, 77, 78, 79, 80, 81
------|----------------------------------------------------------------------------------------------------------------------------
