SNNS network definition file V1.4-3D
generated at Fri Nov 11 16:17:46 2016

network name : 63_8_10 v1
source files :
no. of units : 81
no. of connections : 584
no. of unit types : 0
no. of site types : 0


learning function : BackpropMomentum
update function   : Topological_Order


unit default section :

act      | bias     | st | subnet | layer | act func     | out func
---------|----------|----|--------|-------|--------------|-------------
 0.00000 |  0.00000 | h  |      0 |     1 | Act_Logistic | Out_Identity 
---------|----------|----|--------|-------|--------------|-------------


unit definition section :

no. | typeName | unitName | act      | bias     | st | position | act func | out func | sites
----|----------|----------|----------|----------|----|----------|----------|----------|-------
  1 |          | noName   |  0.00000 |  0.25443 | i  |  1, 1, 1 |||
  2 |          | noName   |  0.00000 |  0.63762 | i  |  2, 1, 1 |||
  3 |          | noName   |  0.00000 |  0.24967 | i  |  3, 1, 1 |||
  4 |          | noName   |  0.00000 |  0.26841 | i  |  4, 1, 1 |||
  5 |          | noName   |  0.00000 | -0.77160 | i  |  5, 1, 1 |||
  6 |          | noName   |  0.00000 | -0.44346 | i  |  6, 1, 1 |||
  7 |          | noName   |  0.00000 | -0.82299 | i  |  7, 1, 1 |||
  8 |          | noName   |  0.00000 |  0.81280 | i  |  1, 2, 1 |||
  9 |          | noName   |  0.00000 |  0.47917 | i  |  2, 2, 1 |||
 10 |          | noName   |  0.80000 |  0.56291 | i  |  3, 2, 1 |||
 11 |          | noName   |  0.70000 | -0.34812 | i  |  4, 2, 1 |||
 12 |          | noName   |  0.80000 | -0.40245 | i  |  5, 2, 1 |||
 13 |          | noName   |  0.70000 | -0.57744 | i  |  6, 2, 1 |||
 14 |          | noName   |  0.00000 |  0.06198 | i  |  7, 2, 1 |||
 15 |          | noName   |  0.00000 | -0.50145 | i  |  1, 3, 1 |||
 16 |          | noName   |  0.00000 | -0.97040 | i  |  2, 3, 1 |||
 17 |          | noName   |  1.00000 |  0.19840 | i  |  3, 3, 1 |||
 18 |          | noName   |  0.00000 |  0.55370 | i  |  4, 3, 1 |||
 19 |          | noName   |  0.80000 | -0.53954 | i  |  5, 3, 1 |||
 20 |          | noName   |  0.00000 | -0.85083 | i  |  6, 3, 1 |||
 21 |          | noName   |  0.00000 |  0.87432 | i  |  7, 3, 1 |||
 22 |          | noName   |  0.00000 |  0.26957 | i  |  1, 4, 1 |||
 23 |          | noName   |  0.00000 |  0.53929 | i  |  2, 4, 1 |||
 24 |          | noName   |  0.00000 |  0.86273 | i  |  3, 4, 1 |||
 25 |          | noName   |  0.00000 | -0.00211 | i  |  4, 4, 1 |||
 26 |          | noName   |  0.00000 |  0.76684 | i  |  5, 4, 1 |||
 27 |          | noName   |  0.00000 | -0.53734 | i  |  6, 4, 1 |||
 28 |          | noName   |  0.00000 |  0.78832 | i  |  7, 4, 1 |||
 29 |          | noName   |  0.00000 |  0.30912 | i  |  1, 5, 1 |||
 30 |          | noName   |  0.00000 | -0.95825 | i  |  2, 5, 1 |||
 31 |          | noName   |  0.00000 |  0.59423 | i  |  3, 5, 1 |||
 32 |          | noName   |  0.00000 |  0.77813 | i  |  4, 5, 1 |||
 33 |          | noName   |  0.80000 |  0.42460 | i  |  5, 5, 1 |||
 34 |          | noName   |  0.00000 | -0.27439 | i  |  6, 5, 1 |||
 35 |          | noName   |  0.00000 | -0.40367 | i  |  7, 5, 1 |||
 36 |          | noName   |  0.00000 |  0.17783 | i  |  1, 6, 1 |||
 37 |          | noName   |  0.00000 |  0.30821 | i  |  2, 6, 1 |||
 38 |          | noName   |  0.00000 | -0.07590 | i  |  3, 6, 1 |||
 39 |          | noName   |  0.00000 | -0.83996 | i  |  4, 6, 1 |||
 40 |          | noName   |  0.70000 | -0.11222 | i  |  5, 6, 1 |||
 41 |          | noName   |  0.00000 | -0.66185 | i  |  6, 6, 1 |||
 42 |          | noName   |  0.00000 |  0.26511 | i  |  7, 6, 1 |||
 43 |          | noName   |  0.00000 |  0.11393 | i  |  1, 7, 1 |||
 44 |          | noName   |  0.80000 |  0.28678 | i  |  2, 7, 1 |||
 45 |          | noName   |  0.00000 |  0.78515 | i  |  3, 7, 1 |||
 46 |          | noName   |  0.00000 |  0.71508 | i  |  4, 7, 1 |||
 47 |          | noName   |  0.70000 |  0.22379 | i  |  5, 7, 1 |||
 48 |          | noName   |  0.00000 |  0.08219 | i  |  6, 7, 1 |||
 49 |          | noName   |  0.00000 | -0.48753 | i  |  7, 7, 1 |||
 50 |          | noName   |  0.00000 |  0.72759 | i  |  1, 8, 1 |||
 51 |          | noName   |  0.00000 | -0.00320 | i  |  2, 8, 1 |||
 52 |          | noName   |  0.80000 |  0.14780 | i  |  3, 8, 1 |||
 53 |          | noName   |  0.70000 |  0.71215 | i  |  4, 8, 1 |||
 54 |          | noName   |  0.00000 |  0.28678 | i  |  5, 8, 1 |||
 55 |          | noName   |  0.00000 | -0.19803 | i  |  6, 8, 1 |||
 56 |          | noName   |  0.00000 | -0.58696 | i  |  7, 8, 1 |||
 57 |          | noName   |  0.00000 |  0.48747 | i  |  1, 9, 1 |||
 58 |          | noName   |  0.00000 | -0.59252 | i  |  2, 9, 1 |||
 59 |          | noName   |  0.00000 | -0.38090 | i  |  3, 9, 1 |||
 60 |          | noName   |  0.00000 |  0.86505 | i  |  4, 9, 1 |||
 61 |          | noName   |  0.00000 |  0.09702 | i  |  5, 9, 1 |||
 62 |          | noName   |  0.00000 |  0.65508 | i  |  6, 9, 1 |||
 63 |          | noName   |  0.00000 | -0.27018 | i  |  7, 9, 1 |||
 64 |          | noName   |  0.98866 |  0.93932 | h  | 11, 1, 1 |||
 65 |          | noName   |  0.00097 | -0.29344 | h  | 11, 2, 1 |||
 66 |          | noName   |  0.89271 | -1.34121 | h  | 11, 3, 1 |||
 67 |          | noName   |  0.06661 |  0.63170 | h  | 11, 4, 1 |||
 68 |          | noName   |  0.02823 | -0.35378 | h  | 11, 5, 1 |||
 69 |          | noName   |  0.78955 |  0.19124 | h  | 11, 6, 1 |||
 70 |          | noName   |  0.88730 | -1.28005 | h  | 11, 7, 1 |||
 71 |          | noName   |  0.78951 | -0.15689 | h  | 11, 8, 1 |||
 72 |          | noName   |  0.01304 |  0.07515 | o  | 15, 1, 1 |||
 73 |          | noName   |  0.03747 | -0.74770 | o  | 15, 2, 1 |||
 74 |          | noName   |  0.00318 | -2.07911 | o  | 15, 3, 1 |||
 75 |          | noName   |  0.01861 | -1.48236 | o  | 15, 4, 1 |||
 76 |          | noName   |  0.04706 | -3.94470 | o  | 15, 5, 1 |||
 77 |          | noName   |  0.02530 | -2.81006 | o  | 15, 6, 1 |||
 78 |          | noName   |  0.00316 | -0.20293 | o  | 15, 7, 1 |||
 79 |          | noName   |  0.00010 | -0.20938 | o  | 15, 8, 1 |||
 80 |          | noName   |  0.01556 | -1.37046 | o  | 15, 9, 1 |||
 81 |          | noName   |  0.93834 | -0.98300 | o  | 15,10, 1 |||
----|----------|----------|----------|----------|----|----------|----------|----------|-------


connection definition section :

target | site | source:weight
-------|------|---------------------------------------------------------------------------------------------------------------------
    64 |      | 63: 0.67034, 62: 0.24717, 61:-0.33818, 60: 0.87213, 59: 0.20939, 58: 0.29997, 57:-0.29984, 56:-0.45451, 55:-0.23396,
                54:-0.75671, 53:-0.49199, 52: 0.47472, 51: 0.30113, 50: 0.73595, 49:-0.44743, 48:-1.21552, 47: 1.34595, 46:-0.76325,
                45: 0.50133, 44:-0.44853, 43:-0.88519, 42: 0.33201, 41:-2.60477, 40:-2.78932, 39: 0.56327, 38: 0.46446, 37:-0.45152,
                36: 0.32163, 35: 0.29606, 34:-1.02445, 33: 1.33374, 32: 1.52866, 31: 1.14523, 30:-1.22038, 29: 0.58538, 28: 0.43364,
                27:-1.15271, 26: 0.77344, 25:-0.02880, 24: 0.46995, 23: 0.24899, 22: 0.26988, 21:-0.82946, 20:-0.22226, 19:-0.04964,
                18:-0.30409, 17: 0.89758, 16: 0.18456, 15: 0.33042, 14:-0.26353, 13:-1.10842, 12: 1.91506, 11: 1.64820, 10: 1.28473,
                 9:-0.84369,  8: 0.63616,  7: 0.06436,  6: 0.00076,  5: 0.67962,  4: 0.72503,  3: 0.70562,  2: 0.32609,  1: 0.03854
    65 |      | 63: 0.17942, 62:-0.78216, 61:-0.93139, 60:-0.74255, 59: 0.54845, 58: 0.85992, 57:-0.89807, 56: 0.65783, 55:-1.20706,
                54: 0.77403, 53: 0.23572, 52:-0.50552, 51: 0.32953, 50: 0.47679, 49:-0.76623, 48: 0.62079, 47:-1.17127, 46:-1.28777,
                45:-0.34117, 44:-0.02519, 43:-0.18802, 42:-0.08493, 41:-0.51510, 40:-2.24660, 39:-0.33603, 38:-0.10807, 37: 0.85782,
                36:-0.04544, 35: 0.18748, 34:-1.04581, 33:-1.62364, 32:-1.48194, 31: 0.77577, 30: 0.11240, 29: 0.37571, 28: 0.05118,
                27: 1.67542, 26: 0.52808, 25:-1.19856, 24:-0.58196, 23: 1.24420, 22:-0.15085, 21: 0.08176, 20: 0.34815, 19:-1.21656,
                18:-0.51034, 17:-0.90112, 16: 0.32188, 15:-0.19700, 14: 0.42204, 13: 0.78861, 12:-0.11338, 11:-0.75638, 10:-0.93839,
                 9: 2.54918,  8: 0.18705,  7: 0.61089,  6:-0.17411,  5:-0.37718,  4: 0.20212,  3: 0.66594,  2:-0.66735,  1: 0.16880
    66 |      | 63: 0.98865, 62: 0.92865, 61: 0.33335, 60:-0.16532, 59:-0.98505, 58: 0.92779, 57: 0.30821, 56:-0.62767, 55:-1.21538,
                54: 0.66664, 53: 2.42572, 52: 1.44544, 51:-0.57526, 50: 0.60106, 49: 0.59301, 48:-1.92014, 47:-0.11199, 46: 0.95492,
                45:-0.95367, 44: 0.17681, 43:-0.01456, 42:-0.03995, 41:-0.16557, 40:-0.68282, 39:-0.36049, 38:-0.69689, 37:-0.94457,
                36:-0.02786, 35:-0.87219, 34:-2.13842, 33: 1.33815, 32: 1.79634, 31: 1.30825, 30:-0.36253, 29:-0.66936, 28:-0.05936,
                27: 0.36580, 26:-0.05913, 25: 0.42888, 24: 0.45470, 23:-1.01618, 22: 0.50688, 21: 0.33573, 20:-1.63863, 19:-0.09723,
                18:-0.25065, 17:-0.62133, 16: 0.04093, 15: 0.88733, 14:-0.08689, 13: 1.57610, 12:-0.41257, 11:-0.22486, 10: 0.04156,
                 9: 1.43715,  8:-0.96155,  7:-0.79095,  6:-0.36338,  5: 0.18723,  4: 0.08158,  3:-0.37754,  2: 0.74120,  1: 0.92145
    67 |      | 63: 0.30509, 62:-0.24162, 61: 0.31925, 60: 0.01395, 59:-0.62133, 58:-0.80517, 57:-0.75530, 56:-0.08823, 55: 0.16795,
                54: 1.21680, 53: 0.16660, 52: 0.67769, 51:-2.89911, 50:-0.57494, 49: 0.68102, 48:-0.33189, 47:-1.17113, 46:-0.27141,
                45:-0.22282, 44: 0.33945, 43:-0.34544, 42: 0.40849, 41:-0.19760, 40: 0.26344, 39: 1.61385, 38:-0.04807, 37: 0.08535,
                36:-0.34037, 35:-0.73833, 34:-1.62151, 33:-2.23267, 32:-0.22026, 31:-1.08254, 30: 0.76635, 29: 0.81341, 28: 0.01218,
                27:-2.64413, 26:-0.70367, 25: 1.40411, 24: 0.30259, 23:-1.20263, 22: 0.74694, 21: 0.42076, 20: 0.60930, 19: 0.01643,
                18: 0.75833, 17:-0.71245, 16: 0.23993, 15:-0.45964, 14: 0.33854, 13:-1.34473, 12:-0.68127, 11:-0.02174, 10: 0.52547,
                 9:-1.63908,  8:-0.83703,  7:-0.05905,  6:-0.81304,  5:-0.88903,  4: 0.14841,  3: 0.21976,  2: 0.61803,  1: 0.09708
    68 |      | 63: 0.33580, 62:-0.91406, 61: 0.88971, 60: 0.20536, 59: 0.40904, 58:-0.64733, 57: 0.83728, 56:-0.50127, 55: 2.06936,
                54: 0.00029, 53:-1.20045, 52:-1.77140, 51: 0.15305, 50: 0.26536, 49:-0.45146, 48:-0.61444, 47:-1.30085, 46:-0.00338,
                45:-0.03549, 44: 0.98076, 43:-0.16099, 42: 0.20170, 41:-2.28035, 40:-1.21997, 39: 0.61222, 38: 0.09226, 37:-0.43798,
                36:-0.69781, 35:-0.26646, 34: 0.22687, 33: 0.09946, 32: 1.71001, 31: 0.48006, 30: 0.13891, 29:-0.81274, 28:-0.82403,
                27:-0.98024, 26:-0.75428, 25:-0.53781, 24: 0.68438, 23: 1.04995, 22: 0.07321, 21:-0.17490, 20:-0.41030, 19:-0.33962,
                18: 0.66935, 17:-0.62358, 16: 1.09577, 15: 0.71917, 14: 0.82733, 13: 1.08633, 12:-0.68229, 11: 0.16489, 10: 0.67284,
                 9:-1.01846,  8:-0.46666,  7:-0.11148,  6:-0.76928,  5: 0.13248,  4:-0.81213,  3: 0.10239,  2: 0.02957,  1: 0.49669
    69 |      | 63: 0.28776, 62:-0.70965, 61: 0.90790, 60:-0.18094, 59:-0.12442, 58: 0.09262, 57:-0.98846, 56: 0.35600, 55: 2.06442,
                54: 0.98703, 53: 1.13442, 52:-0.29446, 51: 1.08308, 50:-0.56188, 49: 0.24644, 48:-0.65984, 47: 0.44843, 46:-0.15649,
                45: 0.72173, 44:-0.51303, 43: 0.55828, 42:-0.71892, 41: 2.02116, 40: 2.05267, 39: 1.00647, 38: 0.97803, 37:-0.32022,
                36: 0.18491, 35: 0.68804, 34: 2.10644, 33:-0.22853, 32:-0.02226, 31:-1.60756, 30: 0.57560, 29:-0.18442, 28:-0.65783,
                27:-1.10702, 26: 0.41625, 25:-0.43207, 24: 0.32273, 23: 0.11060, 22: 0.98975, 21:-0.96289, 20:-1.44694, 19: 0.55730,
                18:-0.70773, 17:-0.80395, 16:-0.46830, 15: 0.38078, 14:-0.49174, 13: 1.58739, 12:-0.99107, 11:-0.33847, 10:-0.38546,
                 9: 0.10192,  8: 0.12223,  7:-0.86621,  6:-0.47801,  5:-0.01016,  4: 0.98517,  3:-0.08518,  2:-0.95770,  1:-0.07901
    70 |      | 63: 0.36808, 62:-0.24949, 61: 0.23710, 60:-0.73473, 59: 0.54778, 58:-0.89398, 57: 0.69347, 56:-0.29392, 55: 0.23791,
                54: 1.06301, 53: 0.98283, 52: 1.50570, 51:-0.54192, 50: 0.25999, 49: 0.82543, 48: 0.10947, 47:-0.09490, 46:-1.08106,
                45: 0.16208, 44: 0.67992, 43: 0.83184, 42: 0.58818, 41:-0.25163, 40: 1.45267, 39:-1.92904, 38: 0.86316, 37:-1.20667,
                36: 0.59301, 35:-0.73046, 34: 0.60260, 33:-0.67571, 32:-1.83733, 31:-1.84251, 30: 0.46556, 29:-0.93847, 28:-0.57909,
                27: 1.15518, 26: 0.49377, 25: 0.15681, 24: 0.94024, 23: 0.65548, 22:-0.99976, 21:-0.45494, 20: 0.40888, 19: 1.43975,
                18:-0.83067, 17:-0.70287, 16: 0.37653, 15:-0.51775, 14:-0.48967, 13:-1.08923, 12: 0.60250, 11: 0.33668, 10: 0.11630,
                 9:-1.56446,  8:-0.09787,  7: 0.75896,  6: 0.81451,  5: 0.42149,  4: 0.32530,  3:-0.69842,  2: 0.72265,  1:-0.82934
    71 |      | 63:-0.21628, 62: 0.84521, 61:-0.25932, 60:-0.04587, 59: 0.19523, 58:-0.91565, 57:-0.19126, 56:-0.22825, 55:-2.93625,
                54:-1.96457, 53:-1.94599, 52:-0.32517, 51:-0.42091, 50:-0.95282, 49: 0.33634, 48:-0.85579, 47: 0.22245, 46:-0.55810,
                45:-0.60125, 44: 0.53207, 43: 0.67925, 42: 0.06424, 41:-0.95468, 40: 0.78559, 39: 0.31933, 38:-0.99854, 37:-0.82834,
                36:-0.18845, 35:-0.37730, 34:-0.11774, 33: 1.43664, 32:-1.22266, 31:-0.68484, 30:-0.00096, 29: 0.28855, 28:-0.67766,
                27:-1.09162, 26: 0.32316, 25: 0.12976, 24:-0.74041, 23: 1.22210, 22: 0.60887, 21:-0.16282, 20:-1.01521, 19: 0.11758,
                18:-0.14671, 17:-0.76946, 16: 0.41898, 15:-0.01944, 14: 0.96246, 13: 1.51584, 12:-0.01235, 11: 0.78976, 10:-0.13505,
                 9: 0.29318,  8: 0.84588,  7: 0.84582,  6: 0.86218,  5: 0.16562,  4: 0.99359,  3: 0.90728,  2:-0.86316,  1: 0.04666
    72 |      | 71:-1.42941, 70:-0.72003, 69:-1.03245, 68: 2.17762, 67:-2.51892, 66:-3.92927, 65:-3.63739, 64: 1.81865
    73 |      | 71:-2.43412, 70:-0.97505, 69:-3.66358, 68:-3.19549, 67:-2.68319, 66: 3.03371, 65: 1.20889, 64: 0.74924
    74 |      | 71: 0.39827, 70: 0.96970, 69:-5.23361, 68: 0.11224, 67: 2.55011, 66:-2.84025, 65: 0.68149, 64: 1.66944
    75 |      | 71:-0.62299, 70: 3.18477, 69:-0.46247, 68:-3.10829, 67:-4.38681, 66:-2.09507, 65: 1.95592, 64:-2.22891
    76 |      | 71:-2.63790, 70:-1.02695, 69: 1.55473, 68: 1.62397, 67:-2.62785, 66: 3.09055, 65:-0.95005, 64: 0.07484
    77 |      | 71: 4.64384, 70:-3.75093, 69:-2.44340, 68: 1.35144, 67:-0.89891, 66: 0.57102, 65: 0.01382, 64: 0.26493
    78 |      | 71:-0.35733, 70: 0.56189, 69: 0.18754, 68:-2.23316, 67: 3.53298, 66:-1.69819, 65:-2.18860, 64:-4.62305
    79 |      | 71:-0.62784, 70:-3.51922, 69: 0.41222, 68: 1.68935, 67:-1.47930, 66:-0.97193, 65: 1.49071, 64:-4.80608
    80 |      | 71:-0.85010, 70:-2.92839, 69:-1.53648, 68: 0.32823, 67: 3.64224, 66: 2.01118, 65:-3.84269, 64:-0.34199
    81 |      | 71: 2.14139, 70: 1.45230, 69:-0.66691, 68:-2.82591, 67:-2.40969, 66: 1.09649, 65:-4.18408, 64: 0.52414
-------|------|---------------------------------------------------------------------------------------------------------------------


layer definition section :

layer | unitNo.
------|----------------------------------------------------------------------------------------------------------------------------
    2 | 64, 65, 66, 67, 68, 69, 70, 71
    3 | 72, 73, 74, 75, 76, 77, 78, 79, 80, 81
------|----------------------------------------------------------------------------------------------------------------------------
