SNNS network definition file V1.4-3D
generated at Fri Nov 11 16:30:40 2016

network name : 63_8_10 v3
source files :
no. of units : 81
no. of connections : 584
no. of unit types : 0
no. of site types : 0


learning function : BackpropMomentum
update function   : Topological_Order


unit default section :

act      | bias     | st | subnet | layer | act func     | out func
---------|----------|----|--------|-------|--------------|-------------
 0.00000 |  0.00000 | h  |      0 |     1 | Act_Logistic | Out_Identity 
---------|----------|----|--------|-------|--------------|-------------


unit definition section :

no. | typeName | unitName | act      | bias     | st | position | act func | out func | sites
----|----------|----------|----------|----------|----|----------|----------|----------|-------
  1 |          | noName   |  0.00000 | -0.13370 | i  |  1, 1, 1 |||
  2 |          | noName   |  0.00000 |  0.41026 | i  |  2, 1, 1 |||
  3 |          | noName   |  0.00000 | -0.42552 | i  |  3, 1, 1 |||
  4 |          | noName   |  0.00000 | -0.03775 | i  |  4, 1, 1 |||
  5 |          | noName   |  0.00000 | -0.64800 | i  |  5, 1, 1 |||
  6 |          | noName   |  0.00000 | -0.05960 | i  |  6, 1, 1 |||
  7 |          | noName   |  0.00000 | -0.34831 | i  |  7, 1, 1 |||
  8 |          | noName   |  0.00000 | -0.15867 | i  |  1, 2, 1 |||
  9 |          | noName   |  0.00000 | -0.95703 | i  |  2, 2, 1 |||
 10 |          | noName   |  0.80000 | -0.09726 | i  |  3, 2, 1 |||
 11 |          | noName   |  0.70000 | -0.39976 | i  |  4, 2, 1 |||
 12 |          | noName   |  0.80000 | -0.33525 | i  |  5, 2, 1 |||
 13 |          | noName   |  0.70000 | -0.96210 | i  |  6, 2, 1 |||
 14 |          | noName   |  0.00000 |  0.10385 | i  |  7, 2, 1 |||
 15 |          | noName   |  0.00000 |  0.69280 | i  |  1, 3, 1 |||
 16 |          | noName   |  0.00000 |  0.53752 | i  |  2, 3, 1 |||
 17 |          | noName   |  1.00000 |  0.25382 | i  |  3, 3, 1 |||
 18 |          | noName   |  0.00000 |  0.09854 | i  |  4, 3, 1 |||
 19 |          | noName   |  0.80000 |  0.34806 | i  |  5, 3, 1 |||
 20 |          | noName   |  0.00000 |  0.95428 | i  |  6, 3, 1 |||
 21 |          | noName   |  0.00000 | -0.04654 | i  |  7, 3, 1 |||
 22 |          | noName   |  0.00000 |  0.85699 | i  |  1, 4, 1 |||
 23 |          | noName   |  0.00000 |  0.37925 | i  |  2, 4, 1 |||
 24 |          | noName   |  0.00000 |  0.30473 | i  |  3, 4, 1 |||
 25 |          | noName   |  0.00000 |  0.48039 | i  |  4, 4, 1 |||
 26 |          | noName   |  0.00000 |  0.81091 | i  |  5, 4, 1 |||
 27 |          | noName   |  0.00000 |  0.10526 | i  |  6, 4, 1 |||
 28 |          | noName   |  0.00000 | -0.21097 | i  |  7, 4, 1 |||
 29 |          | noName   |  0.00000 | -0.23746 | i  |  1, 5, 1 |||
 30 |          | noName   |  0.00000 |  0.59111 | i  |  2, 5, 1 |||
 31 |          | noName   |  0.00000 | -0.61144 | i  |  3, 5, 1 |||
 32 |          | noName   |  0.00000 | -0.44444 | i  |  4, 5, 1 |||
 33 |          | noName   |  0.80000 | -0.85119 | i  |  5, 5, 1 |||
 34 |          | noName   |  0.00000 | -0.23093 | i  |  6, 5, 1 |||
 35 |          | noName   |  0.00000 | -0.33964 | i  |  7, 5, 1 |||
 36 |          | noName   |  0.00000 | -0.12607 | i  |  1, 6, 1 |||
 37 |          | noName   |  0.00000 | -0.86023 | i  |  2, 6, 1 |||
 38 |          | noName   |  0.00000 | -0.08542 | i  |  3, 6, 1 |||
 39 |          | noName   |  0.00000 | -0.00272 | i  |  4, 6, 1 |||
 40 |          | noName   |  0.70000 | -0.84399 | i  |  5, 6, 1 |||
 41 |          | noName   |  0.00000 |  0.57524 | i  |  6, 6, 1 |||
 42 |          | noName   |  0.00000 | -0.71728 | i  |  7, 6, 1 |||
 43 |          | noName   |  0.00000 |  0.31095 | i  |  1, 7, 1 |||
 44 |          | noName   |  0.80000 |  0.63665 | i  |  2, 7, 1 |||
 45 |          | noName   |  0.00000 | -0.15848 | i  |  3, 7, 1 |||
 46 |          | noName   |  0.00000 | -0.55815 | i  |  4, 7, 1 |||
 47 |          | noName   |  0.70000 |  0.71355 | i  |  5, 7, 1 |||
 48 |          | noName   |  0.00000 |  0.52715 | i  |  6, 7, 1 |||
 49 |          | noName   |  0.00000 | -0.33915 | i  |  7, 7, 1 |||
 50 |          | noName   |  0.00000 | -0.84411 | i  |  1, 8, 1 |||
 51 |          | noName   |  0.00000 | -0.87866 | i  |  2, 8, 1 |||
 52 |          | noName   |  0.80000 | -0.54582 | i  |  3, 8, 1 |||
 53 |          | noName   |  0.70000 |  0.02530 | i  |  4, 8, 1 |||
 54 |          | noName   |  0.00000 | -0.16733 | i  |  5, 8, 1 |||
 55 |          | noName   |  0.00000 |  0.15983 | i  |  6, 8, 1 |||
 56 |          | noName   |  0.00000 | -0.00381 | i  |  7, 8, 1 |||
 57 |          | noName   |  0.00000 |  0.83746 | i  |  1, 9, 1 |||
 58 |          | noName   |  0.00000 | -0.14878 | i  |  2, 9, 1 |||
 59 |          | noName   |  0.00000 | -0.56932 | i  |  3, 9, 1 |||
 60 |          | noName   |  0.00000 |  0.12973 | i  |  4, 9, 1 |||
 61 |          | noName   |  0.00000 |  0.82092 | i  |  5, 9, 1 |||
 62 |          | noName   |  0.00000 |  0.08084 | i  |  6, 9, 1 |||
 63 |          | noName   |  0.00000 |  0.20615 | i  |  7, 9, 1 |||
 64 |          | noName   |  0.40189 | -0.42866 | h  | 11, 1, 1 |||
 65 |          | noName   |  0.93847 | -1.05760 | h  | 11, 2, 1 |||
 66 |          | noName   |  0.95564 | -0.61794 | h  | 11, 3, 1 |||
 67 |          | noName   |  0.01719 | -0.05271 | h  | 11, 4, 1 |||
 68 |          | noName   |  0.98862 |  1.72864 | h  | 11, 5, 1 |||
 69 |          | noName   |  0.03648 | -0.07627 | h  | 11, 6, 1 |||
 70 |          | noName   |  0.92038 |  1.22743 | h  | 11, 7, 1 |||
 71 |          | noName   |  0.01008 | -1.02441 | h  | 11, 8, 1 |||
 72 |          | noName   |  0.04500 | -0.67057 | o  | 15, 1, 1 |||
 73 |          | noName   |  0.01224 | -2.73602 | o  | 15, 2, 1 |||
 74 |          | noName   |  0.02943 | -2.25982 | o  | 15, 3, 1 |||
 75 |          | noName   |  0.00040 | -1.23196 | o  | 15, 4, 1 |||
 76 |          | noName   |  0.01721 | -2.71364 | o  | 15, 5, 1 |||
 77 |          | noName   |  0.01615 | -0.44135 | o  | 15, 6, 1 |||
 78 |          | noName   |  0.02294 | -2.85719 | o  | 15, 7, 1 |||
 79 |          | noName   |  0.00247 | -0.15216 | o  | 15, 8, 1 |||
 80 |          | noName   |  0.01203 | -1.40226 | o  | 15, 9, 1 |||
 81 |          | noName   |  0.91998 | -1.59955 | o  | 15,10, 1 |||
----|----------|----------|----------|----------|----|----------|----------|----------|-------


connection definition section :

target | site | source:weight
-------|------|---------------------------------------------------------------------------------------------------------------------
    64 |      |  1: 0.26261,  2:-0.09641,  3: 0.61046,  4:-0.38096,  5: 0.15006,  6: 0.05350,  7: 0.35264,  8: 0.92999,  9: 0.79604,
                10:-1.01855, 11:-1.22046, 12:-2.22557, 13: 0.87842, 14:-0.71978, 15:-0.63781, 16:-0.39203, 17:-0.95996, 18: 1.21120,
                19: 0.54307, 20: 0.43224, 21:-0.27006, 22:-0.00809, 23:-0.33123, 24:-0.18394, 25: 0.93750, 26:-0.67474, 27:-0.29647,
                28: 0.07327, 29:-0.33158, 30: 0.41168, 31: 0.36413, 32: 0.96375, 33: 0.09166, 34:-1.63175, 35: 0.03842, 36: 0.85626,
                37: 0.10869, 38: 0.28544, 39:-0.14871, 40: 0.03904, 41: 1.11517, 42: 0.99445, 43:-0.17338, 44:-0.57837, 45:-0.61754,
                46: 1.04744, 47:-0.01365, 48: 0.02232, 49:-0.96753, 50:-0.34318, 51:-0.83395, 52: 2.25183, 53: 2.80200, 54: 1.51806,
                55: 1.68444, 56:-0.85040, 57: 0.09580, 58: 0.73296, 59: 0.37761, 60:-0.17484, 61: 0.18851, 62: 0.42869, 63: 0.37297
    65 |      |  1: 0.73589,  2: 0.24412,  3:-0.12949,  4: 0.30674,  5: 0.74609,  6: 0.10099,  7:-0.73388,  8:-0.66607,  9:-0.14534,
                10:-0.24739, 11: 0.79947, 12:-0.46376, 13:-0.93984, 14: 0.29575, 15:-0.97015, 16:-0.93835, 17: 0.09177, 18: 0.49941,
                19: 1.18092, 20:-0.61756, 21: 0.57103, 22: 0.26139, 23:-1.27740, 24:-0.55547, 25:-0.76377, 26: 0.49290, 27: 1.93316,
                28: 0.65355, 29:-0.92315, 30: 0.49454, 31: 1.75391, 32:-0.86125, 33:-0.05433, 34: 0.82479, 35: 0.34556, 36:-0.24583,
                37:-0.11755, 38: 0.55351, 39:-1.11166, 40: 2.60476, 41: 2.34405, 42: 0.69439, 43: 0.64306, 44:-0.03594, 45:-0.58873,
                46: 0.01580, 47: 1.05805, 48: 0.69777, 49: 0.48405, 50:-0.00388, 51:-0.31209, 52: 0.46288, 53: 0.78703, 54:-0.04765,
                55:-0.58939, 56: 0.21110, 57: 0.77050, 58:-0.05618, 59: 0.60283, 60: 0.88891, 61:-0.15812, 62: 0.74749, 63: 0.14243
    66 |      |  1: 0.91510,  2: 0.54509,  3: 0.01480,  4: 0.04477,  5:-0.91858,  6: 0.25858,  7:-0.13504,  8: 0.63530,  9:-0.96150,
                10: 0.67507, 11: 0.55515, 12: 1.45290, 13: 0.43123, 14: 0.45116, 15:-0.20652, 16: 0.12225, 17: 0.28788, 18:-1.70863,
                19: 0.88943, 20:-0.42592, 21:-0.33207, 22: 0.09116, 23:-0.32687, 24:-0.97797, 25:-1.29949, 26:-0.22335, 27:-0.05836,
                28:-0.07566, 29: 0.80432, 30:-0.03681, 31: 0.11699, 32:-0.75666, 33: 0.96434, 34:-0.06223, 35:-0.25797, 36:-0.91272,
                37:-0.91892, 38:-0.60546, 39:-1.93831, 40:-2.50142, 41:-2.01120, 42:-0.87909, 43: 0.54534, 44: 0.60499, 45:-0.00558,
                46:-0.95909, 47:-0.48712, 48: 0.29031, 49:-0.60564, 50: 0.03708, 51: 1.55583, 52: 1.02183, 53: 0.44958, 54:-0.09645,
                55:-0.13672, 56:-0.48729, 57:-0.13456, 58: 0.47203, 59:-0.85858, 60: 0.21549, 61:-0.90265, 62:-0.91205, 63:-0.63768
    67 |      |  1:-0.57103,  2: 0.91980,  3: 0.70348,  4:-0.14713,  5: 0.09751,  6:-0.29789,  7: 0.62169,  8:-0.58397,  9:-1.42406,
                10: 0.44121, 11:-0.86565, 12: 0.64331, 13:-0.86173, 14: 0.04721, 15: 0.75060, 16: 0.49410, 17:-0.49278, 18:-1.45372,
                19:-0.85570, 20: 0.25387, 21:-0.78777, 22: 0.90710, 23: 1.44450, 24:-0.61925, 25: 0.12395, 26:-0.94149, 27: 0.03660,
                28:-0.71972, 29: 0.66698, 30: 1.22089, 31:-2.66880, 32:-2.74004, 33:-1.93096, 34: 1.00188, 35: 0.38798, 36: 0.37516,
                37:-0.01126, 38: 0.48442, 39:-0.07821, 40: 0.17695, 41:-0.46311, 42: 0.01236, 43: 0.31864, 44:-0.29237, 45: 0.19822,
                46: 0.19267, 47:-0.56659, 48: 1.03520, 49: 0.14249, 50: 0.64306, 51:-0.01292, 52:-0.30393, 53:-0.25740, 54: 1.20963,
                55: 0.09730, 56: 0.38652, 57:-0.61547, 58: 0.30595, 59: 0.02866, 60:-0.30064, 61: 0.27140, 62: 0.50108, 63: 0.88031
    68 |      |  1:-0.09336,  2: 0.48149,  3: 0.59673,  4:-0.24961,  5:-0.26426,  6: 0.60729,  7:-0.99109,  8:-0.74187,  9:-2.90132,
                10: 0.62490, 11: 0.85792, 12: 1.03716, 13:-0.15998, 14: 0.38481, 15:-0.00107, 16:-0.22604, 17: 0.62877, 18:-0.59670,
                19: 0.83053, 20: 1.33174, 21: 0.39531, 22:-0.86523, 23:-0.79803, 24: 0.35270, 25: 1.14237, 26:-0.33197, 27:-1.89449,
                28:-0.88421, 29:-0.51860, 30:-0.07086, 31:-0.17082, 32: 0.73786, 33: 0.42174, 34:-0.17978, 35:-0.55651, 36: 0.13730,
                37: 0.10228, 38: 0.49889, 39:-0.61888, 40: 1.71180, 41: 0.58118, 42: 0.10691, 43:-0.25181, 44:-0.21675, 45: 0.08908,
                46: 0.45165, 47: 0.27841, 48: 0.71191, 49: 0.10721, 50:-0.32286, 51:-1.84766, 52:-1.13032, 53:-1.46934, 54:-1.15735,
                55:-0.20481, 56:-0.83551, 57: 0.33164, 58: 0.43388, 59: 0.29960, 60: 0.23521, 61: 0.68035, 62:-0.96258, 63: 0.54399
    69 |      |  1: 0.97693,  2:-0.65648,  3:-0.64544,  4: 0.75701,  5: 0.93756,  6: 0.14994,  7:-0.50060,  8: 0.74377,  9:-0.04463,
                10: 1.38038, 11: 0.09336, 12: 0.75927, 13:-1.21907, 14:-0.23539, 15: 0.63622, 16: 0.02619, 17:-0.46867, 18: 0.44978,
                19:-1.51818, 20:-0.14800, 21:-0.59148, 22: 0.20023, 23: 0.60431, 24: 0.76977, 25: 0.52742, 26:-0.92064, 27: 0.57452,
                28: 0.82556, 29:-0.93603, 30: 0.07586, 31: 1.23868, 32: 1.00010, 33:-0.91592, 34:-2.27817, 35:-0.93121, 36:-0.10685,
                37: 0.61366, 38:-0.88635, 39: 0.46820, 40:-0.89028, 41:-0.23676, 42:-0.85717, 43:-0.38096, 44:-0.88170, 45: 0.73345,
                46:-0.15261, 47:-0.58624, 48:-1.12009, 49:-0.33256, 50: 0.00284, 51:-0.62622, 52: 0.39369, 53:-0.40184, 54: 0.59239,
                55:-2.00201, 56:-0.82134, 57: 0.71081, 58: 0.84399, 59:-0.01053, 60:-0.28257, 61: 0.64068, 62:-0.25211, 63:-0.79901
    70 |      |  1: 0.26865,  2: 0.61919,  3:-0.36259,  4: 0.89215,  5:-0.35575,  6: 0.50584,  7:-0.43419,  8:-0.54515,  9: 0.02475,
                10: 0.47458, 11:-0.02957, 12:-0.19275, 13: 2.17274, 14:-0.51256, 15: 0.75994, 16:-0.38376, 17:-0.90606, 18: 1.07210,
                19: 0.21461, 20:-1.19678, 21:-0.55675, 22: 0.52910, 23: 0.57540, 24: 0.46409, 25: 0.75279, 26: 1.35338, 27:-1.64915,
                28: 0.80401, 29: 0.23112, 30:-0.75834, 31: 0.47272, 32:-0.18376, 33: 0.35962, 34:-0.44689, 35: 0.42412, 36: 0.16239,
                37: 0.50825, 38:-0.99542, 39: 1.20385, 40:-0.10192, 41:-2.05366, 42:-0.14145, 43:-0.28355, 44: 0.75226, 45: 0.19773,
                46: 0.11080, 47:-0.55904, 48:-1.86515, 49: 0.20212, 50:-0.51671, 51:-0.86553, 52:-0.31399, 53: 0.07601, 54:-0.32974,
                55:-0.58372, 56: 0.76116, 57:-0.47429, 58: 0.52464, 59: 0.13340, 60:-0.95935, 61:-0.53130, 62: 0.68322, 63: 0.69909
    71 |      |  1: 0.41087,  2: 0.42167,  3:-0.89483,  4:-0.82470,  5: 0.79742,  6: 0.85083,  7:-0.31925,  8:-0.02658,  9: 1.05202,
                10:-0.01516, 11:-1.22454, 12:-0.00852, 13: 0.55516, 14:-0.14591, 15:-0.53215, 16: 0.72274, 17:-0.80456, 18: 0.07201,
                19: 0.27080, 20: 0.38350, 21: 0.69103, 22:-0.45280, 23: 0.44731, 24: 0.26768, 25:-0.28764, 26: 0.04143, 27: 1.32636,
                28: 0.44560, 29: 0.79925, 30: 1.02122, 31: 0.28053, 32:-0.68219, 33: 0.20693, 34: 1.53468, 35:-0.33055, 36: 0.46452,
                37: 0.06865, 38:-0.15250, 39:-0.98148, 40:-0.01492, 41: 0.42296, 42:-0.00778, 43: 0.82562, 44:-0.41464, 45:-0.45177,
                46: 0.45533, 47:-0.46039, 48:-0.33100, 49: 0.09012, 50: 0.98193, 51: 1.60480, 52:-1.36854, 53:-1.27584, 54:-0.63348,
                55: 1.26455, 56:-0.75616, 57: 0.78051, 58:-0.53594, 59: 0.76653, 60: 0.09934, 61:-0.51909, 62: 0.89422, 63:-0.11423
    72 |      | 64:-4.03532, 65:-0.37286, 66: 0.09323, 67:-0.64146, 68: 2.57533, 69:-1.57766, 70:-3.25368, 71: 1.52162
    73 |      | 64: 1.09452, 65: 2.00149, 66: 0.47883, 67:-3.42794, 68:-1.77277, 69: 3.16216, 70:-2.95794, 71:-1.20665
    74 |      | 64:-1.27222, 65:-3.19227, 66: 1.85381, 67: 2.90654, 68: 0.86738, 69: 0.66146, 70:-0.43825, 71:-2.83910
    75 |      | 64:-1.39812, 65: 0.13667, 66: 0.54428, 67: 3.83209, 68:-4.06849, 69:-0.23974, 70:-2.95657, 71: 0.24338
    76 |      | 64: 2.77006, 65:-2.57345, 66: 2.03248, 67:-1.24800, 68:-3.05259, 69:-0.90631, 70: 1.20299, 71:-0.63168
    77 |      | 64:-4.53603, 65:-3.74090, 66: 0.37222, 67:-1.13287, 68:-0.62912, 69: 0.48201, 70: 2.09397, 71: 0.60230
    78 |      | 64: 0.62203, 65: 2.29343, 66:-3.27491, 67: 2.15553, 68: 1.85189, 69:-0.45242, 70:-2.16872, 71:-2.23129
    79 |      | 64: 1.36970, 65:-0.26384, 66:-3.02752, 67:-1.96719, 68:-1.79437, 69:-3.13780, 70:-1.48304, 71: 2.67713
    80 |      | 64: 1.33528, 65:-2.01419, 66:-3.95219, 67:-1.40981, 68: 0.50875, 69: 1.38864, 70: 1.75570, 71:-2.04507
    81 |      | 64:-0.87852, 65: 1.28387, 66: 0.02856, 67:-1.62393, 68: 1.72641, 69:-3.67629, 70: 1.78575, 71:-2.55362
-------|------|---------------------------------------------------------------------------------------------------------------------


layer definition section :

layer | unitNo.
------|----------------------------------------------------------------------------------------------------------------------------
    2 | 64, 65, 66, 67, 68, 69, 70, 71
    3 | 72, 73, 74, 75, 76, 77, 78, 79, 80, 81
------|----------------------------------------------------------------------------------------------------------------------------
