SNNS network definition file V1.4-3D
generated at Fri Nov 11 16:39:26 2016

network name : 63_8_10 v5
source files :
no. of units : 81
no. of connections : 584
no. of unit types : 0
no. of site types : 0


learning function : BackpropMomentum
update function   : Topological_Order


unit default section :

act      | bias     | st | subnet | layer | act func     | out func
---------|----------|----|--------|-------|--------------|-------------
 0.00000 |  0.00000 | h  |      0 |     1 | Act_Logistic | Out_Identity 
---------|----------|----|--------|-------|--------------|-------------


unit definition section :

no. | typeName | unitName | act      | bias     | st | position | act func | out func | sites
----|----------|----------|----------|----------|----|----------|----------|----------|-------
  1 |          | noName   |  0.00000 | -0.46721 | i  |  1, 1, 1 |||
  2 |          | noName   |  0.00000 | -0.84533 | i  |  2, 1, 1 |||
  3 |          | noName   |  0.00000 | -0.63073 | i  |  3, 1, 1 |||
  4 |          | noName   |  0.00000 |  0.71404 | i  |  4, 1, 1 |||
  5 |          | noName   |  0.00000 |  0.02579 | i  |  5, 1, 1 |||
  6 |          | noName   |  0.00000 | -0.88183 | i  |  6, 1, 1 |||
  7 |          | noName   |  0.00000 |  0.56157 | i  |  7, 1, 1 |||
  8 |          | noName   |  0.00000 | -0.34141 | i  |  1, 2, 1 |||
  9 |          | noName   |  0.00000 |  0.31944 | i  |  2, 2, 1 |||
 10 |          | noName   |  0.80000 |  0.78118 | i  |  3, 2, 1 |||
 11 |          | noName   |  0.70000 |  0.16373 | i  |  4, 2, 1 |||
 12 |          | noName   |  0.80000 |  0.41093 | i  |  5, 2, 1 |||
 13 |          | noName   |  0.70000 | -0.61010 | i  |  6, 2, 1 |||
 14 |          | noName   |  0.00000 | -0.42473 | i  |  7, 2, 1 |||
 15 |          | noName   |  0.00000 | -0.20035 | i  |  1, 3, 1 |||
 16 |          | noName   |  0.00000 | -0.65758 | i  |  2, 3, 1 |||
 17 |          | noName   |  1.00000 | -0.60631 | i  |  3, 3, 1 |||
 18 |          | noName   |  0.00000 |  0.21964 | i  |  4, 3, 1 |||
 19 |          | noName   |  0.80000 |  0.74694 | i  |  5, 3, 1 |||
 20 |          | noName   |  0.00000 | -0.68303 | i  |  6, 3, 1 |||
 21 |          | noName   |  0.00000 |  0.65032 | i  |  7, 3, 1 |||
 22 |          | noName   |  0.00000 |  0.02261 | i  |  1, 4, 1 |||
 23 |          | noName   |  0.00000 | -0.71966 | i  |  2, 4, 1 |||
 24 |          | noName   |  0.00000 | -0.09085 | i  |  3, 4, 1 |||
 25 |          | noName   |  0.00000 |  0.23783 | i  |  4, 4, 1 |||
 26 |          | noName   |  0.00000 | -0.65587 | i  |  5, 4, 1 |||
 27 |          | noName   |  0.00000 |  0.53612 | i  |  6, 4, 1 |||
 28 |          | noName   |  0.00000 |  0.06326 | i  |  7, 4, 1 |||
 29 |          | noName   |  0.00000 | -0.73479 | i  |  1, 5, 1 |||
 30 |          | noName   |  0.00000 |  0.03049 | i  |  2, 5, 1 |||
 31 |          | noName   |  0.00000 |  0.45665 | i  |  3, 5, 1 |||
 32 |          | noName   |  0.00000 |  0.50737 | i  |  4, 5, 1 |||
 33 |          | noName   |  0.80000 |  0.88195 | i  |  5, 5, 1 |||
 34 |          | noName   |  0.00000 | -0.36583 | i  |  6, 5, 1 |||
 35 |          | noName   |  0.00000 |  0.38139 | i  |  7, 5, 1 |||
 36 |          | noName   |  0.00000 |  0.23228 | i  |  1, 6, 1 |||
 37 |          | noName   |  0.00000 |  0.08884 | i  |  2, 6, 1 |||
 38 |          | noName   |  0.00000 |  0.23191 | i  |  3, 6, 1 |||
 39 |          | noName   |  0.00000 | -0.15665 | i  |  4, 6, 1 |||
 40 |          | noName   |  0.70000 |  0.35069 | i  |  5, 6, 1 |||
 41 |          | noName   |  0.00000 | -0.58782 | i  |  6, 6, 1 |||
 42 |          | noName   |  0.00000 | -0.34819 | i  |  7, 6, 1 |||
 43 |          | noName   |  0.00000 |  0.13608 | i  |  1, 7, 1 |||
 44 |          | noName   |  0.80000 | -0.35301 | i  |  2, 7, 1 |||
 45 |          | noName   |  0.00000 | -0.49632 | i  |  3, 7, 1 |||
 46 |          | noName   |  0.00000 | -0.07559 | i  |  4, 7, 1 |||
 47 |          | noName   |  0.70000 |  0.21226 | i  |  5, 7, 1 |||
 48 |          | noName   |  0.00000 | -0.86871 | i  |  6, 7, 1 |||
 49 |          | noName   |  0.00000 |  0.72845 | i  |  7, 7, 1 |||
 50 |          | noName   |  0.00000 |  0.76782 | i  |  1, 8, 1 |||
 51 |          | noName   |  0.00000 | -0.52312 | i  |  2, 8, 1 |||
 52 |          | noName   |  0.80000 | -0.09012 | i  |  3, 8, 1 |||
 53 |          | noName   |  0.70000 |  0.80389 | i  |  4, 8, 1 |||
 54 |          | noName   |  0.00000 |  0.92120 | i  |  5, 8, 1 |||
 55 |          | noName   |  0.00000 | -0.96234 | i  |  6, 8, 1 |||
 56 |          | noName   |  0.00000 | -0.31571 | i  |  7, 8, 1 |||
 57 |          | noName   |  0.00000 |  0.55211 | i  |  1, 9, 1 |||
 58 |          | noName   |  0.00000 | -0.86181 | i  |  2, 9, 1 |||
 59 |          | noName   |  0.00000 | -0.02548 | i  |  3, 9, 1 |||
 60 |          | noName   |  0.00000 |  0.19211 | i  |  4, 9, 1 |||
 61 |          | noName   |  0.00000 |  0.82757 | i  |  5, 9, 1 |||
 62 |          | noName   |  0.00000 | -0.34703 | i  |  6, 9, 1 |||
 63 |          | noName   |  0.00000 |  0.19156 | i  |  7, 9, 1 |||
 64 |          | noName   |  0.03415 |  0.67618 | h  | 11, 1, 1 |||
 65 |          | noName   |  0.14064 | -1.31367 | h  | 11, 2, 1 |||
 66 |          | noName   |  0.98421 | -0.23857 | h  | 11, 3, 1 |||
 67 |          | noName   |  0.87174 |  0.20025 | h  | 11, 4, 1 |||
 68 |          | noName   |  0.82627 |  1.45671 | h  | 11, 5, 1 |||
 69 |          | noName   |  0.66620 |  0.83369 | h  | 11, 6, 1 |||
 70 |          | noName   |  0.26265 | -0.48779 | h  | 11, 7, 1 |||
 71 |          | noName   |  0.81647 | -0.28550 | h  | 11, 8, 1 |||
 72 |          | noName   |  0.00248 | -1.59752 | o  | 15, 1, 1 |||
 73 |          | noName   |  0.00995 | -0.89585 | o  | 15, 2, 1 |||
 74 |          | noName   |  0.02954 | -0.38016 | o  | 15, 3, 1 |||
 75 |          | noName   |  0.04074 | -0.17955 | o  | 15, 4, 1 |||
 76 |          | noName   |  0.03977 | -1.65369 | o  | 15, 5, 1 |||
 77 |          | noName   |  0.04080 | -1.48923 | o  | 15, 6, 1 |||
 78 |          | noName   |  0.04059 | -0.10116 | o  | 15, 7, 1 |||
 79 |          | noName   |  0.00505 | -0.30532 | o  | 15, 8, 1 |||
 80 |          | noName   |  0.09228 | -0.26786 | o  | 15, 9, 1 |||
 81 |          | noName   |  0.78469 | -1.27562 | o  | 15,10, 1 |||
----|----------|----------|----------|----------|----|----------|----------|----------|-------


connection definition section :

target | site | source:weight
-------|------|---------------------------------------------------------------------------------------------------------------------
    64 |      |  1: 0.68383,  2:-0.06876,  3: 0.41350,  4:-0.72753,  5:-0.16001,  6:-0.48057,  7: 0.88885,  8: 0.89612,  9:-1.12168,
                10:-0.09407, 11:-0.55309, 12:-0.33706, 13:-0.46002, 14:-0.50914, 15:-0.11716, 16: 0.85688, 17:-0.23191, 18:-0.67177,
                19: 0.21705, 20: 2.10046, 21:-0.92639, 22: 0.95965, 23: 1.56010, 24: 0.50737, 25:-0.70317, 26:-1.14829, 27:-0.28036,
                28:-0.97467, 29:-0.59441, 30: 1.49121, 31:-0.09798, 32: 0.30293, 33: 0.13533, 34:-0.76314, 35: 0.70830, 36: 0.60656,
                37: 0.33749, 38: 0.92859, 39: 0.06921, 40:-0.76301, 41:-0.50882, 42:-0.99567, 43:-0.95984, 44: 0.23030, 45: 0.63939,
                46:-0.74749, 47:-0.93026, 48:-0.12345, 49:-0.74853, 50:-0.91943, 51: 0.23805, 52:-0.83176, 53:-1.92574, 54:-1.03770,
                55:-0.25035, 56: 0.18931, 57: 0.26597, 58:-0.37748, 59:-0.29398, 60:-0.74316, 61:-0.58226, 62: 0.84143, 63: 0.81164
    65 |      |  1: 0.28837,  2: 0.05026,  3:-0.67901,  4: 0.56902,  5: 0.45567,  6: 0.46947,  7: 0.71062,  8: 0.22831,  9: 2.61043,
                10:-0.68006, 11:-1.94379, 12:-0.81221, 13: 1.65746, 14:-0.80804, 15: 0.25010, 16: 0.00652, 17: 0.22983, 18: 0.19044,
                19:-0.19237, 20:-0.16253, 21: 0.63536, 22: 0.43461, 23:-0.49511, 24:-0.89642, 25:-0.12634, 26:-0.04681, 27: 1.03142,
                28:-0.85699, 29: 0.59508, 30: 0.52359, 31:-1.89281, 32:-0.50860, 33:-0.83075, 34: 1.71661, 35:-0.88073, 36:-0.94324,
                37:-0.55470, 38: 0.21488, 39:-0.03948, 40:-0.32220, 41: 0.72678, 42: 0.93817, 43: 0.59136, 44: 0.69883, 45: 0.62975,
                46:-0.29285, 47: 0.15811, 48:-0.44482, 49: 0.06693, 50: 0.21921, 51: 1.70161, 52: 0.97137, 53: 0.37903, 54: 0.90733,
                55: 0.56283, 56: 0.18644, 57: 0.76891, 58:-0.05716, 59:-0.68004, 60: 0.50261, 61:-0.01914, 62: 0.56444, 63: 0.46861
    66 |      |  1: 0.75671,  2: 0.28117,  3:-0.21671,  4:-0.47069,  5:-0.90460,  6: 0.30021,  7:-0.96936,  8: 0.64360,  9: 2.45910,
                10: 0.67003, 11: 1.03136, 12: 0.45254, 13: 0.92177, 14:-0.86438, 15:-0.46983, 16:-0.67247, 17: 0.43907, 18:-0.23696,
                19: 0.37757, 20:-0.79372, 21:-0.19187, 22:-0.97040, 23: 0.02725, 24: 0.93628, 25: 0.22404, 26: 0.20933, 27: 1.19119,
                28: 0.71697, 29:-0.06888, 30:-1.56098, 31:-0.39808, 32: 0.36461, 33: 1.10274, 34:-1.93649, 35:-0.19425, 36:-0.99133,
                37:-0.35821, 38: 0.92303, 39: 0.97671, 40:-1.23106, 41:-0.97180, 42: 0.84759, 43: 0.60601, 44:-1.11495, 45:-0.17753,
                46: 0.22333, 47: 0.85624, 48:-0.98960, 49:-0.66503, 50:-0.29685, 51: 1.04545, 52: 0.82830, 53: 1.39174, 54: 0.67510,
                55:-1.63922, 56:-0.58592, 57: 0.84606, 58:-0.25614, 59:-0.11728, 60: 0.72997, 61: 0.11441, 62: 0.02902, 63:-0.45854
    67 |      |  1:-0.50121,  2: 0.39360,  3: 0.49181,  4: 0.07932,  5:-0.01804,  6: 0.34373,  7:-0.14695,  8: 0.13016,  9:-0.48974,
                10:-1.04285, 11: 0.69962, 12:-0.65244, 13: 0.51187, 14: 0.77898, 15:-0.64788, 16:-0.02302, 17:-0.94403, 18:-1.07141,
                19: 1.09464, 20: 0.06763, 21: 0.06461, 22: 0.32664, 23: 0.74141, 24: 0.24351, 25:-1.33038, 26: 0.71593, 27: 0.27039,
                28:-0.95202, 29:-0.48845, 30: 0.36153, 31:-1.82603, 32:-1.17118, 33: 0.51294, 34: 1.13316, 35:-0.04093, 36: 0.88818,
                37:-0.35280, 38: 0.88501, 39:-1.50120, 40: 0.48438, 41: 0.02217, 42:-0.87274, 43:-0.09958, 44:-0.41931, 45:-0.43480,
                46:-0.21156, 47: 0.62173, 48: 0.29454, 49: 0.21580, 50: 0.05203, 51: 0.29078, 52: 1.37621, 53: 0.48932, 54:-1.06982,
                55: 1.86992, 56: 0.61052, 57: 0.28245, 58:-0.33006, 59:-0.53935, 60:-0.26017, 61: 0.41618, 62:-0.55779, 63:-0.59093
    68 |      |  1: 0.92505,  2:-0.84301,  3:-0.86224,  4:-0.85534,  5: 0.33793,  6: 0.93207,  7: 0.18162,  8:-0.32371,  9:-1.38844,
                10: 0.67587, 11: 0.53939, 12: 0.91734, 13: 1.92530, 14: 0.57884, 15: 0.34483, 16:-0.32577, 17:-0.25925, 18: 1.22290,
                19:-0.14560, 20: 0.29906, 21:-0.12253, 22: 0.90777, 23: 0.53697, 24: 0.26365, 25:-0.37170, 26: 0.09812, 27:-2.17565,
                28: 0.43693, 29: 0.43406, 30:-0.51389, 31: 0.26555, 32: 1.07994, 33:-0.15173, 34:-0.40028, 35:-0.22935, 36: 0.12088,
                37:-0.73766, 38: 0.93274, 39: 0.52576, 40:-0.72781, 41:-3.08367, 42:-0.82824, 43: 0.29118, 44: 0.54679, 45: 0.20560,
                46:-0.46954, 47:-0.76586, 48:-1.05648, 49: 0.86956, 50: 0.78527, 51: 0.27698, 52:-1.11121, 53:-1.28989, 54: 0.44705,
                55: 1.78486, 56:-0.48601, 57:-0.13663, 58:-0.63433, 59:-0.87982, 60: 0.33299, 61: 0.48369, 62: 0.01108, 63: 0.45036
    69 |      |  1: 0.44542,  2: 0.34098,  3: 0.41282,  4: 0.65123,  5: 0.38603,  6:-0.60277,  7: 0.02023,  8:-0.72967,  9: 0.23338,
                10: 0.35878, 11: 0.17710, 12:-0.76448, 13:-0.97036, 14:-0.00760, 15: 0.13718, 16:-0.03472, 17:-0.84655, 18: 0.34952,
                19: 0.68700, 20: 0.12343, 21: 0.71929, 22: 0.35496, 23:-1.43076, 24:-0.76501, 25: 0.34427, 26:-0.11067, 27:-0.25859,
                28: 0.18448, 29: 0.79614, 30:-0.01204, 31: 0.44545, 32: 1.98981, 33: 1.41618, 34:-0.13323, 35: 0.43199, 36:-0.86737,
                37:-0.10033, 38: 0.89837, 39: 1.22563, 40: 2.74115, 41: 2.64330, 42:-0.62444, 43: 0.59465, 44: 0.19104, 45:-0.90875,
                46: 1.30896, 47:-0.71049, 48: 0.73289, 49: 0.45628, 50: 0.42247, 51:-0.29300, 52:-1.34280, 53:-0.85546, 54:-1.92369,
                55:-0.38878, 56: 0.86279, 57:-0.62609, 58:-0.52434, 59: 0.92785, 60: 0.31016, 61: 0.91479, 62:-0.05734, 63: 0.04416
    70 |      |  1: 0.47020,  2: 0.71508,  3: 0.00827,  4:-0.47533,  5:-0.65117,  6: 0.07132,  7: 0.37284,  8:-0.09952,  9:-1.50483,
                10: 0.57298, 11: 1.04002, 12: 0.50158, 13:-2.21328, 14:-0.52336, 15:-0.64202, 16: 0.14008, 17: 0.95434, 18:-0.40577,
                19:-0.09254, 20:-0.58443, 21:-0.93725, 22:-0.74969, 23:-0.84876, 24: 0.39586, 25:-0.52128, 26:-0.96302, 27: 0.07340,
                28: 0.59148, 29:-0.30448, 30: 0.24376, 31: 1.70966, 32: 0.86697, 33:-0.23548, 34: 0.57203, 35: 0.13437, 36:-0.65075,
                37:-0.64298, 38:-0.38615, 39: 0.42940, 40:-2.11706, 41:-1.36171, 42:-0.86676, 43: 0.62712, 44:-0.94365, 45: 0.56999,
                46: 0.47530, 47:-1.04322, 48: 0.54617, 49:-0.86377, 50: 0.48320, 51:-0.07141, 52: 1.13674, 53: 1.11853, 54: 1.09341,
                55: 2.10013, 56: 0.39518, 57:-0.40074, 58:-0.35563, 59:-0.05020, 60: 0.47221, 61:-0.69311, 62: 0.44389, 63: 0.56944
    71 |      |  1: 0.40947,  2: 0.04874,  3: 0.61547,  4:-0.30906,  5:-0.55089,  6: 0.28629,  7:-0.75665,  8:-0.44493,  9:-1.31567,
                10: 0.74629, 11: 0.85471, 12: 0.37044, 13: 0.24538, 14: 0.48869, 15:-0.36369, 16: 0.45647, 17:-0.19657, 18: 1.02137,
                19:-0.34900, 20: 0.22197, 21: 0.38060, 22:-0.82421, 23:-0.65842, 24:-0.01559, 25: 0.29736, 26:-0.48437, 27:-1.00215,
                28: 0.95874, 29:-0.77013, 30: 0.51106, 31:-2.18272, 32:-1.54543, 33:-1.24148, 34: 0.93989, 35: 0.06925, 36:-0.80346,
                37:-0.32230, 38: 0.91131, 39: 0.64198, 40: 1.39770, 41: 0.94836, 42: 0.83929, 43:-0.79492, 44:-0.75629, 45:-0.01071,
                46: 0.99305, 47: 0.59340, 48: 0.27147, 49: 0.06961, 50:-0.51317, 51:-1.30981, 52: 0.25559, 53: 0.84344, 54: 1.30509,
                55:-1.51298, 56: 0.84948, 57: 0.32463, 58: 0.51640, 59: 0.25266, 60: 0.61986, 61: 0.25791, 62:-0.27812, 63:-0.59490
    72 |      | 64: 0.99729, 65:-3.35908, 66:-3.54405, 67:-0.00471, 68: 0.75222, 69: 1.26398, 70: 1.53982, 71:-2.86360
    73 |      | 64:-0.27641, 65:-1.64344, 66: 2.79531, 67:-1.39203, 68:-4.27501, 69: 0.68119, 70: 1.25805, 71:-2.75990
    74 |      | 64: 1.21628, 65:-2.88800, 66:-1.96636, 67: 0.05979, 68: 1.38041, 69:-4.95555, 70: 0.48371, 71: 1.43279
    75 |      | 64:-1.80084, 65: 2.72214, 66: 0.72287, 67: 0.93938, 68:-3.61662, 69:-3.53279, 70:-0.69797, 71: 0.85014
    76 |      | 64:-1.86900, 65: 1.00161, 66: 0.69363, 67: 0.39304, 68: 2.28743, 69:-3.24484, 70: 1.56015, 71:-3.39364
    77 |      | 64: 1.56846, 65:-1.57391, 66: 0.96970, 67:-2.20191, 68: 2.70763, 69:-0.12721, 70:-3.73355, 71:-2.09090
    78 |      | 64:-0.82575, 65:-1.34202, 66:-3.34996, 67: 0.01907, 68:-3.04316, 69: 0.56239, 70:-1.67765, 71: 3.69426
    79 |      | 64:-0.23140, 65: 2.35853, 66:-2.74414, 67: 0.84405, 68:-1.28877, 69: 1.21446, 70:-3.48843, 71:-2.65045
    80 |      | 64:-3.18005, 65:-2.40303, 66:-0.32037, 67:-4.07757, 68: 1.51830, 69:-0.09995, 70: 0.86428, 71: 1.08173
    81 |      | 64:-3.25441, 65:-1.36658, 66: 1.15438, 67: 2.27873, 68: 0.30118, 69:-0.07255, 70:-2.91050, 71: 0.38393
-------|------|---------------------------------------------------------------------------------------------------------------------


layer definition section :

layer | unitNo.
------|----------------------------------------------------------------------------------------------------------------------------
    2 | 64, 65, 66, 67, 68, 69, 70, 71
    3 | 72, 73, 74, 75, 76, 77, 78, 79, 80, 81
------|----------------------------------------------------------------------------------------------------------------------------
