SNNS network definition file V1.4-3D
generated at Fri Nov 11 16:34:15 2016

network name : 63_8_10 v4
source files :
no. of units : 81
no. of connections : 584
no. of unit types : 0
no. of site types : 0


learning function : BackpropMomentum
update function   : Topological_Order


unit default section :

act      | bias     | st | subnet | layer | act func     | out func
---------|----------|----|--------|-------|--------------|-------------
 0.00000 |  0.00000 | h  |      0 |     1 | Act_Logistic | Out_Identity 
---------|----------|----|--------|-------|--------------|-------------


unit definition section :

no. | typeName | unitName | act      | bias     | st | position | act func | out func | sites
----|----------|----------|----------|----------|----|----------|----------|----------|-------
  1 |          | noName   |  0.00000 |  0.10630 | i  |  1, 1, 1 |||
  2 |          | noName   |  0.00000 | -0.23496 | i  |  2, 1, 1 |||
  3 |          | noName   |  0.00000 | -0.70336 | i  |  3, 1, 1 |||
  4 |          | noName   |  0.00000 |  0.40385 | i  |  4, 1, 1 |||
  5 |          | noName   |  0.00000 | -0.70049 | i  |  5, 1, 1 |||
  6 |          | noName   |  0.00000 |  0.99109 | i  |  6, 1, 1 |||
  7 |          | noName   |  0.00000 |  0.69024 | i  |  7, 1, 1 |||
  8 |          | noName   |  0.00000 |  0.54381 | i  |  1, 2, 1 |||
  9 |          | noName   |  0.00000 | -0.68767 | i  |  2, 2, 1 |||
 10 |          | noName   |  0.80000 | -0.52898 | i  |  3, 2, 1 |||
 11 |          | noName   |  0.70000 |  0.24534 | i  |  4, 2, 1 |||
 12 |          | noName   |  0.80000 | -0.75933 | i  |  5, 2, 1 |||
 13 |          | noName   |  0.70000 |  0.09214 | i  |  6, 2, 1 |||
 14 |          | noName   |  0.00000 | -0.35063 | i  |  7, 2, 1 |||
 15 |          | noName   |  0.00000 |  0.77074 | i  |  1, 3, 1 |||
 16 |          | noName   |  0.00000 |  0.64342 | i  |  2, 3, 1 |||
 17 |          | noName   |  1.00000 |  0.46660 | i  |  3, 3, 1 |||
 18 |          | noName   |  0.00000 |  0.21940 | i  |  4, 3, 1 |||
 19 |          | noName   |  0.80000 | -0.34397 | i  |  5, 3, 1 |||
 20 |          | noName   |  0.00000 | -0.82604 | i  |  6, 3, 1 |||
 21 |          | noName   |  0.00000 |  0.39726 | i  |  7, 3, 1 |||
 22 |          | noName   |  0.00000 |  0.61406 | i  |  1, 4, 1 |||
 23 |          | noName   |  0.00000 | -0.34971 | i  |  2, 4, 1 |||
 24 |          | noName   |  0.00000 |  0.44188 | i  |  3, 4, 1 |||
 25 |          | noName   |  0.00000 |  0.48643 | i  |  4, 4, 1 |||
 26 |          | noName   |  0.00000 | -0.26536 | i  |  5, 4, 1 |||
 27 |          | noName   |  0.00000 |  0.92553 | i  |  6, 4, 1 |||
 28 |          | noName   |  0.00000 |  0.30290 | i  |  7, 4, 1 |||
 29 |          | noName   |  0.00000 | -0.94958 | i  |  1, 5, 1 |||
 30 |          | noName   |  0.00000 | -0.01968 | i  |  2, 5, 1 |||
 31 |          | noName   |  0.00000 | -0.76171 | i  |  3, 5, 1 |||
 32 |          | noName   |  0.00000 | -0.37510 | i  |  4, 5, 1 |||
 33 |          | noName   |  0.80000 |  0.07248 | i  |  5, 5, 1 |||
 34 |          | noName   |  0.00000 |  0.64104 | i  |  6, 5, 1 |||
 35 |          | noName   |  0.00000 |  0.00131 | i  |  7, 5, 1 |||
 36 |          | noName   |  0.00000 | -0.67656 | i  |  1, 6, 1 |||
 37 |          | noName   |  0.00000 |  0.34623 | i  |  2, 6, 1 |||
 38 |          | noName   |  0.00000 | -0.28416 | i  |  3, 6, 1 |||
 39 |          | noName   |  0.00000 | -0.92267 | i  |  4, 6, 1 |||
 40 |          | noName   |  0.70000 | -0.77105 | i  |  5, 6, 1 |||
 41 |          | noName   |  0.00000 | -0.87677 | i  |  6, 6, 1 |||
 42 |          | noName   |  0.00000 |  0.22019 | i  |  7, 6, 1 |||
 43 |          | noName   |  0.00000 |  0.10880 | i  |  1, 7, 1 |||
 44 |          | noName   |  0.80000 | -0.65105 | i  |  2, 7, 1 |||
 45 |          | noName   |  0.00000 |  0.57756 | i  |  3, 7, 1 |||
 46 |          | noName   |  0.00000 |  0.04331 | i  |  4, 7, 1 |||
 47 |          | noName   |  0.70000 | -0.80547 | i  |  5, 7, 1 |||
 48 |          | noName   |  0.00000 | -0.91327 | i  |  6, 7, 1 |||
 49 |          | noName   |  0.00000 |  0.39848 | i  |  7, 7, 1 |||
 50 |          | noName   |  0.00000 | -0.58086 | i  |  1, 8, 1 |||
 51 |          | noName   |  0.00000 |  0.72729 | i  |  2, 8, 1 |||
 52 |          | noName   |  0.80000 |  0.98029 | i  |  3, 8, 1 |||
 53 |          | noName   |  0.70000 |  0.82482 | i  |  4, 8, 1 |||
 54 |          | noName   |  0.00000 | -0.92669 | i  |  5, 8, 1 |||
 55 |          | noName   |  0.00000 | -0.79687 | i  |  6, 8, 1 |||
 56 |          | noName   |  0.00000 |  0.52239 | i  |  7, 8, 1 |||
 57 |          | noName   |  0.00000 | -0.56639 | i  |  1, 9, 1 |||
 58 |          | noName   |  0.00000 | -0.89209 | i  |  2, 9, 1 |||
 59 |          | noName   |  0.00000 |  0.81695 | i  |  3, 9, 1 |||
 60 |          | noName   |  0.00000 |  0.62609 | i  |  4, 9, 1 |||
 61 |          | noName   |  0.00000 | -0.00534 | i  |  5, 9, 1 |||
 62 |          | noName   |  0.00000 | -0.31260 | i  |  6, 9, 1 |||
 63 |          | noName   |  0.00000 | -0.34568 | i  |  7, 9, 1 |||
 64 |          | noName   |  0.86823 |  0.11097 | h  | 11, 1, 1 |||
 65 |          | noName   |  0.01198 |  0.21324 | h  | 11, 2, 1 |||
 66 |          | noName   |  0.98445 |  1.46035 | h  | 11, 3, 1 |||
 67 |          | noName   |  0.04529 |  0.35040 | h  | 11, 4, 1 |||
 68 |          | noName   |  0.13219 | -2.26446 | h  | 11, 5, 1 |||
 69 |          | noName   |  0.99302 | -1.14883 | h  | 11, 6, 1 |||
 70 |          | noName   |  0.57222 |  0.53697 | h  | 11, 7, 1 |||
 71 |          | noName   |  0.90534 |  0.87148 | h  | 11, 8, 1 |||
 72 |          | noName   |  0.00027 | -2.12252 | o  | 15, 1, 1 |||
 73 |          | noName   |  0.04298 |  0.01681 | o  | 15, 2, 1 |||
 74 |          | noName   |  0.00093 | -1.61835 | o  | 15, 3, 1 |||
 75 |          | noName   |  0.00372 | -1.10660 | o  | 15, 4, 1 |||
 76 |          | noName   |  0.02324 | -2.83276 | o  | 15, 5, 1 |||
 77 |          | noName   |  0.07698 | -2.29032 | o  | 15, 6, 1 |||
 78 |          | noName   |  0.07336 | -0.14410 | o  | 15, 7, 1 |||
 79 |          | noName   |  0.00767 | -1.08496 | o  | 15, 8, 1 |||
 80 |          | noName   |  0.04387 | -0.83257 | o  | 15, 9, 1 |||
 81 |          | noName   |  0.82556 | -1.39401 | o  | 15,10, 1 |||
----|----------|----------|----------|----------|----|----------|----------|----------|-------


connection definition section :

target | site | source:weight
-------|------|---------------------------------------------------------------------------------------------------------------------
    64 |      |  1: 0.70403,  2:-0.41252,  3: 0.29514,  4: 0.07327,  5: 0.10929,  6:-0.32957,  7:-0.36161,  8:-0.19742,  9: 1.28404,
                10:-0.97591, 11:-0.77319, 12:-1.44764, 13: 1.34949, 14:-0.90619, 15: 0.63665, 16:-0.70967, 17:-0.71612, 18:-1.27150,
                19: 0.90521, 20:-0.09429, 21: 0.32347, 22: 0.94818, 23: 0.08763, 24: 0.66338, 25:-1.04285, 26: 1.25053, 27: 0.36690,
                28:-0.25919, 29:-0.85369, 30:-0.93188, 31: 1.84736, 32: 0.86457, 33: 2.06016, 34:-0.49476, 35:-0.36631, 36: 0.78661,
                37: 0.77817, 38:-0.94549, 39:-0.05115, 40:-0.50374, 41: 0.10671, 42:-0.97046, 43:-0.82037, 44: 0.15823, 45: 0.63646,
                46:-1.17687, 47: 1.14400, 48:-1.21926, 49:-0.87854, 50:-0.31034, 51:-0.04003, 52: 0.05518, 53: 1.47830, 54:-0.93774,
                55: 0.27567, 56:-0.43150, 57: 0.23130, 58: 0.46910, 59: 0.78338, 60: 0.63976, 61: 0.02744, 62:-0.06992, 63: 0.21531
    65 |      |  1:-0.60552,  2:-0.60277,  3: 0.53502,  4: 0.40922,  5:-0.25260,  6:-0.61968,  7: 0.94830,  8:-0.38316,  9:-0.07416,
                10:-0.44401, 11:-0.67830, 12: 0.68365, 13:-1.95732, 14:-0.41118, 15:-0.69591, 16: 0.17022, 17: 0.47233, 18:-0.17573,
                19:-0.89837, 20: 1.48705, 21:-0.37809, 22:-0.31907, 23: 1.43304, 24:-0.24613, 25:-0.78085, 26:-0.52933, 27: 2.33886,
                28:-0.87201, 29:-0.27757, 30:-0.27875, 31:-0.36071, 32:-1.40428, 33: 0.16124, 34: 1.71360, 35: 0.57964, 36: 0.69951,
                37: 0.16083, 38:-0.52751, 39:-0.56126, 40:-2.31113, 41:-1.60646, 42: 0.32481, 43: 0.49626, 44:-0.39685, 45:-0.43681,
                46:-0.67592, 47: 0.08364, 48: 2.10163, 49: 0.45982, 50:-0.61992, 51:-0.31360, 52:-0.28623, 53:-1.07053, 54:-0.12373,
                55: 0.33173, 56:-0.45195, 57: 0.30686, 58:-0.23771, 59:-0.34336, 60:-0.17661, 61: 0.87841, 62: 0.73406, 63: 0.04569
    66 |      |  1: 0.66607,  2:-0.27061,  3: 0.41069,  4: 0.22819,  5:-0.23527,  6:-0.53172,  7: 0.57695,  8: 0.11557,  9: 0.75785,
                10: 0.67255, 11: 0.07128, 12: 0.41609, 13: 1.37487, 14:-0.89312, 15: 0.85534, 16:-0.19554, 17: 0.77013, 18:-0.07726,
                19: 0.45811, 20:-0.66541, 21: 0.09354, 22:-0.59008, 23: 0.80492, 24:-0.90777, 25: 1.62237, 26: 0.10729, 27: 1.25626,
                28: 0.15598, 29:-0.29539, 30:-1.97382, 31:-0.73501, 32:-0.18713, 33: 0.60298, 34: 0.24642, 35:-0.26627, 36: 0.37858,
                37:-1.04521, 38: 0.81750, 39: 0.63030, 40:-0.54989, 41:-0.45528, 42:-0.23405, 43:-0.92187, 44:-0.49205, 45: 0.53374,
                46: 0.50964, 47: 0.06752, 48:-1.28812, 49:-0.34831, 50: 0.77563, 51:-0.40811, 52:-0.36226, 53: 0.29540, 54:-1.12380,
                55:-3.27547, 56: 0.34001, 57: 0.02353, 58:-0.10221, 59: 0.70635, 60: 0.36851, 61:-0.02676, 62:-0.17814, 63:-0.02243
    67 |      |  1: 0.00693,  2: 0.11911,  3:-0.68322,  4:-0.65349,  5: 0.71203,  6: 0.28208,  7:-0.51866,  8: 0.42753,  9: 0.33114,
                10:-0.66371, 11:-0.69020, 12:-0.95367, 13: 1.26283, 14: 0.62084, 15: 0.37223, 16: 0.18923, 17:-0.08444, 18: 1.18195,
                19:-1.26716, 20: 0.81021, 21: 0.53905, 22:-0.26707, 23: 0.78411, 24:-0.94263, 25: 1.14467, 26:-1.04537, 27:-0.57413,
                28:-0.48399, 29:-0.98144, 30:-0.80469, 31:-1.04321, 32: 0.07455, 33:-0.22470, 34: 1.40060, 35: 0.99054, 36: 0.14029,
                37:-0.69092, 38:-0.06302, 39: 0.51011, 40:-1.14944, 41:-2.05555, 42: 0.01321, 43: 0.94488, 44:-0.13821, 45:-0.27628,
                46: 0.01751, 47:-1.15563, 48: 0.07200, 49: 0.93536, 50:-0.83880, 51: 0.60288, 52: 0.44091, 53: 0.20522, 54: 1.92710,
                55: 2.43447, 56: 0.82311, 57: 0.74462, 58: 0.78570, 59: 0.20194, 60:-0.53368, 61:-0.26225, 62:-0.08371, 63:-0.15708
    68 |      |  1:-0.09452,  2:-0.89850,  3:-0.35209,  4: 0.58068,  5: 0.13999,  6:-0.83068,  7:-0.38145,  8: 0.68175,  9: 0.40991,
                10: 1.74224, 11: 0.24547, 12: 1.97760, 13:-1.40339, 14: 0.10324, 15:-0.06314, 16: 1.18765, 17: 0.64702, 18: 0.31665,
                19: 0.16352, 20:-1.99130, 21: 0.75921, 22:-0.75249, 23: 0.38442, 24:-0.97180, 25: 0.05411, 26:-0.15125, 27: 1.06167,
                28: 0.89959, 29: 0.59020, 30:-0.23049, 31:-0.02688, 32: 0.48326, 33: 0.90611, 34: 0.09848, 35:-0.75549, 36:-0.69903,
                37: 0.02770, 38: 0.67882, 39: 0.21207, 40:-0.85756, 41:-0.30795, 42: 0.72674, 43:-0.88415, 44:-1.16692, 45: 0.30906,
                46:-1.38195, 47:-1.40565, 48:-0.89876, 49:-0.45091, 50: 0.82226, 51: 2.66914, 52:-0.85647, 53:-0.11765, 54:-0.33709,
                55: 0.36244, 56: 0.87640, 57: 0.83337, 58:-0.66393, 59:-0.58696, 60:-0.69158, 61:-0.40226, 62: 0.73986, 63: 0.47380
    69 |      |  1:-0.15012,  2: 0.21183,  3: 0.79846,  4:-0.25297,  5: 0.59954,  6: 0.47765,  7:-0.05441,  8: 0.00705,  9: 0.73632,
                10: 0.70665, 11:-0.12756, 12:-0.27622, 13: 0.45992, 14: 0.52672, 15: 0.63134, 16:-0.06690, 17: 0.70269, 18:-0.02432,
                19: 1.11159, 20:-0.02951, 21:-0.44517, 22:-0.44859, 23:-0.98633, 24:-0.61632, 25:-1.03714, 26: 0.61281, 27:-0.53403,
                28: 0.99811, 29: 0.34507, 30:-0.77945, 31:-1.34896, 32:-1.45989, 33: 0.20818, 34:-0.33110, 35: 0.39024, 36: 0.17710,
                37: 0.38256, 38:-0.10947, 39:-0.71344, 40: 1.97151, 41: 0.98504, 42: 0.56670, 43:-0.38926, 44:-0.45973, 45: 0.46538,
                46:-0.37882, 47:-0.54385, 48:-0.19356, 49:-0.26878, 50:-0.95630, 51: 0.78793, 52: 1.57228, 53: 2.68806, 54: 1.46566,
                55: 1.02739, 56:-0.62133, 57:-0.34690, 58:-0.54082, 59: 0.60918, 60:-0.91388, 61:-0.02097, 62:-0.98474, 63:-0.29783
    70 |      |  1: 0.32853,  2:-0.01480,  3:-0.83703,  4:-0.33805,  5:-0.35875,  6:-0.44530,  7: 0.41948,  8: 0.53246,  9:-2.42872,
                10:-0.04018, 11: 1.20823, 12: 0.28695, 13:-1.56137, 14:-0.13602, 15: 0.53758, 16:-0.32349, 17: 0.82086, 18: 0.91774,
                19:-0.70818, 20: 0.38044, 21: 0.72674, 22:-0.75787, 23:-1.03583, 24:-0.49742, 25: 0.75114, 26:-0.60817, 27:-0.55924,
                28:-0.49712, 29:-0.79089, 30: 0.32588, 31: 2.14450, 32: 0.68062, 33: 0.22693, 34:-2.00107, 35:-0.67779, 36: 0.08499,
                37: 1.08179, 38:-0.58013, 39: 1.00440, 40:-1.21625, 41:-1.85991, 42:-0.80688, 43:-0.55095, 44: 0.84927, 45:-0.63146,
                46: 0.51349, 47:-0.76718, 48: 0.08151, 49: 0.72002, 50: 0.11087, 51:-0.40808, 52: 0.17107, 53:-0.08572, 54:-0.47753,
                55: 0.09642, 56: 0.20902, 57:-0.43297, 58: 0.06522, 59:-0.94024, 60: 0.99091, 61: 0.30735, 62: 0.46532, 63: 0.36015
    71 |      |  1: 0.82971,  2:-0.04324,  3: 0.13608,  4: 0.14194,  5:-0.18387,  6: 0.74822,  7:-0.00272,  8:-0.61327,  9:-0.26195,
                10: 0.22662, 11: 0.43992, 12:-0.26127, 13: 1.01236, 14:-0.91235, 15: 0.73766, 16: 0.52959, 17: 0.73980, 18:-0.44573,
                19:-0.71051, 20:-0.05648, 21:-0.92444, 22:-0.08249, 23: 0.13547, 24:-0.23606, 25: 0.05317, 26:-0.01558, 27:-1.43943,
                28:-0.89459, 29:-0.89190, 30: 1.01949, 31:-1.34224, 32:-0.33016, 33: 0.57027, 34: 1.54063, 35:-0.06497, 36:-0.65886,
                37:-0.67849, 38: 0.11447, 39: 0.50037, 40: 2.58148, 41: 1.02000, 42:-0.73363, 43: 0.65032, 44:-0.31064, 45:-0.80566,
                46: 0.47062, 47: 0.49094, 48:-0.61931, 49: 0.75378, 50:-0.69121, 51: 0.64184, 52:-0.99305, 53:-1.91100, 54:-0.27498,
                55: 0.92900, 56: 0.24613, 57:-0.06143, 58:-0.93579, 59:-0.96551, 60: 0.21409, 61:-0.99158, 62:-0.18760, 63: 0.27976
    72 |      | 64:-1.25117, 65: 1.69269, 66:-2.57819, 67:-1.46858, 68: 2.65307, 69:-3.82487, 70: 1.22321, 71: 0.35872
    73 |      | 64: 1.76772, 65: 0.34326, 66:-0.72805, 67:-2.84699, 68: 0.79632, 69:-0.24857, 70: 0.58055, 71:-4.42242
    74 |      | 64:-2.66231, 65: 3.36490, 66:-1.21828, 67: 0.33396, 68:-3.34994, 69:-0.89606, 70: 2.50752, 71:-2.21650
    75 |      | 64:-2.97207, 65: 2.38977, 66: 0.55071, 67: 0.13957, 68: 0.99076, 69: 1.16049, 70:-4.41435, 71:-1.36642
    76 |      | 64: 1.58919, 65:-3.44997, 66:-2.81963, 67: 2.52261, 68: 1.39861, 69: 1.53512, 70:-0.27593, 71:-1.25239
    77 |      | 64: 0.44683, 65:-2.64724, 66: 2.37358, 67:-1.45525, 68: 2.69554, 69:-3.66622, 70:-0.63679, 71: 0.91446
    78 |      | 64:-2.13656, 65:-1.72154, 66:-3.54957, 67:-1.99959, 68:-2.49307, 69: 2.61099, 70:-0.76983, 71: 1.37602
    79 |      | 64: 3.05496, 65: 1.65001, 66:-1.24975, 67: 1.63177, 68:-2.45363, 69:-2.17867, 70:-2.90279, 71:-1.26440
    80 |      | 64:-3.06862, 65:-2.79142, 66: 2.59397, 67: 1.64470, 68:-0.79647, 69:-1.14914, 70: 0.95171, 71:-1.63220
    81 |      | 64: 1.50687, 65:-2.04847, 66: 2.55170, 67:-3.14070, 68:-2.10756, 69: 1.65730, 70:-1.88703, 71:-1.09618
-------|------|---------------------------------------------------------------------------------------------------------------------


layer definition section :

layer | unitNo.
------|----------------------------------------------------------------------------------------------------------------------------
    2 | 64, 65, 66, 67, 68, 69, 70, 71
    3 | 72, 73, 74, 75, 76, 77, 78, 79, 80, 81
------|----------------------------------------------------------------------------------------------------------------------------
