SNNS network definition file V1.4-3D
generated at Fri Nov 11 15:35:30 2016

network name : 63_6_10 v1
source files :
no. of units : 79
no. of connections : 438
no. of unit types : 0
no. of site types : 0


learning function : BackpropMomentum
update function   : Topological_Order


unit default section :

act      | bias     | st | subnet | layer | act func     | out func
---------|----------|----|--------|-------|--------------|-------------
 0.00000 |  0.00000 | h  |      0 |     1 | Act_Logistic | Out_Identity 
---------|----------|----|--------|-------|--------------|-------------


unit definition section :

no. | typeName | unitName | act      | bias     | st | position | act func | out func | sites
----|----------|----------|----------|----------|----|----------|----------|----------|-------
  1 |          | noName   |  0.00000 | -0.01053 | i  |  1, 1, 1 |||
  2 |          | noName   |  0.00000 | -0.28257 | i  |  2, 1, 1 |||
  3 |          | noName   |  0.00000 |  0.64068 | i  |  3, 1, 1 |||
  4 |          | noName   |  0.00000 | -0.25211 | i  |  4, 1, 1 |||
  5 |          | noName   |  0.00000 | -0.79901 | i  |  5, 1, 1 |||
  6 |          | noName   |  0.00000 |  0.30137 | i  |  6, 1, 1 |||
  7 |          | noName   |  0.00000 |  0.26865 | i  |  7, 1, 1 |||
  8 |          | noName   |  0.00000 |  0.61919 | i  |  1, 2, 1 |||
  9 |          | noName   |  0.00000 | -0.36259 | i  |  2, 2, 1 |||
 10 |          | noName   |  0.80000 |  0.89215 | i  |  3, 2, 1 |||
 11 |          | noName   |  0.70000 | -0.35575 | i  |  4, 2, 1 |||
 12 |          | noName   |  0.80000 |  0.50584 | i  |  5, 2, 1 |||
 13 |          | noName   |  0.70000 | -0.43419 | i  |  6, 2, 1 |||
 14 |          | noName   |  0.00000 | -0.54515 | i  |  7, 2, 1 |||
 15 |          | noName   |  0.00000 | -0.42778 | i  |  1, 3, 1 |||
 16 |          | noName   |  0.00000 | -0.10697 | i  |  2, 3, 1 |||
 17 |          | noName   |  1.00000 | -0.16746 | i  |  3, 3, 1 |||
 18 |          | noName   |  0.00000 | -0.45470 | i  |  4, 3, 1 |||
 19 |          | noName   |  0.80000 |  0.10111 | i  |  5, 3, 1 |||
 20 |          | noName   |  0.00000 | -0.51256 | i  |  6, 3, 1 |||
 21 |          | noName   |  0.00000 |  0.75994 | i  |  7, 3, 1 |||
 22 |          | noName   |  0.00000 | -0.13034 | i  |  1, 4, 1 |||
 23 |          | noName   |  0.00000 | -0.90606 | i  |  2, 4, 1 |||
 24 |          | noName   |  0.00000 |  0.75573 | i  |  3, 4, 1 |||
 25 |          | noName   |  0.00000 | -0.21897 | i  |  4, 4, 1 |||
 26 |          | noName   |  0.00000 | -0.37059 | i  |  5, 4, 1 |||
 27 |          | noName   |  0.00000 | -0.55675 | i  |  6, 4, 1 |||
 28 |          | noName   |  0.00000 |  0.52910 | i  |  7, 4, 1 |||
 29 |          | noName   |  0.00000 |  0.87573 | i  |  1, 5, 1 |||
 30 |          | noName   |  0.00000 |  0.46409 | i  |  2, 5, 1 |||
 31 |          | noName   |  0.00000 |  0.49321 | i  |  3, 5, 1 |||
 32 |          | noName   |  0.00000 |  0.98718 | i  |  4, 5, 1 |||
 33 |          | noName   |  0.80000 | -0.13034 | i  |  5, 5, 1 |||
 34 |          | noName   |  0.00000 |  0.80401 | i  |  6, 5, 1 |||
 35 |          | noName   |  0.00000 |  0.23112 | i  |  7, 5, 1 |||
 36 |          | noName   |  0.00000 | -0.66735 | i  |  1, 6, 1 |||
 37 |          | noName   |  0.00000 |  0.65911 | i  |  2, 6, 1 |||
 38 |          | noName   |  0.00000 | -0.55437 | i  |  3, 6, 1 |||
 39 |          | noName   |  0.00000 | -0.18863 | i  |  4, 6, 1 |||
 40 |          | noName   |  0.70000 |  0.47093 | i  |  5, 6, 1 |||
 41 |          | noName   |  0.00000 |  0.42412 | i  |  6, 6, 1 |||
 42 |          | noName   |  0.00000 |  0.16239 | i  |  7, 6, 1 |||
 43 |          | noName   |  0.00000 |  0.97339 | i  |  1, 7, 1 |||
 44 |          | noName   |  0.80000 | -0.99542 | i  |  2, 7, 1 |||
 45 |          | noName   |  0.00000 |  0.89239 | i  |  3, 7, 1 |||
 46 |          | noName   |  0.00000 |  0.16276 | i  |  4, 7, 1 |||
 47 |          | noName   |  0.70000 | -0.08286 | i  |  5, 7, 1 |||
 48 |          | noName   |  0.00000 | -0.14145 | i  |  6, 7, 1 |||
 49 |          | noName   |  0.00000 | -0.28355 | i  |  7, 7, 1 |||
 50 |          | noName   |  0.00000 |  0.20859 | i  |  1, 8, 1 |||
 51 |          | noName   |  0.00000 |  0.19773 | i  |  2, 8, 1 |||
 52 |          | noName   |  0.80000 | -0.15506 | i  |  3, 8, 1 |||
 53 |          | noName   |  0.70000 | -0.97308 | i  |  4, 8, 1 |||
 54 |          | noName   |  0.00000 | -0.79369 | i  |  5, 8, 1 |||
 55 |          | noName   |  0.00000 |  0.20212 | i  |  6, 8, 1 |||
 56 |          | noName   |  0.00000 | -0.51671 | i  |  7, 8, 1 |||
 57 |          | noName   |  0.00000 | -0.77667 | i  |  1, 9, 1 |||
 58 |          | noName   |  0.00000 | -0.91681 | i  |  2, 9, 1 |||
 59 |          | noName   |  0.00000 | -0.22922 | i  |  3, 9, 1 |||
 60 |          | noName   |  0.00000 | -0.61370 | i  |  4, 9, 1 |||
 61 |          | noName   |  0.00000 | -0.93359 | i  |  5, 9, 1 |||
 62 |          | noName   |  0.00000 |  0.76116 | i  |  6, 9, 1 |||
 63 |          | noName   |  0.00000 | -0.47429 | i  |  7, 9, 1 |||
 64 |          | noName   |  0.07219 |  0.04665 | h  | 11, 1, 1 |||
 65 |          | noName   |  0.16893 | -1.39116 | h  | 11, 2, 1 |||
 66 |          | noName   |  0.01738 |  0.07880 | h  | 11, 3, 1 |||
 67 |          | noName   |  0.08846 |  0.50341 | h  | 11, 4, 1 |||
 68 |          | noName   |  0.98289 |  1.65170 | h  | 11, 5, 1 |||
 69 |          | noName   |  0.97600 |  0.05230 | h  | 11, 6, 1 |||
 70 |          | noName   |  0.03226 | -3.06399 | o  | 15, 1, 1 |||
 71 |          | noName   |  0.00207 | -3.43625 | o  | 15, 2, 1 |||
 72 |          | noName   |  0.02038 | -3.06177 | o  | 15, 3, 1 |||
 73 |          | noName   |  0.00003 | -2.30321 | o  | 15, 4, 1 |||
 74 |          | noName   |  0.02417 | -0.37587 | o  | 15, 5, 1 |||
 75 |          | noName   |  0.04761 | -3.42512 | o  | 15, 6, 1 |||
 76 |          | noName   |  0.04523 | -3.02923 | o  | 15, 7, 1 |||
 77 |          | noName   |  0.00304 | -0.62369 | o  | 15, 8, 1 |||
 78 |          | noName   |  0.01404 |  0.03620 | o  | 15, 9, 1 |||
 79 |          | noName   |  0.91017 | -1.56965 | o  | 15,10, 1 |||
----|----------|----------|----------|----------|----|----------|----------|----------|-------


connection definition section :

target | site | source:weight
-------|------|---------------------------------------------------------------------------------------------------------------------
    64 |      | 63: 0.13340, 62:-0.95935, 61:-0.53130, 60: 0.68322, 59: 0.69909, 58:-0.79235, 57: 0.41087, 56: 0.42167, 55:-3.31848,
                54: 0.91968, 53: 2.29473, 52: 2.06206, 51:-1.06265, 50:-0.02658, 49: 0.48900, 48: 1.22245, 47:-1.17976, 46: 0.57940,
                45: 0.06272, 44:-0.96019, 43:-0.53215, 42: 0.63463, 41:-0.19597, 40:-0.49786, 39: 0.74528, 38: 0.66363, 37: 0.32193,
                36:-0.45280, 35: 0.10007, 34:-0.57966, 33:-2.29312, 32:-1.03693, 31: 0.04541, 30: 0.02121, 29: 0.79925, 28: 0.96204,
                27: 1.11152, 26:-1.34798, 25: 0.36176, 24: 0.64190, 23:-0.42988, 22: 0.46452, 21: 0.01523, 20: 0.69907, 19:-1.46034,
                18: 0.36583, 17: 0.10062, 16:-0.06803, 15: 0.82562, 14:-0.33641, 13:-2.41590, 12: 0.81233, 11:-0.01338, 10: 0.04894,
                 9: 0.51453,  8: 0.98193,  7: 0.80224,  6:-0.56438,  5:-0.49077,  4:-0.40379,  3: 0.72326,  2:-0.75616,  1: 0.78051
    65 |      | 63: 0.76653, 62: 0.09934, 61:-0.51909, 60: 0.89422, 59:-0.11423, 58: 0.50108, 57:-0.96765, 56:-0.13565, 55: 0.75972,
                54:-0.64688, 53: 0.37288, 52:-0.97091, 51:-0.49295, 50:-0.11844, 49:-0.62230, 48: 2.12977, 47: 1.01639, 46: 0.28837,
                45:-0.68114, 44:-0.16802, 43: 0.85766, 42:-0.19285, 41: 4.85920, 40: 1.96541, 39:-0.88277, 38:-0.47343, 37: 1.00046,
                36:-0.31968, 35: 0.99506, 34: 0.48466, 33: 0.94277, 32: 0.13225, 31: 1.65379, 30: 0.80115, 29:-0.41539, 28: 0.76739,
                27: 2.56271, 26:-0.81635, 25: 0.37836, 24:-0.61547, 23:-1.13904, 22:-0.68108, 21: 0.29051, 20: 0.61820, 19: 0.31564,
                18: 0.19277, 17: 0.75811, 16:-0.04565, 15: 0.73150, 14: 0.93127, 13:-1.11492, 12:-1.78858, 11:-1.07015, 10:-0.55454,
                 9: 0.10469,  8: 0.36186,  7: 0.50261,  6: 0.12656,  5: 0.12284,  4:-0.49101,  3: 0.28703,  2: 0.95892,  1:-0.52110
    66 |      | 63: 0.92401, 62:-0.21195, 61:-0.00632, 60: 0.43162, 59: 0.60881, 58: 0.63866, 57: 0.76214, 56:-0.93957, 55:-1.76632,
                54:-1.59615, 53:-2.66246, 52:-2.27408, 51: 2.05065, 50:-0.23875, 49: 0.49236, 48: 0.18862, 47:-1.14948, 46:-1.21805,
                45: 0.43590, 44: 1.11618, 43: 0.02689, 42: 0.09433, 41:-0.75747, 40:-0.29563, 39:-0.93997, 38:-0.51213, 37: 0.14342,
                36: 0.35423, 35:-0.71679, 34: 1.94246, 33:-0.71745, 32:-0.82601, 31:-1.38034, 30:-0.23817, 29: 0.40385, 28:-0.70049,
                27: 1.49073, 26: 0.33149, 25:-0.02546, 24:-0.68767, 23: 0.88693, 22: 0.24534, 21:-0.75933, 20: 0.09219, 19:-0.78631,
                18: 0.03721, 17: 0.64342, 16: 1.23730, 15: 0.21940, 14:-0.34397, 13:-0.13554, 12: 0.57607, 11:-0.16232, 10:-0.00608,
                 9: 1.42602,  8: 0.48643,  7:-0.26536,  6: 0.92553,  5: 0.30290,  4:-0.94958,  3:-0.01968,  2:-0.76171,  1:-0.37510
    67 |      | 63: 0.64104, 62: 0.00131, 61:-0.67656, 60: 0.34623, 59:-0.28416, 58:-0.92267, 57:-0.77105, 56:-0.87677, 55: 1.88253,
                54: 1.06551, 53:-0.66320, 52: 0.76495, 51:-0.25321, 50:-0.80547, 49:-0.91327, 48: 0.21837, 47:-0.68220, 46: 0.49001,
                45: 0.98029, 44: 1.35816, 43:-0.92669, 42:-0.79687, 41:-1.36334, 40:-1.75697, 39:-1.05597, 38: 0.81695, 37: 0.12894,
                36:-0.00534, 35:-0.31260, 34: 0.73712, 33:-1.37156, 32:-0.09027, 31:-2.31365, 30: 0.57419, 29: 0.07327, 28: 0.10929,
                27:-1.17462, 26:-0.44608, 25:-0.43320, 24: 0.03848, 23: 0.12582, 22:-0.23685, 21:-0.69286, 20: 1.13955, 19:-1.00845,
                18: 0.31716, 17:-0.48955, 16: 0.06228, 15:-0.92560, 14: 0.48259, 13: 2.72354, 12:-1.13029, 11:-1.05561, 10:-0.29071,
                 9: 0.72888,  8:-0.78112,  7: 0.90857,  6: 0.60210,  5:-0.25919,  4:-0.85369,  3:-0.97412,  2: 0.41411,  1: 0.22239
    68 |      | 63: 0.95276, 62:-0.36631, 61: 0.78661, 60: 0.68883, 59:-0.94549, 58: 0.27427, 57:-0.93811, 56: 0.16605, 55:-2.41038,
                54:-1.65563, 53:-1.20028, 52:-0.43073, 51:-2.32943, 50: 0.76348, 49:-0.58507, 48:-0.32576, 47: 0.32709, 46:-0.61425,
                45:-0.48161, 44: 1.77869, 43:-0.90545, 42:-0.15928, 41: 0.35103, 40: 2.42126, 39:-0.11541, 38: 0.78338, 37: 0.86244,
                36: 0.02744, 35:-0.06992, 34:-0.56394, 33:-0.24229, 32:-1.55136, 31:-1.28621, 30: 1.19053, 29: 0.40922, 28:-0.25260,
                27:-1.86702, 26: 1.52036, 25:-0.88004, 24: 0.17624, 23:-0.43183, 22:-0.60808, 21:-0.06870, 20: 0.52868, 19: 0.30632,
                18:-1.25491, 17: 0.11319, 16: 0.47858, 15: 0.08176, 14:-0.94470, 13: 1.51306, 12:-0.88996, 11:-0.71082, 10: 0.27875,
                 9:-0.41887,  8:-0.57744,  7:-0.56554,  6: 0.92572,  5:-0.87201,  4:-0.27757,  3:-0.35356,  2:-0.18174,  1:-0.72472
    69 |      | 63:-0.10575, 62: 0.57964, 61: 0.69951, 60: 0.51024, 59:-0.52751, 58:-0.31364, 57:-0.11020, 56:-0.69793, 55: 0.18412,
                54:-0.68423, 53:-0.04845, 52:-0.87687, 51: 0.22783, 50: 0.05008, 49: 0.73077, 48:-1.19883, 47:-0.15694, 46:-0.82627,
                45:-0.38340, 44:-0.20541, 43: 0.18827, 42:-0.28599, 41:-1.31900, 40:-0.27989, 39:-0.07916, 38:-0.34336, 37:-0.20489,
                36: 0.87841, 35: 0.73406, 34:-1.47454, 33: 2.97764, 32: 2.23724, 31: 1.94976, 30:-1.20131, 29: 0.22819, 28:-0.23527,
                27:-0.98408, 26: 1.00405, 25: 0.24984, 24:-0.66106, 23:-0.76285, 22:-0.34874, 21:-0.44548, 20:-0.58714, 19:-0.36731,
                18: 1.00381, 17: 0.20554, 16: 0.19551, 15:-0.97345, 14: 0.01889, 13:-0.77927, 12: 1.62680, 11: 0.98068, 10: 1.40303,
                 9:-2.08515,  8: 0.96081,  7:-0.27744,  6: 0.66607,  5: 0.15598,  4:-0.29539,  3:-0.93554,  2:-0.21714,  1:-0.21250
    70 |      | 69: 2.94243, 68:-3.04668, 67:-3.38014, 66: 1.29595, 65: 2.34445, 64:-4.62766
    71 |      | 69:-0.10013, 68:-3.02512, 67:-5.13043, 66:-1.94282, 65: 3.71704, 64: 2.62129
    72 |      | 69:-2.61701, 68: 2.31415, 67: 2.39359, 66:-0.48146, 65:-5.39366, 64: 2.44442
    73 |      | 69:-5.56573, 68:-3.05625, 67:-1.04300, 66: 2.16200, 65:-0.48481, 64: 3.92089
    74 |      | 69: 0.72493, 68:-3.63427, 67: 3.00119, 66:-2.94867, 65:-2.30789, 64:-3.90570
    75 |      | 69: 0.46350, 68: 0.86670, 67:-0.23575, 66: 5.08244, 65:-4.54432, 64:-2.42151
    76 |      | 69:-3.91928, 68: 3.58165, 67:-2.03629, 66:-2.61661, 65: 2.49861, 64: 1.21874
    77 |      | 69:-5.10890, 68:-0.38477, 67: 0.79272, 66:-0.03269, 65: 2.90159, 64:-5.04489
    78 |      | 69: 0.03764, 68:-3.61710, 67:-2.38164, 66:-4.54452, 65:-4.06787, 64: 2.87277
    79 |      | 69: 0.40980, 68: 4.39679, 67:-2.21236, 66:-3.40717, 65:-2.02874, 64:-3.30454
-------|------|---------------------------------------------------------------------------------------------------------------------


layer definition section :

layer | unitNo.
------|----------------------------------------------------------------------------------------------------------------------------
    2 | 64, 65, 66, 67, 68, 69
    3 | 70, 71, 72, 73, 74, 75, 76, 77, 78, 79
------|----------------------------------------------------------------------------------------------------------------------------
