SNNS network definition file V1.4-3D
generated at Fri Nov 11 15:58:09 2016

network name : 63_6_10 v5
source files :
no. of units : 79
no. of connections : 438
no. of unit types : 0
no. of site types : 0


learning function : BackpropMomentum
update function   : Topological_Order


unit default section :

act      | bias     | st | subnet | layer | act func     | out func
---------|----------|----|--------|-------|--------------|-------------
 0.00000 |  0.00000 | h  |      0 |     1 | Act_Logistic | Out_Identity 
---------|----------|----|--------|-------|--------------|-------------


unit definition section :

no. | typeName | unitName | act      | bias     | st | position | act func | out func | sites
----|----------|----------|----------|----------|----|----------|----------|----------|-------
  1 |          | noName   |  0.00000 |  0.39787 | i  |  1, 1, 1 |||
  2 |          | noName   |  0.00000 |  0.68474 | i  |  2, 1, 1 |||
  3 |          | noName   |  0.00000 | -0.61126 | i  |  3, 1, 1 |||
  4 |          | noName   |  0.00000 |  0.87103 | i  |  4, 1, 1 |||
  5 |          | noName   |  0.00000 | -0.22306 | i  |  5, 1, 1 |||
  6 |          | noName   |  0.00000 | -0.40587 | i  |  6, 1, 1 |||
  7 |          | noName   |  0.00000 | -0.24082 | i  |  7, 1, 1 |||
  8 |          | noName   |  0.00000 | -0.25083 | i  |  1, 2, 1 |||
  9 |          | noName   |  0.00000 | -0.68102 | i  |  2, 2, 1 |||
 10 |          | noName   |  0.80000 |  0.00485 | i  |  3, 2, 1 |||
 11 |          | noName   |  0.70000 |  0.71722 | i  |  4, 2, 1 |||
 12 |          | noName   |  0.80000 |  0.40214 | i  |  5, 2, 1 |||
 13 |          | noName   |  0.70000 |  0.48613 | i  |  6, 2, 1 |||
 14 |          | noName   |  0.00000 |  0.00424 | i  |  7, 2, 1 |||
 15 |          | noName   |  0.00000 | -0.41997 | i  |  1, 3, 1 |||
 16 |          | noName   |  0.00000 | -0.85919 | i  |  2, 3, 1 |||
 17 |          | noName   |  1.00000 |  0.55754 | i  |  3, 3, 1 |||
 18 |          | noName   |  0.00000 |  0.11899 | i  |  4, 3, 1 |||
 19 |          | noName   |  0.80000 |  0.67467 | i  |  5, 3, 1 |||
 20 |          | noName   |  0.00000 |  0.26316 | i  |  6, 3, 1 |||
 21 |          | noName   |  0.00000 | -0.19559 | i  |  7, 3, 1 |||
 22 |          | noName   |  0.00000 | -0.95965 | i  |  1, 4, 1 |||
 23 |          | noName   |  0.00000 |  0.41264 | i  |  2, 4, 1 |||
 24 |          | noName   |  0.00000 |  0.07785 | i  |  3, 4, 1 |||
 25 |          | noName   |  0.00000 | -0.33097 | i  |  4, 4, 1 |||
 26 |          | noName   |  0.00000 |  0.33714 | i  |  5, 4, 1 |||
 27 |          | noName   |  0.00000 | -0.59862 | i  |  6, 4, 1 |||
 28 |          | noName   |  0.00000 | -0.17771 | i  |  7, 4, 1 |||
 29 |          | noName   |  0.00000 |  0.26011 | i  |  1, 5, 1 |||
 30 |          | noName   |  0.00000 | -0.78076 | i  |  2, 5, 1 |||
 31 |          | noName   |  0.00000 |  0.40214 | i  |  3, 5, 1 |||
 32 |          | noName   |  0.00000 | -0.96167 | i  |  4, 5, 1 |||
 33 |          | noName   |  0.80000 |  0.47685 | i  |  5, 5, 1 |||
 34 |          | noName   |  0.00000 | -0.58428 | i  |  6, 5, 1 |||
 35 |          | noName   |  0.00000 | -0.05179 | i  |  7, 5, 1 |||
 36 |          | noName   |  0.00000 | -0.03348 | i  |  1, 6, 1 |||
 37 |          | noName   |  0.00000 | -0.92499 | i  |  2, 6, 1 |||
 38 |          | noName   |  0.00000 | -0.77319 | i  |  3, 6, 1 |||
 39 |          | noName   |  0.00000 |  0.43632 | i  |  4, 6, 1 |||
 40 |          | noName   |  0.70000 |  0.52324 | i  |  5, 6, 1 |||
 41 |          | noName   |  0.00000 | -0.01376 | i  |  6, 6, 1 |||
 42 |          | noName   |  0.00000 |  0.81579 | i  |  7, 6, 1 |||
 43 |          | noName   |  0.00000 |  0.50273 | i  |  1, 7, 1 |||
 44 |          | noName   |  0.80000 |  0.42192 | i  |  2, 7, 1 |||
 45 |          | noName   |  0.00000 |  0.20389 | i  |  3, 7, 1 |||
 46 |          | noName   |  0.00000 | -0.19919 | i  |  4, 7, 1 |||
 47 |          | noName   |  0.70000 |  0.49699 | i  |  5, 7, 1 |||
 48 |          | noName   |  0.00000 |  0.00137 | i  |  6, 7, 1 |||
 49 |          | noName   |  0.00000 | -0.45170 | i  |  7, 7, 1 |||
 50 |          | noName   |  0.00000 | -0.78973 | i  |  1, 8, 1 |||
 51 |          | noName   |  0.00000 |  0.86615 | i  |  2, 8, 1 |||
 52 |          | noName   |  0.80000 |  0.32395 | i  |  3, 8, 1 |||
 53 |          | noName   |  0.70000 |  0.62285 | i  |  4, 8, 1 |||
 54 |          | noName   |  0.00000 |  0.86395 | i  |  5, 8, 1 |||
 55 |          | noName   |  0.00000 |  0.26127 | i  |  6, 8, 1 |||
 56 |          | noName   |  0.00000 |  0.10501 | i  |  7, 8, 1 |||
 57 |          | noName   |  0.00000 |  0.27427 | i  |  1, 9, 1 |||
 58 |          | noName   |  0.00000 |  0.24229 | i  |  2, 9, 1 |||
 59 |          | noName   |  0.00000 | -0.82043 | i  |  3, 9, 1 |||
 60 |          | noName   |  0.00000 |  0.03787 | i  |  4, 9, 1 |||
 61 |          | noName   |  0.00000 |  0.86914 | i  |  5, 9, 1 |||
 62 |          | noName   |  0.00000 | -0.09348 | i  |  6, 9, 1 |||
 63 |          | noName   |  0.00000 | -0.04630 | i  |  7, 9, 1 |||
 64 |          | noName   |  0.00774 | -0.89751 | h  | 11, 1, 1 |||
 65 |          | noName   |  0.87389 |  1.37984 | h  | 11, 2, 1 |||
 66 |          | noName   |  0.97224 | -1.32235 | h  | 11, 3, 1 |||
 67 |          | noName   |  0.99131 |  1.11567 | h  | 11, 4, 1 |||
 68 |          | noName   |  0.95407 |  0.84891 | h  | 11, 5, 1 |||
 69 |          | noName   |  0.00670 |  0.30658 | h  | 11, 6, 1 |||
 70 |          | noName   |  0.00006 | -2.86195 | o  | 15, 1, 1 |||
 71 |          | noName   |  0.00069 | -1.65563 | o  | 15, 2, 1 |||
 72 |          | noName   |  0.08756 | -0.56504 | o  | 15, 3, 1 |||
 73 |          | noName   |  0.00005 | -1.06929 | o  | 15, 4, 1 |||
 74 |          | noName   |  0.05793 | -0.62703 | o  | 15, 5, 1 |||
 75 |          | noName   |  0.00162 | -3.30689 | o  | 15, 6, 1 |||
 76 |          | noName   |  0.01044 | -1.47899 | o  | 15, 7, 1 |||
 77 |          | noName   |  0.00796 | -1.01030 | o  | 15, 8, 1 |||
 78 |          | noName   |  0.00349 | -0.51584 | o  | 15, 9, 1 |||
 79 |          | noName   |  0.90820 | -4.42574 | o  | 15,10, 1 |||
----|----------|----------|----------|----------|----|----------|----------|----------|-------


connection definition section :

target | site | source:weight
-------|------|---------------------------------------------------------------------------------------------------------------------
    64 |      |  1: 0.69939,  2:-0.46751,  3: 0.90124,  4: 0.22898,  5:-0.17051,  6:-0.38072,  7:-0.55272,  8: 0.45604,  9: 1.14109,
                10:-0.36671, 11:-0.54238, 12:-0.51129, 13:-1.83716, 14: 0.77630, 15:-0.38456, 16:-0.65363, 17:-0.35716, 18: 0.49040,
                19:-0.20288, 20:-0.57208, 21:-0.32572, 22: 0.36753, 23:-0.24445, 24: 0.07236, 25: 1.12460, 26: 0.35427, 27: 1.92200,
                28: 0.29569, 29: 0.68340, 30: 0.89508, 31: 0.80978, 32: 1.12120, 33:-0.44735, 34: 1.10482, 35: 0.79717, 36: 0.51036,
                37: 0.19507, 38:-0.55992, 39:-0.32482, 40: 1.32074, 41: 3.54797, 42: 0.51463, 43:-0.62987, 44:-0.96786, 45: 0.79888,
                46: 0.92435, 47:-0.51563, 48: 1.66614, 49:-0.81658, 50: 0.13138, 51: 0.47403, 52:-1.14914, 53: 0.59968, 54: 0.42308,
                55:-0.65641, 56: 0.90222, 57:-0.93506, 58:-0.11386, 59:-0.48735, 60:-0.69286, 61: 0.06864, 62:-0.15183, 63:-0.17978
    65 |      |  1: 0.38176,  2:-0.49675,  3:-0.75225,  4: 0.47520,  5:-0.95459,  6: 0.67009,  7: 0.51183,  8:-0.32560,  9: 2.60078,
                10:-0.09324, 11:-0.75513, 12:-0.04812, 13: 3.54661, 14: 0.56273, 15:-0.43907, 16:-0.45795, 17:-0.92517, 18: 0.33574,
                19: 0.66350, 20:-1.73065, 21: 0.93902, 22:-0.97418, 23: 0.42588, 24:-0.67064, 25: 0.20696, 26: 1.12893, 27:-0.04095,
                28: 0.59624, 29: 0.95318, 30:-1.91332, 31: 0.02656, 32: 2.05967, 33: 0.15731, 34: 0.73734, 35: 0.92749, 36: 0.60063,
                37:-0.95472, 38: 0.60283, 39: 0.89534, 40: 0.23678, 41:-1.11355, 42: 0.17875, 43:-0.95520, 44:-0.65710, 45:-0.68450,
                46: 1.75939, 47:-0.11451, 48:-2.01074, 49: 0.78442, 50:-0.57945, 51:-0.20296, 52:-0.63658, 53:-0.09585, 54: 0.59052,
                55:-0.75728, 56:-0.09867, 57: 0.32780, 58: 0.87915, 59:-0.49846, 60: 0.49937, 61: 0.82757, 62:-0.87255, 63:-0.37297
    66 |      |  1: 0.68334,  2: 0.88220,  3:-0.42698,  4: 0.17612,  5:-0.27451,  6:-0.15586,  7:-0.34025,  8:-0.71679,  9:-1.31150,
                10: 0.84051, 11: 0.66963, 12: 1.47747, 13:-0.16393, 14:-0.91388, 15: 0.24845, 16: 0.18588, 17: 0.34184, 18:-1.82230,
                19: 0.89399, 20: 1.09133, 21: 0.14927, 22:-0.63683, 23: 0.57098, 24: 0.97790, 25:-1.27161, 26:-0.47630, 27: 0.20428,
                28: 0.16544, 29: 0.74517, 30: 0.12849, 31: 2.21734, 32: 0.71477, 33: 2.17441, 34:-1.67159, 35:-0.01627, 36:-0.69622,
                37: 0.41900, 38: 0.31260, 39:-2.02596, 40:-1.77882, 41:-2.96098, 42:-0.78173, 43:-0.70373, 44: 0.46918, 45:-0.32041,
                46:-0.53717, 47: 0.95903, 48:-1.09753, 49: 0.33946, 50:-0.88696, 51:-0.05676, 52: 0.89412, 53:-0.91889, 54:-0.72342,
                55: 0.46702, 56: 0.73138, 57:-0.82391, 58:-0.11869, 59:-0.83410, 60:-0.44414, 61:-0.67846, 62:-0.78307, 63: 0.95624
    67 |      |  1:-0.15775,  2: 0.95441,  3: 0.02145,  4: 0.89813,  5:-0.82958,  6:-0.76098,  7: 0.59807,  8: 0.16147,  9:-0.40753,
                10:-1.59770, 11:-0.52264, 12:-2.90525, 13: 1.63647, 14:-0.93072, 15:-0.48991, 16:-0.60161, 17:-0.06790, 18: 0.67420,
                19: 1.47188, 20: 0.93005, 21: 0.85589, 22: 0.72704, 23:-1.10708, 24:-0.85333, 25:-0.25238, 26: 1.10208, 27:-0.24116,
                28:-0.55535, 29: 0.73516, 30: 0.56094, 31: 0.12457, 32:-1.37807, 33: 0.79787, 34:-0.84593, 35: 0.61046, 36: 0.68621,
                37: 0.18438, 38:-0.83294, 39:-0.40023, 40: 3.89094, 41: 1.91886, 42: 0.04349, 43: 0.89416, 44: 0.58953, 45: 0.81695,
                46: 0.94722, 47: 2.19110, 48: 0.87871, 49: 0.83697, 50: 0.24400, 51:-2.20247, 52: 0.04496, 53:-0.09859, 54:-0.36190,
                55: 1.56983, 56: 0.02121, 57:-0.27677, 58: 0.55290, 59:-0.47472, 60:-0.58190, 61: 0.72655, 62: 0.58940, 63: 0.38975
    68 |      |  1:-0.90307,  2: 0.00510,  3:-0.26249,  4:-0.79247,  5:-0.31895,  6:-0.04746,  7: 0.03385,  8: 0.18796,  9:-1.37394,
                10: 1.05243, 11: 0.69423, 12: 2.22842, 13:-0.88214, 14: 0.23472, 15: 0.17789, 16: 1.12290, 17:-0.66613, 18: 0.17767,
                19: 1.25657, 20:-0.26013, 21:-0.39036, 22:-0.53496, 23:-0.29202, 24: 0.96478, 25:-0.83163, 26:-0.19006, 27: 0.03766,
                28:-0.12467, 29: 0.59899, 30:-0.47950, 31:-2.98526, 32:-2.05620, 33:-0.95213, 34: 1.33475, 35: 0.45213, 36:-0.18571,
                37: 0.10795, 38: 0.76397, 39:-0.52729, 40: 0.52520, 41:-0.08589, 42: 0.06436, 43:-0.39219, 44: 0.83362, 45: 0.65319,
                46:-0.54486, 47: 0.00062, 48: 0.45688, 49: 0.26511, 50: 0.84851, 51:-0.28289, 52:-0.16101, 53:-1.13160, 54:-1.05552,
                55:-0.30646, 56:-0.60027, 57:-0.91772, 58:-0.44597, 59: 0.59911, 60: 0.02756, 61:-0.78191, 62: 0.71740, 63:-0.49028
    69 |      |  1: 0.68566,  2:-0.68059,  3: 0.86596,  4: 0.67095,  5: 0.55821,  6: 0.08225,  7:-0.32591,  8: 0.24162,  9:-0.48917,
                10: 0.47864, 11:-0.67044, 12: 0.55328, 13:-0.08256, 14:-0.69488, 15: 0.08383, 16: 1.03879, 17:-0.96454, 18:-0.32937,
                19:-0.65827, 20:-0.76580, 21:-0.03873, 22: 0.92505, 23: 0.31369, 24: 0.56102, 25:-0.87984, 26:-0.64703, 27:-0.54273,
                28:-0.10117, 29:-0.98773, 30: 0.09988, 31: 0.89442, 32: 0.03875, 33: 0.85833, 34: 1.26059, 35: 0.15329, 36: 0.75451,
                37:-0.22681, 38:-0.29911, 39: 0.59094, 40: 0.42579, 41: 0.72573, 42:-0.30882, 43: 0.20688, 44: 0.84704, 45: 0.11423,
                46:-0.85824, 47:-0.25828, 48:-0.06917, 49:-0.38780, 50:-0.03830, 51: 0.36733, 52:-3.71133, 53:-3.75029, 54:-2.87957,
                55: 0.15848, 56:-0.50414, 57:-0.63329, 58: 0.54491, 59:-0.59307, 60: 0.32554, 61:-0.02780, 62: 0.07364, 63: 0.89819
    70 |      | 64: 0.28591, 65:-5.41661, 66: 1.02196, 67:-2.76944, 68:-0.40827, 69: 4.83575
    71 |      | 64: 2.94817, 65:-2.77328, 66: 2.05763, 67:-1.41162, 68:-3.98732, 69:-3.68707
    72 |      | 64:-4.49468, 65:-4.38528, 66: 2.01873, 67:-2.04033, 68: 2.26665, 69:-2.14045
    73 |      | 64: 2.07013, 65:-2.93651, 66:-3.44939, 67:-4.91305, 68: 1.96109, 69:-1.72338
    74 |      | 64:-3.73323, 65: 1.67897, 66: 1.93738, 67:-1.47573, 68:-4.18557, 69:-4.11829
    75 |      | 64:-3.01853, 65: 2.08602, 66:-0.43561, 67:-3.40332, 68:-1.20529, 69: 4.80550
    76 |      | 64:-0.53995, 65:-4.41808, 66:-4.21364, 67: 4.25403, 68: 0.71497, 69:-1.50225
    77 |      | 64:-0.69841, 65:-0.65567, 66:-2.30714, 67: 4.27058, 68:-5.49347, 69: 2.18942
    78 |      | 64:-0.46549, 65: 4.01474, 66:-5.80206, 67:-1.66847, 68:-1.40038, 69:-1.97634
    79 |      | 64:-4.00015, 65: 1.66828, 66: 0.02558, 67: 4.53780, 68: 0.81797, 69:-1.93776
-------|------|---------------------------------------------------------------------------------------------------------------------


layer definition section :

layer | unitNo.
------|----------------------------------------------------------------------------------------------------------------------------
    2 | 64, 65, 66, 67, 68, 69
    3 | 70, 71, 72, 73, 74, 75, 76, 77, 78, 79
------|----------------------------------------------------------------------------------------------------------------------------
