SNNS network definition file V1.4-3D
generated at Fri Nov 11 15:49:08 2016

network name : 63_6_10 v3
source files :
no. of units : 79
no. of connections : 438
no. of unit types : 0
no. of site types : 0


learning function : BackpropMomentum
update function   : Topological_Order


unit default section :

act      | bias     | st | subnet | layer | act func     | out func
---------|----------|----|--------|-------|--------------|-------------
 0.00000 |  0.00000 | h  |      0 |     1 | Act_Logistic | Out_Identity 
---------|----------|----|--------|-------|--------------|-------------


unit definition section :

no. | typeName | unitName | act      | bias     | st | position | act func | out func | sites
----|----------|----------|----------|----------|----|----------|----------|----------|-------
  1 |          | noName   |  0.00000 | -0.18589 | i  |  1, 1, 1 |||
  2 |          | noName   |  0.00000 |  0.23948 | i  |  2, 1, 1 |||
  3 |          | noName   |  0.00000 |  0.63536 | i  |  3, 1, 1 |||
  4 |          | noName   |  0.00000 |  0.43461 | i  |  4, 1, 1 |||
  5 |          | noName   |  0.00000 | -0.93255 | i  |  5, 1, 1 |||
  6 |          | noName   |  0.00000 | -0.89642 | i  |  6, 1, 1 |||
  7 |          | noName   |  0.00000 |  0.11191 | i  |  7, 1, 1 |||
  8 |          | noName   |  0.00000 | -0.02615 | i  |  1, 2, 1 |||
  9 |          | noName   |  0.00000 |  0.01572 | i  |  2, 2, 1 |||
 10 |          | noName   |  0.80000 | -0.85699 | i  |  3, 2, 1 |||
 11 |          | noName   |  0.70000 |  0.59508 | i  |  4, 2, 1 |||
 12 |          | noName   |  0.80000 |  0.95911 | i  |  5, 2, 1 |||
 13 |          | noName   |  0.70000 | -0.95856 | i  |  6, 2, 1 |||
 14 |          | noName   |  0.00000 |  0.26566 | i  |  7, 2, 1 |||
 15 |          | noName   |  0.00000 |  0.19358 | i  |  1, 3, 1 |||
 16 |          | noName   |  0.00000 |  0.56456 | i  |  2, 3, 1 |||
 17 |          | noName   |  1.00000 | -0.88073 | i  |  3, 3, 1 |||
 18 |          | noName   |  0.00000 | -0.94324 | i  |  4, 3, 1 |||
 19 |          | noName   |  0.80000 | -0.37425 | i  |  5, 3, 1 |||
 20 |          | noName   |  0.00000 |  0.21488 | i  |  6, 3, 1 |||
 21 |          | noName   |  0.00000 |  0.23777 | i  |  7, 3, 1 |||
 22 |          | noName   |  0.00000 | -0.23777 | i  |  1, 4, 1 |||
 23 |          | noName   |  0.00000 |  0.51799 | i  |  2, 4, 1 |||
 24 |          | noName   |  0.00000 |  0.93817 | i  |  3, 4, 1 |||
 25 |          | noName   |  0.00000 |  0.59136 | i  |  4, 4, 1 |||
 26 |          | noName   |  0.00000 |  0.96393 | i  |  5, 4, 1 |||
 27 |          | noName   |  0.00000 |  0.62975 | i  |  6, 4, 1 |||
 28 |          | noName   |  0.00000 | -0.05911 | i  |  7, 4, 1 |||
 29 |          | noName   |  0.00000 |  0.10392 | i  |  1, 5, 1 |||
 30 |          | noName   |  0.00000 | -0.74175 | i  |  2, 5, 1 |||
 31 |          | noName   |  0.00000 |  0.06693 | i  |  3, 5, 1 |||
 32 |          | noName   |  0.00000 |  0.21921 | i  |  4, 5, 1 |||
 33 |          | noName   |  0.80000 |  0.84698 | i  |  5, 5, 1 |||
 34 |          | noName   |  0.00000 |  0.25211 | i  |  6, 5, 1 |||
 35 |          | noName   |  0.00000 | -0.45445 | i  |  7, 5, 1 |||
 36 |          | noName   |  0.00000 |  0.01669 | i  |  1, 6, 1 |||
 37 |          | noName   |  0.00000 | -0.08506 | i  |  2, 6, 1 |||
 38 |          | noName   |  0.00000 |  0.18644 | i  |  3, 6, 1 |||
 39 |          | noName   |  0.00000 |  0.76891 | i  |  4, 6, 1 |||
 40 |          | noName   |  0.70000 | -0.05716 | i  |  5, 6, 1 |||
 41 |          | noName   |  0.00000 | -0.68004 | i  |  6, 6, 1 |||
 42 |          | noName   |  0.00000 |  0.50261 | i  |  7, 6, 1 |||
 43 |          | noName   |  0.00000 | -0.01914 | i  |  1, 7, 1 |||
 44 |          | noName   |  0.80000 |  0.56444 | i  |  2, 7, 1 |||
 45 |          | noName   |  0.00000 |  0.46861 | i  |  3, 7, 1 |||
 46 |          | noName   |  0.00000 |  0.66137 | i  |  4, 7, 1 |||
 47 |          | noName   |  0.70000 |  0.75671 | i  |  5, 7, 1 |||
 48 |          | noName   |  0.00000 |  0.28117 | i  |  6, 7, 1 |||
 49 |          | noName   |  0.00000 | -0.21671 | i  |  7, 7, 1 |||
 50 |          | noName   |  0.00000 | -0.47069 | i  |  1, 8, 1 |||
 51 |          | noName   |  0.00000 | -0.90460 | i  |  2, 8, 1 |||
 52 |          | noName   |  0.80000 |  0.30021 | i  |  3, 8, 1 |||
 53 |          | noName   |  0.70000 | -0.96936 | i  |  4, 8, 1 |||
 54 |          | noName   |  0.00000 |  0.64360 | i  |  5, 8, 1 |||
 55 |          | noName   |  0.00000 |  0.87512 | i  |  6, 8, 1 |||
 56 |          | noName   |  0.00000 |  0.51970 | i  |  7, 8, 1 |||
 57 |          | noName   |  0.00000 |  0.91943 | i  |  1, 9, 1 |||
 58 |          | noName   |  0.00000 | -0.33195 | i  |  2, 9, 1 |||
 59 |          | noName   |  0.00000 |  0.73382 | i  |  3, 9, 1 |||
 60 |          | noName   |  0.00000 | -0.86438 | i  |  4, 9, 1 |||
 61 |          | noName   |  0.00000 | -0.46983 | i  |  5, 9, 1 |||
 62 |          | noName   |  0.00000 | -0.64635 | i  |  6, 9, 1 |||
 63 |          | noName   |  0.00000 |  0.43907 | i  |  7, 9, 1 |||
 64 |          | noName   |  0.00441 |  0.19704 | h  | 11, 1, 1 |||
 65 |          | noName   |  0.01992 | -2.08325 | h  | 11, 2, 1 |||
 66 |          | noName   |  0.01038 |  1.66048 | h  | 11, 3, 1 |||
 67 |          | noName   |  0.95950 | -1.83971 | h  | 11, 4, 1 |||
 68 |          | noName   |  0.10314 | -0.53330 | h  | 11, 5, 1 |||
 69 |          | noName   |  0.95375 |  1.33848 | h  | 11, 6, 1 |||
 70 |          | noName   |  0.02151 | -2.36605 | o  | 15, 1, 1 |||
 71 |          | noName   |  0.02635 | -5.28909 | o  | 15, 2, 1 |||
 72 |          | noName   |  0.06129 | -6.52156 | o  | 15, 3, 1 |||
 73 |          | noName   |  0.01104 | -0.67810 | o  | 15, 4, 1 |||
 74 |          | noName   |  0.00786 |  0.42824 | o  | 15, 5, 1 |||
 75 |          | noName   |  0.02426 | -3.44059 | o  | 15, 6, 1 |||
 76 |          | noName   |  0.04951 | -6.41330 | o  | 15, 7, 1 |||
 77 |          | noName   |  0.00002 | -2.13693 | o  | 15, 8, 1 |||
 78 |          | noName   |  0.01064 | -0.05990 | o  | 15, 9, 1 |||
 79 |          | noName   |  0.94827 | -0.43799 | o  | 15,10, 1 |||
----|----------|----------|----------|----------|----|----------|----------|----------|-------


connection definition section :

target | site | source:weight
-------|------|---------------------------------------------------------------------------------------------------------------------
    64 |      |  1: 0.14035,  2: 0.31516,  3:-0.19187,  4:-0.97040,  5: 0.00491,  6: 0.93628,  7: 0.24131,  8: 0.01645,  9: 1.03128,
                10: 0.17137, 11:-0.19872, 12:-0.87342, 13:-2.02953, 14: 0.37407, 15: 0.81011, 16:-0.51594, 17:-0.19425, 18:-0.12811,
                19:-0.06314, 20: 0.95917, 21: 0.99603, 22:-0.34788, 23:-0.14142, 24: 0.84759, 25: 1.36076, 26:-0.78666, 27: 1.55234,
                28: 0.23972, 29: 0.63884, 30: 0.03780, 31: 2.00085, 32: 2.08538, 33: 2.44562, 34:-0.06258, 35: 0.51360, 36: 0.70244,
                37: 0.44083, 38:-0.58592, 39: 1.78648, 40:-1.34200, 41: 0.87795, 42: 0.72997, 43: 0.11441, 44:-0.58812, 45:-0.45854,
                46: 0.65822, 47:-0.80827, 48: 0.72282, 49: 0.49181, 50: 0.07932, 51: 0.35213, 52:-2.05707, 53:-2.26394, 54:-2.15501,
                55:-1.33175, 56:-0.99762, 57: 0.90942, 58:-0.80438, 59: 0.22056, 60: 0.77898, 61:-0.64788, 62: 0.44505, 63:-0.94403
    65 |      |  1:-0.08322,  2:-0.63195,  3: 0.06461,  4: 0.32664,  5: 0.97693,  6: 0.24351,  7:-0.78759,  8:-0.26310,  9: 2.80485,
                10:-1.70185, 11:-1.81786, 12:-1.59115, 13:-1.28034, 14: 0.11972, 15: 0.28050, 16:-0.03054, 17:-0.04093, 18: 0.37001,
                19:-0.32835, 20: 0.56440, 21:-0.86657, 22:-0.01755, 23:-0.19656, 24:-0.87274, 25:-0.50557, 26:-1.40880, 27: 1.51023,
                28: 0.34172, 29:-0.59496, 30: 0.53218, 31: 0.32931, 32:-1.36584, 33:-0.52443, 34: 0.35848, 35: 0.17667, 36:-0.74377,
                37: 1.49733, 38: 0.61052, 39:-0.22230, 40: 2.51889, 41: 4.24312, 42:-0.26017, 43: 0.41618, 44:-1.02204, 45:-0.59093,
                46: 0.36069, 47: 0.44805, 48: 0.27897, 49:-0.86224, 50:-0.85534, 51: 0.21255, 52: 1.23320, 53: 2.09724, 54: 0.54210,
                55:-1.98429, 56: 0.42772, 57: 0.46245, 58: 0.86224, 59: 0.80615, 60: 0.57884, 61: 0.34483, 62:-0.89776, 63:-0.25925
    66 |      |  1: 0.08493,  2: 0.57414,  3:-0.12253,  4: 0.90777,  5: 0.23734,  6: 0.26365,  7:-0.68957,  8: 0.27976,  9:-1.45500,
                10:-0.40865, 11: 0.02983, 12:-1.30703, 13:-0.99721, 14:-0.13413, 15:-0.48503, 16:-0.56120, 17:-0.22935, 18: 0.83439,
                19:-1.38101, 20: 2.80651, 21: 0.15409, 22: 0.24149, 23:-0.71120, 24:-0.82824, 25: 0.84251, 26:-0.28575, 27:-0.23310,
                28:-0.79626, 29:-0.46861, 30:-0.47060, 31: 1.16955, 32: 0.84198, 33:-0.53031, 34:-1.13969, 35:-0.49260, 36: 0.76019,
                37: 0.82052, 38:-0.48601, 39: 0.53739, 40:-2.41210, 41:-2.65295, 42: 0.33299, 43: 0.48369, 44:-0.14696, 45: 0.45036,
                46: 0.71803, 47:-0.04491, 48: 1.12957, 49: 0.41282, 50: 0.65123, 51:-1.37368, 52:-0.42171, 53:-0.33511, 54: 0.09675,
                55: 1.79167, 56: 0.69005, 57:-0.10501, 58:-0.28153, 59:-0.66179, 60:-0.00760, 61: 0.13718, 62: 0.43876, 63:-0.84655
    67 |      |  1: 0.58623,  2: 0.10904,  3: 0.71929,  4: 0.35496,  5:-0.96002,  6:-0.76501,  7:-0.17942,  8:-0.21043,  9:-3.09299,
                10: 0.63507, 11: 1.60775, 12: 0.49088, 13:-2.15456, 14: 0.97583, 15: 0.42381, 16:-0.43174, 17: 0.43199, 18:-2.44872,
                19: 0.44008, 20: 0.79240, 21: 0.56175, 22: 0.91760, 23:-0.42908, 24:-0.62444, 25:-0.72696, 26: 0.91116, 27:-2.16581,
                28: 0.78307, 29:-0.85314, 30: 0.94238, 31: 2.13002, 32: 0.16793, 33: 1.83929, 34:-1.18985, 35: 0.47850, 36:-0.70385,
                37: 0.68355, 38: 0.86279, 39:-2.21688, 40: 1.40793, 41: 1.47701, 42: 0.31016, 43: 0.91479, 44:-0.24858, 45: 0.04416,
                46:-1.30475, 47: 1.19146, 48: 0.44475, 49: 0.00827, 50:-0.47533, 51:-1.70491, 52: 0.38041, 53: 0.43770, 54:-0.31844,
                55: 1.37287, 56: 0.68401, 57: 0.52342, 58:-0.18473, 59:-0.33555, 60:-0.52336, 61:-0.64202, 62: 0.56780, 63: 0.95434
    68 |      |  1: 0.36192,  2:-0.85137,  3:-0.93725,  4:-0.74969,  5:-0.36106,  6: 0.39586,  7:-0.97217,  8:-0.58916,  9:-0.46251,
                10: 0.17328, 11:-1.12589, 12:-1.22591, 13: 3.56288, 14:-0.18723, 15:-0.08298, 16: 1.76102, 17: 0.13437, 18:-0.94252,
                19:-1.82004, 20: 0.76254, 21:-0.13968, 22:-0.50108, 23: 0.17530, 24:-0.86676, 25: 0.41095, 26:-1.05756, 27:-2.26176,
                28: 0.03659, 29:-0.61968, 30: 2.07441, 31:-2.18588, 32: 0.02749, 33:-1.98700, 34: 0.44438, 35: 0.06253, 36:-0.05362,
                37: 1.55038, 38: 0.39518, 39:-0.65800, 40: 0.26322, 41:-0.42458, 42: 0.47221, 43:-0.69311, 44: 2.12303, 45: 0.56944,
                46:-0.98854, 47:-0.86819, 48:-0.23446, 49: 0.61547, 50:-0.30906, 51:-0.75619, 52:-0.13683, 53:-1.06791, 54: 0.82879,
                55: 0.98607, 56: 0.30399, 57: 0.66411, 58: 0.20328, 59: 0.63250, 60: 0.48869, 61:-0.36369, 62: 0.60253, 63:-0.19657
    69 |      |  1:-0.64647,  2:-0.13138,  3: 0.38060,  4:-0.82421,  5:-0.71203,  6:-0.01559,  7: 0.21757,  8:-0.71191,  9: 0.70209,
                10: 1.27719, 11:-0.29000, 12: 1.20592, 13:-1.00891, 14:-0.25987, 15:-0.09513, 16: 1.29985, 17: 0.06925, 18:-0.81787,
                19:-0.17077, 20: 0.85813, 21: 0.55376, 22: 0.47386, 23: 1.03162, 24: 0.83929, 25:-1.01110, 26:-0.77099, 27:-0.03635,
                28: 0.92132, 29: 0.36076, 30:-0.75383, 31:-0.41099, 32:-1.60400, 33:-0.56306, 34:-2.82333, 35: 0.23228, 36: 0.79278,
                37:-0.05869, 38: 0.84948, 39: 0.15399, 40: 0.39800, 41:-0.18265, 42: 0.61986, 43: 0.25791, 44: 0.13590, 45:-0.59490,
                46:-0.86106, 47: 0.83266, 48:-0.42847, 49:-0.07413, 50: 0.07566, 51:-0.24959, 52: 0.54790, 53:-0.40001, 54:-1.16785,
                55:-5.67260, 56: 0.44469, 57:-0.36656, 58: 0.93341, 59: 0.09000, 60:-0.51463, 61:-0.39903, 62: 0.65636, 63:-0.63897
    70 |      | 64: 4.10070, 65:-3.37279, 66:-1.10681, 67: 3.23714, 68:-2.03344, 69:-4.49527
    71 |      | 64: 3.55199, 65: 3.44171, 66:-1.43571, 67: 0.66447, 68:-5.47296, 69: 1.61147
    72 |      | 64:-3.07449, 65:-3.61096, 66: 3.66310, 67: 0.62621, 68: 2.73658, 69: 3.10051
    73 |      | 64:-3.04899, 65: 3.91726, 66:-4.65281, 67:-5.02136, 68:-1.19779, 69: 1.16225
    74 |      | 64:-4.42188, 65:-2.28625, 66:-1.00372, 67: 0.15141, 68: 3.34644, 69:-5.95678
    75 |      | 64: 3.17367, 65:-3.97405, 66:-2.99747, 67:-2.90392, 68: 1.88597, 69: 2.55255
    76 |      | 64:-4.11606, 65: 3.86631, 66:-1.84936, 67: 4.09428, 68: 2.43410, 69:-0.79757
    77 |      | 64: 2.83601, 65: 2.99264, 66:-0.97555, 67:-4.00786, 68: 0.41073, 69:-5.13941
    78 |      | 64:-1.51665, 65:-2.32854, 66: 3.71489, 67:-4.67982, 68:-3.40683, 69: 0.40270
    79 |      | 64:-3.19491, 65:-2.65565, 66:-3.13319, 67: 3.09596, 68:-4.24582, 69: 0.95779
-------|------|---------------------------------------------------------------------------------------------------------------------


layer definition section :

layer | unitNo.
------|----------------------------------------------------------------------------------------------------------------------------
    2 | 64, 65, 66, 67, 68, 69
    3 | 70, 71, 72, 73, 74, 75, 76, 77, 78, 79
------|----------------------------------------------------------------------------------------------------------------------------
